{
  "brain": {
    "sizes": [
      58,
      29,
      3
    ],
    "layers": [
      {
        "0": {},
        "1": {},
        "2": {},
        "3": {},
        "4": {},
        "5": {},
        "6": {},
        "7": {},
        "8": {},
        "9": {},
        "10": {},
        "11": {},
        "12": {},
        "13": {},
        "14": {},
        "15": {},
        "16": {},
        "17": {},
        "18": {},
        "19": {},
        "20": {},
        "21": {},
        "22": {},
        "23": {},
        "24": {},
        "25": {},
        "26": {},
        "27": {},
        "28": {},
        "29": {},
        "30": {},
        "31": {},
        "32": {},
        "33": {},
        "34": {},
        "35": {},
        "36": {},
        "37": {},
        "38": {},
        "39": {},
        "40": {},
        "41": {},
        "42": {},
        "43": {},
        "44": {},
        "45": {},
        "46": {},
        "47": {},
        "48": {},
        "49": {},
        "50": {},
        "51": {},
        "52": {},
        "53": {},
        "54": {},
        "55": {},
        "56": {},
        "57": {}
      },
      {
        "0": {
          "bias": 0.2788792848587036,
          "weights": {
            "0": -1.6840397119522095,
            "1": 0.2712991237640381,
            "2": 0.49034181237220764,
            "3": 0.2109990268945694,
            "4": -0.2845816910266876,
            "5": 0.4093155264854431,
            "6": 0.04082430899143219,
            "7": 0.5586251616477966,
            "8": 0.29547804594039917,
            "9": -0.04066364839673042,
            "10": 0.390995591878891,
            "11": 0.0799744725227356,
            "12": 0.10837604850530624,
            "13": -0.12619702517986298,
            "14": -0.3165684938430786,
            "15": 0.33112749457359314,
            "16": 0.32522374391555786,
            "17": -0.05581508204340935,
            "18": 0.04402841627597809,
            "19": 0.07643436640501022,
            "20": 0.22504056990146637,
            "21": -0.3208520710468292,
            "22": -0.46942904591560364,
            "23": -0.43925485014915466,
            "24": -0.47680217027664185,
            "25": -0.20973236858844757,
            "26": -0.3016315698623657,
            "27": 0.014941983856260777,
            "28": -0.3634278178215027,
            "29": -0.3768370747566223,
            "30": -0.25388261675834656,
            "31": -0.3354109823703766,
            "32": -0.0664922446012497,
            "33": -0.22484156489372253,
            "34": -0.2568131983280182,
            "35": -0.03248530998826027,
            "36": -0.2937867045402527,
            "37": -0.10414313524961472,
            "38": 0.3193887174129486,
            "39": -0.0009966606739908457,
            "40": -0.009569874033331871,
            "41": -0.03581923991441727,
            "42": 0.13050539791584015,
            "43": 0.0023699754383414984,
            "44": -0.10628016293048859,
            "45": 0.2594546973705292,
            "46": 0.12846343219280243,
            "47": 0.21451297402381897,
            "48": 0.19687649607658386,
            "49": 0.21196620166301727,
            "50": 0.22357022762298584,
            "51": -0.09750938415527344,
            "52": 0.16926594078540802,
            "53": 0.056978121399879456,
            "54": 0.05072665959596634,
            "55": 0.018709644675254822,
            "56": 0.025523671880364418,
            "57": 0.06767681986093521
          }
        },
        "1": {
          "bias": -0.23586390912532806,
          "weights": {
            "0": 0.443683922290802,
            "1": -0.28341203927993774,
            "2": -0.30428338050842285,
            "3": -0.00287182186730206,
            "4": -0.008506199344992638,
            "5": 0.4787990152835846,
            "6": -0.09025952219963074,
            "7": -0.18165375292301178,
            "8": -0.021088525652885437,
            "9": 0.1732732653617859,
            "10": -0.2347719967365265,
            "11": -0.0009000147692859173,
            "12": 0.026650212705135345,
            "13": -0.1860719472169876,
            "14": 0.1546807587146759,
            "15": -0.18543857336044312,
            "16": -0.21172299981117249,
            "17": -0.3734406530857086,
            "18": -0.29086363315582275,
            "19": -0.1769716888666153,
            "20": 0.007982438430190086,
            "21": -0.07075118273496628,
            "22": -0.25047025084495544,
            "23": -0.008915158919990063,
            "24": -0.014635180123150349,
            "25": -0.009091559797525406,
            "26": -0.23877306282520294,
            "27": 0.07104761898517609,
            "28": -0.004518800415098667,
            "29": 0.0414452850818634,
            "30": 0.03237533941864967,
            "31": -0.07090198993682861,
            "32": 0.12052346765995026,
            "33": -0.038143470883369446,
            "34": -0.17752543091773987,
            "35": -0.01445880625396967,
            "36": -0.24783210456371307,
            "37": 0.02968592941761017,
            "38": 0.2357914298772812,
            "39": 0.12598711252212524,
            "40": 0.01094190776348114,
            "41": 0.07109074294567108,
            "42": 0.08043649047613144,
            "43": -0.08454364538192749,
            "44": 0.10235873609781265,
            "45": -0.02556518465280533,
            "46": -0.08022936433553696,
            "47": 0.08881600946187973,
            "48": 0.1615728884935379,
            "49": 0.12924346327781677,
            "50": 0.12923111021518707,
            "51": -0.04950385168194771,
            "52": 0.0275430828332901,
            "53": 0.23946230113506317,
            "54": -0.014197340235114098,
            "55": 0.12108100205659866,
            "56": -0.14154255390167236,
            "57": 0.2262893170118332
          }
        },
        "2": {
          "bias": 0.0071355681866407394,
          "weights": {
            "0": -0.59516441822052,
            "1": 0.1400388926267624,
            "2": -0.06900924444198608,
            "3": 0.037892092019319534,
            "4": -0.16166526079177856,
            "5": -0.12411608546972275,
            "6": -0.08974546939134598,
            "7": 0.4593604505062103,
            "8": 0.067276731133461,
            "9": 0.10633514076471329,
            "10": 0.10636720806360245,
            "11": -0.2329929769039154,
            "12": 0.04533318057656288,
            "13": 0.017972277477383614,
            "14": -0.01913849636912346,
            "15": -0.052941206842660904,
            "16": -0.03424280509352684,
            "17": -0.1573619693517685,
            "18": 0.12032881379127502,
            "19": -0.013935238122940063,
            "20": -0.1585901528596878,
            "21": -0.19756849110126495,
            "22": -0.16612863540649414,
            "23": -0.1528039127588272,
            "24": -0.2656238377094269,
            "25": -0.2028014063835144,
            "26": 0.07126914709806442,
            "27": -0.020991384983062744,
            "28": 0.08845312148332596,
            "29": -0.22060076892375946,
            "30": -0.07309813797473907,
            "31": -0.23851943016052246,
            "32": 0.07151837646961212,
            "33": 0.014495784416794777,
            "34": -0.18168163299560547,
            "35": 0.029561899602413177,
            "36": -0.0995134487748146,
            "37": 0.09391547739505768,
            "38": -0.08847270905971527,
            "39": 0.17343659698963165,
            "40": 0.20477481186389923,
            "41": 0.0007608117302879691,
            "42": 0.12777389585971832,
            "43": 0.07126542925834656,
            "44": -0.030506020411849022,
            "45": 0.14576300978660583,
            "46": 0.010579237714409828,
            "47": 0.130323588848114,
            "48": 0.16265305876731873,
            "49": 0.07755114138126373,
            "50": -0.16105513274669647,
            "51": 0.0753401592373848,
            "52": -0.14723975956439972,
            "53": 0.1757902204990387,
            "54": 0.14121271669864655,
            "55": 0.16569660604000092,
            "56": 0.16524918377399445,
            "57": -0.05653098598122597
          }
        },
        "3": {
          "bias": 0.0155514907091856,
          "weights": {
            "0": -1.7609727382659912,
            "1": 0.7044182419776917,
            "2": 0.4382302165031433,
            "3": 0.12247005850076675,
            "4": -0.5757966637611389,
            "5": -0.6962518095970154,
            "6": 0.34475576877593994,
            "7": 0.6667852401733398,
            "8": -0.09413272142410278,
            "9": -0.2983745038509369,
            "10": 0.4832477271556854,
            "11": 0.08185680955648422,
            "12": 0.22034846246242523,
            "13": 0.0032821842469274998,
            "14": -0.3377140760421753,
            "15": 0.38419756293296814,
            "16": 0.4888617694377899,
            "17": 0.11537068337202072,
            "18": 0.23481521010398865,
            "19": 0.1728520691394806,
            "20": 0.35623443126678467,
            "21": -0.255021333694458,
            "22": -0.22096939384937286,
            "23": -0.07291550934314728,
            "24": -0.21018840372562408,
            "25": -0.35149669647216797,
            "26": -0.11075647920370102,
            "27": -0.01238301396369934,
            "28": 0.09437375515699387,
            "29": -0.22122904658317566,
            "30": -0.24663686752319336,
            "31": -0.0011153864907100797,
            "32": -0.25352659821510315,
            "33": -0.2271294742822647,
            "34": -0.261451780796051,
            "35": -0.15919378399848938,
            "36": -0.06389664113521576,
            "37": -0.11559286713600159,
            "38": -0.4721042811870575,
            "39": -0.2994001805782318,
            "40": -0.07777764648199081,
            "41": -0.20499861240386963,
            "42": -0.0402713268995285,
            "43": -0.13642533123493195,
            "44": -0.2908492982387543,
            "45": -0.037226345390081406,
            "46": -0.174117311835289,
            "47": -0.19557474553585052,
            "48": -0.23241764307022095,
            "49": 0.01208798959851265,
            "50": -0.1773965209722519,
            "51": 0.11066479235887527,
            "52": -0.2404991090297699,
            "53": 0.08688947558403015,
            "54": -0.020538337528705597,
            "55": -0.22331441938877106,
            "56": -0.08819441497325897,
            "57": -0.15420985221862793
          }
        },
        "4": {
          "bias": -0.04279717430472374,
          "weights": {
            "0": -0.8954031467437744,
            "1": 0.11567294597625732,
            "2": 0.14842094480991364,
            "3": -0.06502975523471832,
            "4": -0.282709002494812,
            "5": -0.17479132115840912,
            "6": 0.18333928287029266,
            "7": 0.41235512495040894,
            "8": 0.008996994234621525,
            "9": -0.05442728474736214,
            "10": 0.20576931536197662,
            "11": -0.028361652046442032,
            "12": -0.1465999335050583,
            "13": -0.0295553095638752,
            "14": -0.17185573279857635,
            "15": 0.3108622133731842,
            "16": 0.3006545901298523,
            "17": 0.27482184767723083,
            "18": 0.16504018008708954,
            "19": -0.000906741654034704,
            "20": 0.19402773678302765,
            "21": -0.027713945135474205,
            "22": -0.14504475891590118,
            "23": 0.052461396902799606,
            "24": -0.010376998223364353,
            "25": 0.051605116575956345,
            "26": -0.18543630838394165,
            "27": -0.19607393443584442,
            "28": -0.011289355345070362,
            "29": 0.02239638939499855,
            "30": 0.06650538742542267,
            "31": -0.16640019416809082,
            "32": -0.2154996544122696,
            "33": -0.047790925949811935,
            "34": -0.1364360749721527,
            "35": 0.11747369170188904,
            "36": -0.006959065794944763,
            "37": 0.08301490545272827,
            "38": -0.133613720536232,
            "39": -0.19395923614501953,
            "40": -0.024260137230157852,
            "41": 0.10474113374948502,
            "42": 0.13581812381744385,
            "43": 0.1022486686706543,
            "44": -0.1000593826174736,
            "45": 0.017665857449173927,
            "46": -0.18883872032165527,
            "47": 0.000625721353571862,
            "48": -0.12322980165481567,
            "49": 0.12916387617588043,
            "50": 0.12761962413787842,
            "51": -0.0772351548075676,
            "52": 0.07250482589006424,
            "53": -0.026235099881887436,
            "54": -0.04657711833715439,
            "55": 0.03680887073278427,
            "56": 0.12735441327095032,
            "57": 0.013098466210067272
          }
        },
        "5": {
          "bias": -0.0012156812008470297,
          "weights": {
            "0": -0.6397642493247986,
            "1": -0.1030515506863594,
            "2": 0.13329419493675232,
            "3": -0.16891248524188995,
            "4": -0.04452918469905853,
            "5": 0.3857671618461609,
            "6": -0.20597533881664276,
            "7": 0.22875340282917023,
            "8": 0.1793929636478424,
            "9": 0.18031227588653564,
            "10": 0.13350844383239746,
            "11": -0.060515422374010086,
            "12": -0.07578067481517792,
            "13": -0.2248671054840088,
            "14": 0.008530113846063614,
            "15": -0.14381515979766846,
            "16": -0.03770875185728073,
            "17": 0.06377603113651276,
            "18": -0.12062861025333405,
            "19": 0.060165468603372574,
            "20": -0.0919557511806488,
            "21": -0.2390725314617157,
            "22": -0.26054954528808594,
            "23": -0.24106663465499878,
            "24": 0.018323296681046486,
            "25": -0.3138323724269867,
            "26": -0.195161372423172,
            "27": -0.09929200261831284,
            "28": -0.17719121277332306,
            "29": -0.10261951386928558,
            "30": -0.18301504850387573,
            "31": 0.06490952521562576,
            "32": -0.19966717064380646,
            "33": 0.021271536126732826,
            "34": -0.21885153651237488,
            "35": -0.10524045675992966,
            "36": 0.04599602892994881,
            "37": -0.13300670683383942,
            "38": 0.037197425961494446,
            "39": 0.0028615326154977083,
            "40": 0.0037769919726997614,
            "41": 0.21549764275550842,
            "42": 0.21461577713489532,
            "43": -0.03578641638159752,
            "44": 0.031039731577038765,
            "45": 0.007887638173997402,
            "46": 0.1538073867559433,
            "47": 0.2126326858997345,
            "48": 0.12422280758619308,
            "49": 0.009628819301724434,
            "50": 0.20063218474388123,
            "51": 0.24243998527526855,
            "52": 0.05205962434411049,
            "53": 0.15554708242416382,
            "54": 0.18441987037658691,
            "55": 0.14057393372058868,
            "56": -0.10675107687711716,
            "57": -0.0860782340168953
          }
        },
        "6": {
          "bias": -0.3765244483947754,
          "weights": {
            "0": 0.6816609501838684,
            "1": -0.26350268721580505,
            "2": -0.18489664793014526,
            "3": 0.005934085231274366,
            "4": -0.06332920491695404,
            "5": 0.33485880494117737,
            "6": 0.044610943645238876,
            "7": -0.31016167998313904,
            "8": 0.051948707550764084,
            "9": -0.10724308341741562,
            "10": -0.28626519441604614,
            "11": -0.009990587830543518,
            "12": -0.12920744717121124,
            "13": 0.12237661331892014,
            "14": -0.017360692843794823,
            "15": 0.0018917019478976727,
            "16": 0.015899669378995895,
            "17": -0.18337984383106232,
            "18": 0.014139487408101559,
            "19": -0.35494333505630493,
            "20": -0.14233462512493134,
            "21": 0.16532538831233978,
            "22": 0.15871287882328033,
            "23": -0.15931469202041626,
            "24": 0.004167465493083,
            "25": 0.14570412039756775,
            "26": 0.038486137986183167,
            "27": 0.20127645134925842,
            "28": -0.13368307054042816,
            "29": 0.1912599802017212,
            "30": 0.13008002936840057,
            "31": 0.1987285166978836,
            "32": 0.18916207551956177,
            "33": 0.044542115181684494,
            "34": -0.09578920155763626,
            "35": -0.15893682837486267,
            "36": 0.1707744151353836,
            "37": 0.1630096286535263,
            "38": 0.008487923070788383,
            "39": 0.3023407459259033,
            "40": 0.24500609934329987,
            "41": 0.1162031963467598,
            "42": -0.06879838556051254,
            "43": 0.10295349359512329,
            "44": 0.05460929125547409,
            "45": 0.05402220040559769,
            "46": -0.01726108230650425,
            "47": 0.014070283621549606,
            "48": 0.020531026646494865,
            "49": 0.22665154933929443,
            "50": 0.12599517405033112,
            "51": 0.045252587646245956,
            "52": -0.009320770390331745,
            "53": 0.1050790324807167,
            "54": -0.04772438108921051,
            "55": 0.12289230525493622,
            "56": 0.22724996507167816,
            "57": 0.18197262287139893
          }
        },
        "7": {
          "bias": -0.30936741828918457,
          "weights": {
            "0": -0.22171659767627716,
            "1": 0.08115055412054062,
            "2": -0.1416984498500824,
            "3": -0.1812228113412857,
            "4": -0.14849227666854858,
            "5": -0.028759382665157318,
            "6": 0.042405858635902405,
            "7": 0.19302810728549957,
            "8": -0.1374402940273285,
            "9": -0.010511537082493305,
            "10": -0.11352419853210449,
            "11": 0.02957144007086754,
            "12": -0.1601385623216629,
            "13": -0.0022239582613110542,
            "14": 0.11842890083789825,
            "15": 0.17860305309295654,
            "16": 0.0033375078346580267,
            "17": 0.060407254844903946,
            "18": -0.02220095694065094,
            "19": 0.11003872007131577,
            "20": -0.12436269223690033,
            "21": -0.1441439837217331,
            "22": -0.13490016758441925,
            "23": 0.08713541179895401,
            "24": -0.09207631647586823,
            "25": -0.05743822827935219,
            "26": 0.09818431735038757,
            "27": -0.03296094760298729,
            "28": -0.10246975719928741,
            "29": 0.08315496891736984,
            "30": 0.08021954447031021,
            "31": 0.10920903831720352,
            "32": -0.19648274779319763,
            "33": 0.010154771618545055,
            "34": -0.20223583281040192,
            "35": -0.07358752191066742,
            "36": -0.03658739849925041,
            "37": 0.17739994823932648,
            "38": 0.1341131329536438,
            "39": 0.11734139174222946,
            "40": 0.12481167167425156,
            "41": 0.1614411473274231,
            "42": 0.058188486844301224,
            "43": 0.06657092273235321,
            "44": 0.15963317453861237,
            "45": 0.1735113561153412,
            "46": -0.1681072860956192,
            "47": -0.07900949567556381,
            "48": 0.048041388392448425,
            "49": -0.16662026941776276,
            "50": -0.010542607866227627,
            "51": -0.05778125301003456,
            "52": 0.1584242284297943,
            "53": -0.1728668510913849,
            "54": -0.08968324214220047,
            "55": 0.02325030229985714,
            "56": -0.15439225733280182,
            "57": 0.09182339906692505
          }
        },
        "8": {
          "bias": -0.2740155756473541,
          "weights": {
            "0": -0.2825307846069336,
            "1": -0.15800665318965912,
            "2": -0.030981916934251785,
            "3": -0.15815484523773193,
            "4": -0.024915842339396477,
            "5": 0.6402243971824646,
            "6": -0.26638033986091614,
            "7": 0.05746027082204819,
            "8": 0.3311696946620941,
            "9": -0.012924805283546448,
            "10": -0.14465606212615967,
            "11": -0.3202759325504303,
            "12": -0.1688004732131958,
            "13": -0.2069457620382309,
            "14": 0.13788601756095886,
            "15": -0.18624430894851685,
            "16": -0.02783096581697464,
            "17": 0.07946982234716415,
            "18": -0.059953805059194565,
            "19": -0.3009018003940582,
            "20": -0.09940299391746521,
            "21": -0.17378424108028412,
            "22": -0.32595089077949524,
            "23": -0.18831077218055725,
            "24": -0.35654714703559875,
            "25": -0.061701878905296326,
            "26": -0.2908763587474823,
            "27": 0.025494519621133804,
            "28": 0.11734984070062637,
            "29": -0.049866754561662674,
            "30": -0.2048206925392151,
            "31": 0.01232236810028553,
            "32": -0.17507968842983246,
            "33": -0.16041246056556702,
            "34": -0.2078959345817566,
            "35": -0.041713010519742966,
            "36": -0.2216820865869522,
            "37": -0.18878276646137238,
            "38": 0.13358552753925323,
            "39": 0.37002211809158325,
            "40": 0.15976563096046448,
            "41": 0.20076708495616913,
            "42": 0.02700083702802658,
            "43": 0.1095278337597847,
            "44": 0.3030945956707001,
            "45": 0.3004043400287628,
            "46": 0.08647045493125916,
            "47": 0.20580695569515228,
            "48": 0.026613662019371986,
            "49": 0.014090530574321747,
            "50": 0.24650345742702484,
            "51": -0.06903815269470215,
            "52": -0.008485374972224236,
            "53": 0.29251712560653687,
            "54": 0.19210629165172577,
            "55": 0.02077588438987732,
            "56": 0.23302175104618073,
            "57": -0.017786448821425438
          }
        },
        "9": {
          "bias": -0.12966099381446838,
          "weights": {
            "0": -0.5721620321273804,
            "1": -0.027940012514591217,
            "2": -0.028047626838088036,
            "3": 0.17431135475635529,
            "4": -0.12637798488140106,
            "5": 0.3285847306251526,
            "6": -0.19445541501045227,
            "7": 0.46487191319465637,
            "8": 0.11134118586778641,
            "9": -0.0925431102514267,
            "10": 0.09043590724468231,
            "11": -0.22728486359119415,
            "12": 0.06454115360975266,
            "13": -0.17881935834884644,
            "14": 0.010139688849449158,
            "15": 0.1518942266702652,
            "16": 0.11064135283231735,
            "17": -0.14393854141235352,
            "18": -0.12623988091945648,
            "19": -0.15569892525672913,
            "20": 0.002882801229134202,
            "21": -0.027511317282915115,
            "22": -0.09074114263057709,
            "23": -0.258218377828598,
            "24": -0.18545398116111755,
            "25": -0.13012652099132538,
            "26": -0.286119282245636,
            "27": -0.040955137461423874,
            "28": -0.22115781903266907,
            "29": -0.15272648632526398,
            "30": -0.0727507621049881,
            "31": -0.21372905373573303,
            "32": -0.014600376598536968,
            "33": -0.06740997731685638,
            "34": -0.21345874667167664,
            "35": -0.22088655829429626,
            "36": -0.12912975251674652,
            "37": -0.23412327468395233,
            "38": -0.08165659755468369,
            "39": -0.028329359367489815,
            "40": 0.10127456486225128,
            "41": 0.036007072776556015,
            "42": -0.12574969232082367,
            "43": 0.19309060275554657,
            "44": -0.027596980333328247,
            "45": -0.0023661155719310045,
            "46": -0.09150524437427521,
            "47": -0.11355483531951904,
            "48": 0.1984064280986786,
            "49": -0.026793314144015312,
            "50": -0.07922814041376114,
            "51": -0.053362954407930374,
            "52": 0.057964127510786057,
            "53": -0.003861631965264678,
            "54": -0.017296897247433662,
            "55": 0.16471682488918304,
            "56": 0.09651504456996918,
            "57": -0.071400485932827
          }
        },
        "10": {
          "bias": -0.14544355869293213,
          "weights": {
            "0": 0.09346966445446014,
            "1": -0.11125123500823975,
            "2": -0.4129851162433624,
            "3": -0.16363568603992462,
            "4": -0.3878695070743561,
            "5": -0.32396024465560913,
            "6": 0.24373188614845276,
            "7": -0.4258130192756653,
            "8": 0.018400616943836212,
            "9": -0.06716979295015335,
            "10": 0.015294679440557957,
            "11": 0.3018037974834442,
            "12": 0.2255614697933197,
            "13": 0.14260227978229523,
            "14": -0.28390374779701233,
            "15": 0.1862725168466568,
            "16": -0.03263596072793007,
            "17": -0.0522291325032711,
            "18": -0.06554363667964935,
            "19": -0.008543439209461212,
            "20": 0.0755232721567154,
            "21": 0.3996151387691498,
            "22": 0.14033082127571106,
            "23": 0.09198848158121109,
            "24": 0.28270092606544495,
            "25": 0.3735140562057495,
            "26": 0.23780906200408936,
            "27": 0.11186778545379639,
            "28": 0.1163141131401062,
            "29": 0.262299120426178,
            "30": -0.030637383460998535,
            "31": 0.13934266567230225,
            "32": 0.005553456488996744,
            "33": 0.026671042665839195,
            "34": -0.08634717017412186,
            "35": -0.046468909829854965,
            "36": 0.13849665224552155,
            "37": 0.10172666609287262,
            "38": -0.07542148977518082,
            "39": -0.20784501731395721,
            "40": -0.1053948774933815,
            "41": -0.25862154364585876,
            "42": -0.06745228171348572,
            "43": 0.06056628003716469,
            "44": 0.005217818543314934,
            "45": 0.09859266877174377,
            "46": -0.2058311253786087,
            "47": -0.12667149305343628,
            "48": 0.004147418309003115,
            "49": -0.17525045573711395,
            "50": 0.053822923451662064,
            "51": -0.09132746607065201,
            "52": -0.21070732176303864,
            "53": -0.1824679970741272,
            "54": 0.08333561569452286,
            "55": -0.2520204186439514,
            "56": 0.14077600836753845,
            "57": -0.23290494084358215
          }
        },
        "11": {
          "bias": -0.04421753063797951,
          "weights": {
            "0": -1.3610434532165527,
            "1": 0.3982480764389038,
            "2": 0.3220691978931427,
            "3": 0.2670680284500122,
            "4": -0.34440213441848755,
            "5": -0.2693423330783844,
            "6": 0.21555352210998535,
            "7": 0.5235894322395325,
            "8": 0.12196885794401169,
            "9": -0.06812331080436707,
            "10": 0.3362722396850586,
            "11": 0.16675344109535217,
            "12": 0.14287707209587097,
            "13": -0.15911290049552917,
            "14": -0.036088693886995316,
            "15": 0.27927136421203613,
            "16": 0.3223259150981903,
            "17": -0.04130009934306145,
            "18": 0.2609221339225769,
            "19": -0.03735616058111191,
            "20": 0.2056383639574051,
            "21": -0.21242833137512207,
            "22": -0.10914421826601028,
            "23": -0.23378294706344604,
            "24": -0.04762548208236694,
            "25": -0.20907171070575714,
            "26": -0.16791653633117676,
            "27": -0.26933562755584717,
            "28": -0.2733929455280304,
            "29": -0.005006533581763506,
            "30": 0.06846624612808228,
            "31": -0.031442735344171524,
            "32": -0.27249234914779663,
            "33": -0.18643046915531158,
            "34": 0.047628987580537796,
            "35": -0.1858520209789276,
            "36": 0.0865643322467804,
            "37": -0.12781070172786713,
            "38": -0.13272659480571747,
            "39": 0.056361887603998184,
            "40": 0.09357987344264984,
            "41": 0.042412929236888885,
            "42": 0.030566535890102386,
            "43": 0.039984170347452164,
            "44": -0.05821811780333519,
            "45": -0.02168409712612629,
            "46": 0.046722330152988434,
            "47": -0.06857112795114517,
            "48": -0.14200279116630554,
            "49": -0.20645780861377716,
            "50": -0.12522318959236145,
            "51": 0.17035366594791412,
            "52": 0.13538219034671783,
            "53": 0.12577210366725922,
            "54": 0.06756655126810074,
            "55": -0.04571561887860298,
            "56": -0.026193391531705856,
            "57": 0.028697485104203224
          }
        },
        "12": {
          "bias": -0.19699102640151978,
          "weights": {
            "0": 1.9486602544784546,
            "1": -0.6216452121734619,
            "2": -0.5943105816841125,
            "3": -0.4448418617248535,
            "4": 0.3443160355091095,
            "5": 0.529295802116394,
            "6": -0.3629426658153534,
            "7": -0.7606838941574097,
            "8": -0.13522100448608398,
            "9": 0.27162081003189087,
            "10": -0.7844181060791016,
            "11": -0.15165884792804718,
            "12": -0.12833015620708466,
            "13": 0.044148821383714676,
            "14": 0.08944156020879745,
            "15": -0.35240715742111206,
            "16": -0.5162248015403748,
            "17": -0.19218716025352478,
            "18": -0.21456773579120636,
            "19": -0.18142962455749512,
            "20": -0.3326403498649597,
            "21": 0.4177239239215851,
            "22": 0.19507335126399994,
            "23": 0.20007933676242828,
            "24": 0.2831207811832428,
            "25": 0.3593428134918213,
            "26": 0.13121093809604645,
            "27": -0.046709686517715454,
            "28": 0.10392337292432785,
            "29": 0.2529304325580597,
            "30": 0.017726799473166466,
            "31": -0.034199878573417664,
            "32": 0.26215600967407227,
            "33": 0.26530149579048157,
            "34": 0.23580864071846008,
            "35": 0.0842585489153862,
            "36": 0.10042697191238403,
            "37": 0.2541549503803253,
            "38": 0.07788057625293732,
            "39": 0.2577105164527893,
            "40": 0.08043552935123444,
            "41": -0.0722808837890625,
            "42": 0.2224676012992859,
            "43": 0.21026888489723206,
            "44": 0.23600667715072632,
            "45": 0.2915910482406616,
            "46": 0.2921243906021118,
            "47": 0.22723320126533508,
            "48": 0.1492922455072403,
            "49": 0.10752039402723312,
            "50": -0.10000057518482208,
            "51": 0.22191187739372253,
            "52": 0.014239893294870853,
            "53": -0.008583093993365765,
            "54": -0.06349831074476242,
            "55": 0.21227113902568817,
            "56": -0.045023851096630096,
            "57": -0.006148061249405146
          }
        },
        "13": {
          "bias": -0.23887306451797485,
          "weights": {
            "0": 0.3537389636039734,
            "1": -0.25945499539375305,
            "2": -0.3706801235675812,
            "3": 0.04501244053244591,
            "4": -0.03778206929564476,
            "5": 0.1818533092737198,
            "6": -0.1614348441362381,
            "7": -0.24173741042613983,
            "8": -0.19047822058200836,
            "9": -0.09232650697231293,
            "10": -0.012303628958761692,
            "11": 0.024894164875149727,
            "12": 0.13264200091362,
            "13": -0.08827231824398041,
            "14": -0.1739601492881775,
            "15": -0.11866552382707596,
            "16": -0.2060803323984146,
            "17": -0.013100712560117245,
            "18": -0.1688663363456726,
            "19": 0.08451268821954727,
            "20": -0.23292557895183563,
            "21": 0.19701659679412842,
            "22": 0.20534661412239075,
            "23": -0.07595499604940414,
            "24": 0.11730083078145981,
            "25": -0.12449613958597183,
            "26": 0.2175866812467575,
            "27": 0.19205448031425476,
            "28": -0.04856186732649803,
            "29": 0.19710205495357513,
            "30": -0.15528087317943573,
            "31": 0.2001773566007614,
            "32": -0.009181877598166466,
            "33": 0.15238051116466522,
            "34": 0.08174668997526169,
            "35": 0.003297570161521435,
            "36": 0.17638355493545532,
            "37": -0.06680668145418167,
            "38": -0.11908353865146637,
            "39": -0.015141704119741917,
            "40": 0.027720140293240547,
            "41": -0.03390409052371979,
            "42": -0.08908527344465256,
            "43": -0.12376586347818375,
            "44": -0.0019598749931901693,
            "45": -0.0439140610396862,
            "46": 0.0847867801785469,
            "47": -0.14091210067272186,
            "48": -0.14024057984352112,
            "49": 0.14378654956817627,
            "50": 0.2241743803024292,
            "51": 0.16937151551246643,
            "52": -0.0703418180346489,
            "53": 0.22434528172016144,
            "54": 0.05621746554970741,
            "55": 0.13707877695560455,
            "56": -0.12416047602891922,
            "57": -0.031193947419524193
          }
        },
        "14": {
          "bias": -0.024104516953229904,
          "weights": {
            "0": -0.6168847680091858,
            "1": -0.040591392666101456,
            "2": 0.09573408216238022,
            "3": 0.13167789578437805,
            "4": 0.12172708660364151,
            "5": 0.5720955729484558,
            "6": -0.34348106384277344,
            "7": 0.2781151533126831,
            "8": 0.3469795882701874,
            "9": -0.22665022313594818,
            "10": -0.041903890669345856,
            "11": -0.2753026783466339,
            "12": 0.012631954625248909,
            "13": -0.07603827118873596,
            "14": -0.006233662366867065,
            "15": 0.0854857936501503,
            "16": 0.13435180485248566,
            "17": 0.09322234988212585,
            "18": 0.03360480070114136,
            "19": -0.14488010108470917,
            "20": 0.0425686240196228,
            "21": -0.4455450177192688,
            "22": -0.42939674854278564,
            "23": -0.34893256425857544,
            "24": -0.08787771314382553,
            "25": -0.4230191707611084,
            "26": -0.40446150302886963,
            "27": -0.2319968342781067,
            "28": -0.27373650670051575,
            "29": 0.012951377779245377,
            "30": -0.17387698590755463,
            "31": -0.054746419191360474,
            "32": -0.1419600397348404,
            "33": -0.22170691192150116,
            "34": -0.16233515739440918,
            "35": -0.1650596410036087,
            "36": -0.029362738132476807,
            "37": -0.07993970811367035,
            "38": 0.4255523681640625,
            "39": 0.23938961327075958,
            "40": 0.14217834174633026,
            "41": 0.21398499608039856,
            "42": 0.2846669554710388,
            "43": 0.17375314235687256,
            "44": -0.009946656413376331,
            "45": 0.15206438302993774,
            "46": 0.14810125529766083,
            "47": 0.0941561758518219,
            "48": 0.036150164902210236,
            "49": 0.16307432949543,
            "50": 0.30097195506095886,
            "51": -0.08529020100831985,
            "52": 0.13337138295173645,
            "53": -0.01179162971675396,
            "54": -0.026043090969324112,
            "55": 0.2699076533317566,
            "56": 0.21708092093467712,
            "57": -0.017544521018862724
          }
        },
        "15": {
          "bias": -0.29777082800865173,
          "weights": {
            "0": 1.3748224973678589,
            "1": -0.2525988817214966,
            "2": -0.6079126596450806,
            "3": -0.1607515811920166,
            "4": -0.22973503172397614,
            "5": 0.18975913524627686,
            "6": -0.07823280245065689,
            "7": -0.556090772151947,
            "8": -0.1466604620218277,
            "9": 0.15094217658042908,
            "10": -0.5618112683296204,
            "11": -0.11399396508932114,
            "12": -0.034135665744543076,
            "13": 0.047154489904642105,
            "14": -0.2705915570259094,
            "15": -0.40944138169288635,
            "16": -0.270188570022583,
            "17": -0.2267449051141739,
            "18": -0.04114928096532822,
            "19": -0.08229276537895203,
            "20": 0.06589505821466446,
            "21": 0.4316961169242859,
            "22": 0.09400688111782074,
            "23": 0.37863364815711975,
            "24": 0.3828984498977661,
            "25": 0.1448240727186203,
            "26": 0.35923972725868225,
            "27": 0.11673843860626221,
            "28": 0.2141633778810501,
            "29": 0.13164538145065308,
            "30": 0.026709390804171562,
            "31": 0.25822457671165466,
            "32": 0.32286888360977173,
            "33": 0.06254426389932632,
            "34": 0.23023666441440582,
            "35": 0.0815177634358406,
            "36": 0.21420300006866455,
            "37": -0.022465962916612625,
            "38": -0.1309349685907364,
            "39": 0.005978709552437067,
            "40": 0.05146266147494316,
            "41": 0.007195463869720697,
            "42": -0.12414709478616714,
            "43": 0.08148767054080963,
            "44": -0.02965684048831463,
            "45": 0.026437275111675262,
            "46": 0.16970612108707428,
            "47": -0.03836984187364578,
            "48": 0.04841968044638634,
            "49": -0.11103776097297668,
            "50": 0.048928942531347275,
            "51": -0.05149256810545921,
            "52": 0.17986363172531128,
            "53": 0.06714639812707901,
            "54": 0.17688937485218048,
            "55": 0.1583847552537918,
            "56": -0.11220546066761017,
            "57": 0.12691310048103333
          }
        },
        "16": {
          "bias": -0.0033151283860206604,
          "weights": {
            "0": -0.5770976543426514,
            "1": 0.1984708458185196,
            "2": -0.16679510474205017,
            "3": 0.14171509444713593,
            "4": -0.3416728377342224,
            "5": -0.5170990228652954,
            "6": 0.11617517471313477,
            "7": 0.15327155590057373,
            "8": -0.12539562582969666,
            "9": 0.023754388093948364,
            "10": 0.22938887774944305,
            "11": 0.2753545641899109,
            "12": 0.08417658507823944,
            "13": -0.049831971526145935,
            "14": -0.07980237156152725,
            "15": 0.13048233091831207,
            "16": 0.09817744791507721,
            "17": 0.2625013291835785,
            "18": 0.15257808566093445,
            "19": 0.3711746037006378,
            "20": 0.19069528579711914,
            "21": 0.23741509020328522,
            "22": 0.12911374866962433,
            "23": -0.08532081544399261,
            "24": 0.032315693795681,
            "25": -0.014945845119655132,
            "26": 0.22773517668247223,
            "27": 0.03660573437809944,
            "28": -0.12127678841352463,
            "29": 0.10428526997566223,
            "30": -0.12952689826488495,
            "31": -0.1579710841178894,
            "32": 0.19611909985542297,
            "33": -0.03583559766411781,
            "34": -0.024907758459448814,
            "35": -0.03849184140563011,
            "36": -0.1387278288602829,
            "37": 0.1633496731519699,
            "38": -0.22174806892871857,
            "39": -0.27133068442344666,
            "40": -0.23323041200637817,
            "41": 0.0349079929292202,
            "42": -0.15833087265491486,
            "43": -0.07177358865737915,
            "44": -0.2825729548931122,
            "45": -0.2841454744338989,
            "46": 0.037149809300899506,
            "47": -0.09529279172420502,
            "48": -0.021892787888646126,
            "49": -0.17309415340423584,
            "50": -0.05283818766474724,
            "51": -0.09155620634555817,
            "52": -0.0798138827085495,
            "53": -0.2144888937473297,
            "54": -0.029101906344294548,
            "55": -0.07356103509664536,
            "56": -0.06858298927545547,
            "57": 0.06430134922266006
          }
        },
        "17": {
          "bias": -0.024501778185367584,
          "weights": {
            "0": -1.024079442024231,
            "1": 0.21868841350078583,
            "2": 0.28359752893447876,
            "3": 0.09794227033853531,
            "4": -0.17001092433929443,
            "5": -0.12334761023521423,
            "6": 0.05940886214375496,
            "7": 0.48727062344551086,
            "8": -0.1635955423116684,
            "9": -0.26336604356765747,
            "10": 0.33086419105529785,
            "11": 0.011537184938788414,
            "12": 0.14029504358768463,
            "13": -0.1668921560049057,
            "14": -0.14571957290172577,
            "15": 0.4136068820953369,
            "16": 0.18153248727321625,
            "17": 0.002813716186210513,
            "18": 0.008868642151355743,
            "19": -0.05110439285635948,
            "20": -0.08200494945049286,
            "21": -0.0816769152879715,
            "22": -0.08204210549592972,
            "23": 0.07085424661636353,
            "24": -0.14143462479114532,
            "25": -0.22885653376579285,
            "26": -0.1725284308195114,
            "27": 0.06688868254423141,
            "28": -0.1667545586824417,
            "29": -0.18646804988384247,
            "30": -0.07144571840763092,
            "31": -0.21346944570541382,
            "32": 0.06795907020568848,
            "33": 0.05693867802619934,
            "34": 0.03715940937399864,
            "35": -0.15539738535881042,
            "36": -0.06861834973096848,
            "37": -0.13401198387145996,
            "38": -0.30906927585601807,
            "39": -0.1280362606048584,
            "40": -0.21375994384288788,
            "41": -0.1407439410686493,
            "42": -0.17614655196666718,
            "43": -0.16876772046089172,
            "44": -0.1493573933839798,
            "45": -0.22504203021526337,
            "46": -0.09180805087089539,
            "47": -0.028089765459299088,
            "48": -0.004667961038649082,
            "49": -0.24028462171554565,
            "50": -0.18589645624160767,
            "51": 0.04523998498916626,
            "52": 0.12094194442033768,
            "53": -0.16362543404102325,
            "54": -0.16484323143959045,
            "55": 0.05558798089623451,
            "56": -0.10674647241830826,
            "57": -0.08804013580083847
          }
        },
        "18": {
          "bias": -0.14310169219970703,
          "weights": {
            "0": 0.3466431498527527,
            "1": -0.22303210198879242,
            "2": -0.2843460142612457,
            "3": -0.12428129464387894,
            "4": -0.0053729768842458725,
            "5": 0.2134559154510498,
            "6": 0.01549023948609829,
            "7": -0.19845032691955566,
            "8": 0.017779892310500145,
            "9": 0.19026276469230652,
            "10": 0.05292930454015732,
            "11": -0.07632264494895935,
            "12": -0.06881093978881836,
            "13": -0.03662418946623802,
            "14": -0.09094420820474625,
            "15": -0.27532461285591125,
            "16": -0.24059844017028809,
            "17": -0.2144000232219696,
            "18": 0.0014522169949486852,
            "19": -0.05107366666197777,
            "20": -0.18052442371845245,
            "21": 0.017643939703702927,
            "22": -0.09294810891151428,
            "23": 0.14574995636940002,
            "24": -0.12964104115962982,
            "25": 0.002860655542463064,
            "26": 0.2050786167383194,
            "27": -0.15010619163513184,
            "28": 0.19987347722053528,
            "29": 0.03987380117177963,
            "30": -0.1002478078007698,
            "31": 0.05359695106744766,
            "32": -0.020222133025527,
            "33": 0.02933160401880741,
            "34": 0.10614629089832306,
            "35": -0.009233866818249226,
            "36": 0.06306272000074387,
            "37": -0.17109988629817963,
            "38": -0.12861789762973785,
            "39": -0.1377713829278946,
            "40": -0.031885772943496704,
            "41": 0.14407920837402344,
            "42": 0.10471174120903015,
            "43": -0.030427368357777596,
            "44": 0.1919459104537964,
            "45": -0.04949537664651871,
            "46": 0.10258675366640091,
            "47": 0.0673990249633789,
            "48": 0.11270661652088165,
            "49": 0.2018033117055893,
            "50": 0.08109832555055618,
            "51": 0.09028680622577667,
            "52": -0.1752755492925644,
            "53": 0.0738445445895195,
            "54": -0.023106200620532036,
            "55": -0.03156014159321785,
            "56": 0.053066011518239975,
            "57": 0.15253950655460358
          }
        },
        "19": {
          "bias": -0.04318656399846077,
          "weights": {
            "0": -0.3614613115787506,
            "1": 0.3922589421272278,
            "2": -0.27417975664138794,
            "3": 0.04133795201778412,
            "4": -0.6238183379173279,
            "5": -0.8574649095535278,
            "6": 0.4628610610961914,
            "7": 0.05154143646359444,
            "8": -0.1300995945930481,
            "9": -0.1494918316602707,
            "10": 0.24096889793872833,
            "11": 0.3643469214439392,
            "12": 0.13470137119293213,
            "13": 0.22219061851501465,
            "14": -0.611553430557251,
            "15": 0.3577338457107544,
            "16": 0.10940660536289215,
            "17": 0.3737620711326599,
            "18": 0.3512393832206726,
            "19": 0.2593933641910553,
            "20": 0.24254322052001953,
            "21": 0.37319061160087585,
            "22": 0.5320596098899841,
            "23": 0.29515740275382996,
            "24": 0.2890380322933197,
            "25": 0.33869636058807373,
            "26": 0.2514123022556305,
            "27": 0.22258980572223663,
            "28": 0.08957195281982422,
            "29": 0.3012039065361023,
            "30": 0.22675563395023346,
            "31": -0.03811127692461014,
            "32": 0.12504957616329193,
            "33": 0.3190595209598541,
            "34": -0.07818111032247543,
            "35": 0.28447964787483215,
            "36": 0.2856963872909546,
            "37": 0.22992926836013794,
            "38": -0.49652746319770813,
            "39": -0.5992199182510376,
            "40": -0.039222292602062225,
            "41": -0.17948666214942932,
            "42": -0.19116032123565674,
            "43": -0.30159705877304077,
            "44": -0.15911012887954712,
            "45": -0.2725358009338379,
            "46": -0.10292250663042068,
            "47": -0.27984529733657837,
            "48": 0.02285650558769703,
            "49": -0.2967733144760132,
            "50": -0.2632945775985718,
            "51": 0.018355589359998703,
            "52": 0.010702263563871384,
            "53": 0.011953088454902172,
            "54": -0.1090947836637497,
            "55": 0.027836725115776062,
            "56": -0.2934070825576782,
            "57": -0.20457524061203003
          }
        },
        "20": {
          "bias": -0.05718383193016052,
          "weights": {
            "0": -0.5632684230804443,
            "1": 0.26914355158805847,
            "2": -0.14645704627037048,
            "3": 0.152374267578125,
            "4": -0.33487826585769653,
            "5": -0.6331140398979187,
            "6": 0.12313838303089142,
            "7": -0.07439285516738892,
            "8": -0.022821813821792603,
            "9": 0.12974394857883453,
            "10": 0.26060256361961365,
            "11": 0.2547351121902466,
            "12": 0.23804907500743866,
            "13": 0.03972547501325607,
            "14": -0.20889073610305786,
            "15": 0.18306736648082733,
            "16": 0.10016699880361557,
            "17": 0.2500055730342865,
            "18": 0.39541101455688477,
            "19": 0.09913890063762665,
            "20": 0.11911934614181519,
            "21": 0.1603385955095291,
            "22": 0.23226575553417206,
            "23": 0.06772712618112564,
            "24": 0.014294737949967384,
            "25": 0.29424482583999634,
            "26": 0.0356866680085659,
            "27": -0.10400284826755524,
            "28": 0.09648548811674118,
            "29": -0.01573326252400875,
            "30": -0.020898187533020973,
            "31": 0.010101358406245708,
            "32": -0.05564116686582565,
            "33": -0.0682372972369194,
            "34": -0.1170143410563469,
            "35": -0.07579527795314789,
            "36": 0.033612124621868134,
            "37": 0.09255756437778473,
            "38": -0.34557124972343445,
            "39": -0.10001400858163834,
            "40": -0.1394505351781845,
            "41": -0.06151081994175911,
            "42": -0.19016051292419434,
            "43": -0.004233208484947681,
            "44": -0.31665298342704773,
            "45": -0.2065732628107071,
            "46": -0.22827813029289246,
            "47": -0.2857234477996826,
            "48": -0.10351134091615677,
            "49": -0.2340720295906067,
            "50": -0.10205227136611938,
            "51": 0.05924364924430847,
            "52": -0.13973058760166168,
            "53": -0.022012149915099144,
            "54": -0.1296357810497284,
            "55": -0.10404942184686661,
            "56": -0.25423628091812134,
            "57": -0.01875435560941696
          }
        },
        "21": {
          "bias": -0.07982785999774933,
          "weights": {
            "0": -0.5808494687080383,
            "1": 0.06761174649000168,
            "2": 0.021128971129655838,
            "3": -0.03825909644365311,
            "4": -0.3756031095981598,
            "5": -0.01043439470231533,
            "6": 0.11686748266220093,
            "7": 0.08434925228357315,
            "8": -0.09317537397146225,
            "9": 0.13275568187236786,
            "10": 0.05129572004079819,
            "11": -0.013286454603075981,
            "12": -0.14922018349170685,
            "13": 0.1503419429063797,
            "14": -0.1413823366165161,
            "15": 0.06229717284440994,
            "16": 0.2211569845676422,
            "17": -0.032415516674518585,
            "18": -0.007400247734040022,
            "19": 0.20521017909049988,
            "20": 0.18132895231246948,
            "21": -0.14319966733455658,
            "22": -0.10300523787736893,
            "23": 0.11177199333906174,
            "24": -0.189702570438385,
            "25": -0.1944795697927475,
            "26": 0.06629674136638641,
            "27": -0.05968497321009636,
            "28": 0.12861822545528412,
            "29": -0.09479052573442459,
            "30": 0.04499538615345955,
            "31": -0.19500978291034698,
            "32": 0.06747488677501678,
            "33": -0.0828622579574585,
            "34": -0.02483939193189144,
            "35": 0.12496928870677948,
            "36": -0.0069275349378585815,
            "37": 0.1435561329126358,
            "38": -0.1486954689025879,
            "39": -0.1986682116985321,
            "40": -0.21041536331176758,
            "41": 0.14068399369716644,
            "42": -0.01433421578258276,
            "43": -0.1908513605594635,
            "44": -0.0998627245426178,
            "45": -0.1292266845703125,
            "46": -0.20886953175067902,
            "47": 0.12216399610042572,
            "48": -0.1577855795621872,
            "49": -0.02488568052649498,
            "50": -0.07548937946557999,
            "51": 0.0705082044005394,
            "52": 0.10306033492088318,
            "53": -0.07321585714817047,
            "54": -0.026891574263572693,
            "55": -0.1221434697508812,
            "56": -0.06295999884605408,
            "57": -0.015655377879738808
          }
        },
        "22": {
          "bias": -0.2987510561943054,
          "weights": {
            "0": 0.39917775988578796,
            "1": -0.2339678853750229,
            "2": -0.307113915681839,
            "3": -0.17548112571239471,
            "4": 0.232589453458786,
            "5": 0.46678417921066284,
            "6": -0.1281784474849701,
            "7": -0.35784783959388733,
            "8": 0.15995167195796967,
            "9": 0.2813928723335266,
            "10": -0.16593603789806366,
            "11": -0.06122949719429016,
            "12": -0.11289181560277939,
            "13": 0.04861126095056534,
            "14": 0.13700465857982635,
            "15": -0.21170352399349213,
            "16": -0.3989516794681549,
            "17": 0.020491372793912888,
            "18": -0.21679452061653137,
            "19": -0.13400250673294067,
            "20": -0.23517616093158722,
            "21": -0.1305629312992096,
            "22": 0.015476568602025509,
            "23": -0.1465471088886261,
            "24": 0.04580097645521164,
            "25": 0.16328658163547516,
            "26": 0.23063437640666962,
            "27": -0.15857623517513275,
            "28": -0.02372116968035698,
            "29": -0.08316513895988464,
            "30": -0.1517041027545929,
            "31": 0.03212275356054306,
            "32": 0.10872907936573029,
            "33": -0.1468818634748459,
            "34": 0.04044651985168457,
            "35": 0.17065846920013428,
            "36": 0.13949160277843475,
            "37": 0.06904587149620056,
            "38": 0.2774428427219391,
            "39": 0.21116487681865692,
            "40": 0.223586767911911,
            "41": 0.27779173851013184,
            "42": 0.13956701755523682,
            "43": 0.12642733752727509,
            "44": 0.23607546091079712,
            "45": 0.1212134137749672,
            "46": -0.09231644123792648,
            "47": 0.19370409846305847,
            "48": 0.2140721082687378,
            "49": 0.0371219664812088,
            "50": -0.022191094234585762,
            "51": -0.05415484681725502,
            "52": 0.19487719237804413,
            "53": -0.08743797987699509,
            "54": 0.16883336007595062,
            "55": -0.08355243504047394,
            "56": 0.11169909685850143,
            "57": 0.1795838624238968
          }
        },
        "23": {
          "bias": -0.32904481887817383,
          "weights": {
            "0": 0.5924157500267029,
            "1": -0.07753396034240723,
            "2": -0.29463887214660645,
            "3": 0.07139628380537033,
            "4": -0.04536154121160507,
            "5": 0.1968129426240921,
            "6": -0.0394914373755455,
            "7": -0.2395547330379486,
            "8": -0.0417170487344265,
            "9": 0.21103759109973907,
            "10": -0.38072603940963745,
            "11": -0.11672192066907883,
            "12": 0.020264403894543648,
            "13": 0.055157437920570374,
            "14": 0.0623285137116909,
            "15": -0.2892119288444519,
            "16": -0.23096863925457,
            "17": -0.21725831925868988,
            "18": -0.05036954954266548,
            "19": 0.0619911327958107,
            "20": -0.2608402669429779,
            "21": 0.17717523872852325,
            "22": 0.06466742604970932,
            "23": 0.04616400599479675,
            "24": 0.2323240041732788,
            "25": 0.2908884882926941,
            "26": 0.11480100452899933,
            "27": -0.015852726995944977,
            "28": -0.09799759835004807,
            "29": 0.05473501235246658,
            "30": 0.240130215883255,
            "31": 0.12683427333831787,
            "32": 0.07677969336509705,
            "33": -0.06632426381111145,
            "34": -0.013012990355491638,
            "35": -0.024370670318603516,
            "36": 0.0331936813890934,
            "37": 0.14984211325645447,
            "38": -0.12313564121723175,
            "39": 0.056415773928165436,
            "40": 0.05529545992612839,
            "41": -0.10691726952791214,
            "42": -0.020388951525092125,
            "43": -0.11971145123243332,
            "44": 0.17980840802192688,
            "45": -0.07897903025150299,
            "46": 0.08764100819826126,
            "47": -0.12235540896654129,
            "48": 0.12618674337863922,
            "49": -0.147285595536232,
            "50": -0.04370713606476784,
            "51": 0.061965230852365494,
            "52": 0.1965157687664032,
            "53": 0.031796421855688095,
            "54": -0.1355811357498169,
            "55": -0.14199110865592957,
            "56": 0.1921825408935547,
            "57": -0.18524757027626038
          }
        },
        "24": {
          "bias": -0.20073683559894562,
          "weights": {
            "0": 0.7337111830711365,
            "1": -0.08163438737392426,
            "2": -0.27088767290115356,
            "3": -0.14244665205478668,
            "4": -0.254858136177063,
            "5": 0.07037404924631119,
            "6": -0.00011346548853907734,
            "7": -0.37645819783210754,
            "8": 0.040469322353601456,
            "9": 0.11942256987094879,
            "10": -0.3341672122478485,
            "11": -0.10122423619031906,
            "12": 0.005115391220897436,
            "13": -0.04671735316514969,
            "14": -0.1308123618364334,
            "15": -0.21909473836421967,
            "16": -0.07850200682878494,
            "17": -0.01841573975980282,
            "18": 0.04548697546124458,
            "19": -0.04623178765177727,
            "20": -0.12421895563602448,
            "21": 0.20854705572128296,
            "22": -0.09077933430671692,
            "23": 0.08321700245141983,
            "24": 0.15859803557395935,
            "25": 0.09505271911621094,
            "26": -0.07263797521591187,
            "27": -0.090563103556633,
            "28": 0.09457581490278244,
            "29": -0.14750835299491882,
            "30": 0.13379371166229248,
            "31": -0.1081109568476677,
            "32": -0.04599129781126976,
            "33": 0.03173656016588211,
            "34": -0.00034050579415634274,
            "35": 0.09243013709783554,
            "36": 0.12392642349004745,
            "37": 0.05126558244228363,
            "38": 0.06615445762872696,
            "39": 0.12552499771118164,
            "40": 0.23919156193733215,
            "41": 0.17943106591701508,
            "42": 0.13983072340488434,
            "43": 0.02873850427567959,
            "44": -0.07527045905590057,
            "45": -0.09583434462547302,
            "46": -0.010933552868664265,
            "47": 0.1483161449432373,
            "48": 0.18901515007019043,
            "49": -0.13642321527004242,
            "50": -0.04237781837582588,
            "51": 0.20557688176631927,
            "52": -0.048317719250917435,
            "53": -0.012530096806585789,
            "54": -0.08285520225763321,
            "55": -0.15799808502197266,
            "56": 0.19707347452640533,
            "57": -0.034163665026426315
          }
        },
        "25": {
          "bias": -0.5299519896507263,
          "weights": {
            "0": 0.7695826888084412,
            "1": -0.10344202816486359,
            "2": -0.8325191140174866,
            "3": -0.018113724887371063,
            "4": -0.5253831148147583,
            "5": -0.561257004737854,
            "6": 0.1388733685016632,
            "7": -0.6805564761161804,
            "8": -0.4472387135028839,
            "9": 0.11450095474720001,
            "10": -0.1764371246099472,
            "11": 0.1661430448293686,
            "12": 0.2190525084733963,
            "13": 0.14858809113502502,
            "14": -0.631481409072876,
            "15": 0.08458095788955688,
            "16": 0.03861673176288605,
            "17": 0.05272337421774864,
            "18": 0.01724589429795742,
            "19": 0.16674616932868958,
            "20": -0.17354045808315277,
            "21": 0.4133211076259613,
            "22": 0.23779143393039703,
            "23": 0.5238047242164612,
            "24": 0.3613021671772003,
            "25": 0.4588361978530884,
            "26": 0.4249407947063446,
            "27": 0.004167171660810709,
            "28": 0.12064363807439804,
            "29": 0.173105388879776,
            "30": 0.19376951456069946,
            "31": 0.18859821557998657,
            "32": 0.19865979254245758,
            "33": 0.15381500124931335,
            "34": 0.2689533233642578,
            "35": 0.2972289025783539,
            "36": 0.2711833715438843,
            "37": 0.062466055154800415,
            "38": -0.3594099283218384,
            "39": -0.08362603187561035,
            "40": -0.2453317642211914,
            "41": -0.1331457644701004,
            "42": -0.284593790769577,
            "43": -0.03907066956162453,
            "44": -0.208882138133049,
            "45": -0.13915108144283295,
            "46": -0.11466816067695618,
            "47": -0.13800039887428284,
            "48": -0.22920961678028107,
            "49": -0.24342574179172516,
            "50": -0.03606661036610603,
            "51": -0.22023852169513702,
            "52": -0.1985006183385849,
            "53": 0.08810248970985413,
            "54": -0.10197119414806366,
            "55": -0.19556663930416107,
            "56": 0.06473783403635025,
            "57": 0.10017771273851395
          }
        },
        "26": {
          "bias": -0.2376393973827362,
          "weights": {
            "0": 0.20510992407798767,
            "1": -0.22411377727985382,
            "2": -0.37012383341789246,
            "3": 0.021780045703053474,
            "4": -0.49403753876686096,
            "5": -0.2740096151828766,
            "6": 0.25599560141563416,
            "7": -0.14217351377010345,
            "8": -0.08856351673603058,
            "9": -0.0463872067630291,
            "10": 0.09015297144651413,
            "11": 0.07975538820028305,
            "12": 0.25600120425224304,
            "13": 0.032483022660017014,
            "14": -0.5111287832260132,
            "15": 0.15279139578342438,
            "16": -0.12306947261095047,
            "17": 0.14755409955978394,
            "18": -0.05305088683962822,
            "19": -0.07816819846630096,
            "20": 0.15181398391723633,
            "21": 0.30008643865585327,
            "22": 0.12633013725280762,
            "23": 0.2520156800746918,
            "24": 0.4137358069419861,
            "25": 0.43223509192466736,
            "26": 0.24650819599628448,
            "27": 0.24222800135612488,
            "28": 0.22149981558322906,
            "29": 0.14888356626033783,
            "30": 0.044761840254068375,
            "31": 0.020845279097557068,
            "32": -0.05223345756530762,
            "33": 0.2601231634616852,
            "34": -0.003150464966893196,
            "35": 0.28140947222709656,
            "36": 0.07490352541208267,
            "37": 0.10438606142997742,
            "38": -0.29364651441574097,
            "39": -0.22175846993923187,
            "40": -0.15301664173603058,
            "41": 0.04848207160830498,
            "42": -0.22736789286136627,
            "43": -0.14606083929538727,
            "44": 0.05674202740192413,
            "45": -0.21742455661296844,
            "46": -0.10460984706878662,
            "47": -0.1024715006351471,
            "48": 0.015333229675889015,
            "49": -0.244929701089859,
            "50": -0.16096745431423187,
            "51": -0.16364127397537231,
            "52": 0.001696533989161253,
            "53": 0.04589183256030083,
            "54": -0.1620989590883255,
            "55": -0.031059077009558678,
            "56": -0.19126951694488525,
            "57": -0.01688746176660061
          }
        },
        "27": {
          "bias": -0.23264415562152863,
          "weights": {
            "0": -0.5940642356872559,
            "1": 0.18295809626579285,
            "2": 0.01427440345287323,
            "3": -0.013183374889194965,
            "4": -0.03486555069684982,
            "5": 0.10513141751289368,
            "6": 0.1641579121351242,
            "7": 0.10375871509313583,
            "8": -0.15759384632110596,
            "9": -0.06221283972263336,
            "10": 0.19922669231891632,
            "11": 0.14590828120708466,
            "12": -0.23577573895454407,
            "13": 0.012523763813078403,
            "14": -0.23572944104671478,
            "15": 0.20024298131465912,
            "16": 0.23309527337551117,
            "17": 0.027385849505662918,
            "18": 0.002311214804649353,
            "19": -0.12021643668413162,
            "20": -0.13344314694404602,
            "21": -0.17399288713932037,
            "22": -0.042195647954940796,
            "23": 0.02708400972187519,
            "24": -0.28867703676223755,
            "25": 0.09464073926210403,
            "26": -0.015193412080407143,
            "27": -0.019538087770342827,
            "28": -0.01621110551059246,
            "29": 0.03541134297847748,
            "30": 0.029683038592338562,
            "31": -0.10885950177907944,
            "32": 0.08489186316728592,
            "33": -0.0883452519774437,
            "34": -0.03298599645495415,
            "35": -0.019581781700253487,
            "36": -0.09139703959226608,
            "37": -0.1056504026055336,
            "38": 0.12796859443187714,
            "39": 0.1163368746638298,
            "40": -0.010862004943192005,
            "41": 0.18114541471004486,
            "42": 0.0017383454833179712,
            "43": -0.10866869986057281,
            "44": 0.11908230185508728,
            "45": -0.024597235023975372,
            "46": 0.012108317576348782,
            "47": 0.07090816646814346,
            "48": -0.13112442195415497,
            "49": -0.05391393229365349,
            "50": 0.03945063054561615,
            "51": -0.09175775200128555,
            "52": 0.1928694099187851,
            "53": 0.13368907570838928,
            "54": 0.042863208800554276,
            "55": 0.08985169976949692,
            "56": -0.08247751742601395,
            "57": -0.13704974949359894
          }
        },
        "28": {
          "bias": -0.09915760159492493,
          "weights": {
            "0": -0.8295130729675293,
            "1": 0.2376592457294464,
            "2": -0.029989948496222496,
            "3": 0.20003032684326172,
            "4": -0.16627919673919678,
            "5": -0.31410840153694153,
            "6": 0.2332981824874878,
            "7": 0.2995893359184265,
            "8": 0.014723477885127068,
            "9": -0.2372712790966034,
            "10": 0.36267000436782837,
            "11": 0.12253361195325851,
            "12": -0.10958387702703476,
            "13": -0.08171351999044418,
            "14": -0.025494862347841263,
            "15": 0.07202960550785065,
            "16": 0.19777125120162964,
            "17": 0.11202558130025864,
            "18": 0.07699555903673172,
            "19": 0.005698393564671278,
            "20": -0.02358962967991829,
            "21": -0.307186484336853,
            "22": 0.08259214460849762,
            "23": -0.03735727444291115,
            "24": 0.07774891704320908,
            "25": 0.09217263758182526,
            "26": 0.021265722811222076,
            "27": -0.22557620704174042,
            "28": -0.035416293889284134,
            "29": -0.16617955267429352,
            "30": -0.15252827107906342,
            "31": -0.10035082697868347,
            "32": -0.18361948430538177,
            "33": -0.0958109050989151,
            "34": 0.04026739299297333,
            "35": -0.09601964801549911,
            "36": 0.08433997631072998,
            "37": -0.06733456999063492,
            "38": -0.2632206976413727,
            "39": -0.09395351260900497,
            "40": -0.04067128896713257,
            "41": -0.11331869661808014,
            "42": -0.26000937819480896,
            "43": -0.1957833170890808,
            "44": 0.10058433562517166,
            "45": -0.11720633506774902,
            "46": -0.07396817952394485,
            "47": -0.1403614580631256,
            "48": -0.06998151540756226,
            "49": -0.19223318994045258,
            "50": -0.0016177853103727102,
            "51": 0.0006901195738464594,
            "52": 0.013418106362223625,
            "53": -0.11811467260122299,
            "54": 0.15505488216876984,
            "55": -0.21566419303417206,
            "56": 0.1257411688566208,
            "57": 0.08281614631414413
          }
        }
      },
      {
        "Education": {
          "bias": -0.19255296885967255,
          "weights": {
            "0": 1.2946548461914062,
            "1": -0.7343658804893494,
            "2": 0.3025972843170166,
            "3": 2.216874837875366,
            "4": 0.822052538394928,
            "5": 0.12682341039180756,
            "6": -0.9178977012634277,
            "7": -0.009947068057954311,
            "8": -0.3783743977546692,
            "9": 0.4593835175037384,
            "10": -0.10042256861925125,
            "11": 1.369998812675476,
            "12": -2.381570339202881,
            "13": -0.5361700057983398,
            "14": 0.1339654177427292,
            "15": -1.5267753601074219,
            "16": 0.7260521650314331,
            "17": 1.068282961845398,
            "18": -0.5466009974479675,
            "19": 0.8031724095344543,
            "20": 0.7576904296875,
            "21": 0.5107425451278687,
            "22": -1.0691025257110596,
            "23": -0.8928907513618469,
            "24": -0.8022921085357666,
            "25": -0.5315192341804504,
            "26": 0.020266687497496605,
            "27": 0.28952494263648987,
            "28": 1.0152400732040405
          }
        },
        "Construction": {
          "bias": -0.1728777438402176,
          "weights": {
            "0": -1.892345905303955,
            "1": 0.11984997987747192,
            "2": -0.7438984513282776,
            "3": -1.3283957242965698,
            "4": -0.8056537508964539,
            "5": -0.8668177127838135,
            "6": 0.3689320683479309,
            "7": -0.33549776673316956,
            "8": -0.793594241142273,
            "9": -0.6978411674499512,
            "10": 0.5634782314300537,
            "11": -1.1552435159683228,
            "12": 1.5030280351638794,
            "13": 0.3094939887523651,
            "14": -1.156074047088623,
            "15": 1.1568959951400757,
            "16": -0.25595563650131226,
            "17": -0.8725259900093079,
            "18": 0.18373778462409973,
            "19": 0.4811830520629883,
            "20": -0.09358611702919006,
            "21": -0.3918246030807495,
            "22": 0.05053669214248657,
            "23": 0.3238013684749603,
            "24": 0.4016730487346649,
            "25": 1.564772367477417,
            "26": 0.6890805959701538,
            "27": -0.6130463480949402,
            "28": -0.5000462532043457
          }
        },
        "Management": {
          "bias": -0.08314134180545807,
          "weights": {
            "0": 0.31165122985839844,
            "1": 0.540591835975647,
            "2": -0.023238159716129303,
            "3": -1.1768547296524048,
            "4": -0.4608350992202759,
            "5": 0.32157182693481445,
            "6": 0.2959948480129242,
            "7": -0.08578325062990189,
            "8": 0.659325897693634,
            "9": 0.27078211307525635,
            "10": -0.710573673248291,
            "11": -0.3103760778903961,
            "12": 0.6854997277259827,
            "13": 0.005225648172199726,
            "14": 0.6529351472854614,
            "15": -0.09734569489955902,
            "16": -0.9432968497276306,
            "17": -0.46965667605400085,
            "18": 0.17743182182312012,
            "19": -1.9357067346572876,
            "20": -1.126461386680603,
            "21": -0.39967310428619385,
            "22": 0.48195043206214905,
            "23": -0.05660345405340195,
            "24": 0.06408187747001648,
            "25": -1.0209499597549438,
            "26": -0.815958559513092,
            "27": -0.19585859775543213,
            "28": -0.39003869891166687
          }
        }
      }
    ],
    "outputLookup": true,
    "inputLookup": false,
    "activation": "sigmoid",
    "trainOpts": {
      "iterations": 300,
      "errorThresh": 0.005,
      "log": true,
      "logPeriod": 10,
      "learningRate": 0.3,
      "momentum": 0.1,
      "callbackPeriod": 10,
      "beta1": 0.9,
      "beta2": 0.999,
      "epsilon": 1e-8
    }
  },
  "dictionary": [
    {
      "stem": "a",
      "count": 7
    },
    {
      "stem": "to",
      "count": 7
    },
    {
      "stem": "i",
      "count": 4
    },
    {
      "stem": "the",
      "count": 4
    },
    {
      "stem": "am",
      "count": 3
    },
    {
      "stem": "manag",
      "count": 3
    },
    {
      "stem": "is",
      "count": 3
    },
    {
      "stem": "classroom",
      "count": 2
    },
    {
      "stem": "in",
      "count": 2
    },
    {
      "stem": "of",
      "count": 2
    },
    {
      "stem": "by",
      "count": 2
    },
    {
      "stem": "thi",
      "count": 2
    },
    {
      "stem": "new",
      "count": 2
    },
    {
      "stem": "string",
      "count": 2
    },
    {
      "stem": "teacher",
      "count": 1
    },
    {
      "stem": "teach",
      "count": 1
    },
    {
      "stem": "math",
      "count": 1
    },
    {
      "stem": "give",
      "count": 1
    },
    {
      "stem": "knowledg",
      "count": 1
    },
    {
      "stem": "younger",
      "count": 1
    },
    {
      "stem": "children",
      "count": 1
    },
    {
      "stem": "builder",
      "count": 1
    },
    {
      "stem": "that",
      "count": 1
    },
    {
      "stem": "creat",
      "count": 1
    },
    {
      "stem": "tall",
      "count": 1
    },
    {
      "stem": "structur",
      "count": 1
    },
    {
      "stem": "carpent",
      "count": 1
    },
    {
      "stem": "make",
      "count": 1
    },
    {
      "stem": "furnatur",
      "count": 1
    },
    {
      "stem": "out",
      "count": 1
    },
    {
      "stem": "wood",
      "count": 1
    },
    {
      "stem": "all",
      "count": 1
    },
    {
      "stem": "electr",
      "count": 1
    },
    {
      "stem": "work",
      "count": 1
    },
    {
      "stem": "must",
      "count": 1
    },
    {
      "stem": "be",
      "count": 1
    },
    {
      "stem": "done",
      "count": 1
    },
    {
      "stem": "an",
      "count": 1
    },
    {
      "stem": "electrician",
      "count": 1
    },
    {
      "stem": "on",
      "count": 1
    },
    {
      "stem": "construct",
      "count": 1
    },
    {
      "stem": "site",
      "count": 1
    },
    {
      "stem": "subwai",
      "count": 1
    },
    {
      "stem": "eastwood",
      "count": 1
    },
    {
      "stem": "team",
      "count": 1
    },
    {
      "stem": "would",
      "count": 1
    },
    {
      "stem": "like",
      "count": 1
    },
    {
      "stem": "invit",
      "count": 1
    },
    {
      "stem": "you",
      "count": 1
    },
    {
      "stem": "christman",
      "count": 1
    },
    {
      "stem": "lunch",
      "count": 1
    },
    {
      "stem": "lead",
      "count": 1
    },
    {
      "stem": "exampl",
      "count": 1
    },
    {
      "stem": "and",
      "count": 1
    },
    {
      "stem": "demonstr",
      "count": 1
    },
    {
      "stem": "your",
      "count": 1
    },
    {
      "stem": "worker",
      "count": 1
    },
    {
      "stem": "how",
      "count": 1
    },
    {
      "stem": "do",
      "count": 1
    },
    {
      "stem": "their",
      "count": 1
    },
    {
      "stem": "job",
      "count": 1
    },
    {
      "stem": "anoth",
      "count": 1
    }
  ],
  "blacklist": [],
  "history": [
    {
      "input": "I am a teacher",
      "output": "Management"
    },
    {
      "input": "teaching the classroom maths",
      "output": "Education"
    },
    {
      "input": "I give knowledge to younger children in a classroom",
      "output": "Education"
    },
    {
      "input": "I am a builder that creates tall structures",
      "output": "Construction"
    },
    {
      "input": "A carpenter makes furnature out of wood",
      "output": "Construction"
    },
    {
      "input": "All electrical works must be done by an electrician on the construction site",
      "output": "Construction"
    },
    {
      "input": "I am a manager of a Subway in Eastwood",
      "output": "Management"
    },
    {
      "input": "The management team would like to invite you to the Christmans lunch",
      "output": "Management"
    },
    {
      "input": "To manage is to lead by example and demonstrate to your workers how to do their job",
      "output": "Management"
    },
    {
      "input": "This is a new string",
      "output": "Construction"
    },
    {
      "input": "This is another new string",
      "output": "Education"
    }
  ]
}