{
  "NN": {
    "sizes": [
      58,
      29,
      3
    ],
    "layers": [
      {
        "0": {},
        "1": {},
        "2": {},
        "3": {},
        "4": {},
        "5": {},
        "6": {},
        "7": {},
        "8": {},
        "9": {},
        "10": {},
        "11": {},
        "12": {},
        "13": {},
        "14": {},
        "15": {},
        "16": {},
        "17": {},
        "18": {},
        "19": {},
        "20": {},
        "21": {},
        "22": {},
        "23": {},
        "24": {},
        "25": {},
        "26": {},
        "27": {},
        "28": {},
        "29": {},
        "30": {},
        "31": {},
        "32": {},
        "33": {},
        "34": {},
        "35": {},
        "36": {},
        "37": {},
        "38": {},
        "39": {},
        "40": {},
        "41": {},
        "42": {},
        "43": {},
        "44": {},
        "45": {},
        "46": {},
        "47": {},
        "48": {},
        "49": {},
        "50": {},
        "51": {},
        "52": {},
        "53": {},
        "54": {},
        "55": {},
        "56": {},
        "57": {}
      },
      {
        "0": {
          "bias": -0.17460954189300537,
          "weights": {
            "0": -0.00965657364577055,
            "1": 0.014128750190138817,
            "2": 0.027788255363702774,
            "3": -0.30638617277145386,
            "4": -0.13666105270385742,
            "5": 0.1364312767982483,
            "6": -0.5727484226226807,
            "7": 0.013343211263418198,
            "8": -0.06253160536289215,
            "9": 0.011722077615559101,
            "10": 0.11447450518608093,
            "11": -0.24463826417922974,
            "12": -0.3629542887210846,
            "13": 0.4778709411621094,
            "14": 0.01673119328916073,
            "15": -0.057121966034173965,
            "16": 0.01018650084733963,
            "17": -0.04110163450241089,
            "18": 0.1755969524383545,
            "19": -0.16391783952713013,
            "20": -0.008731764741241932,
            "21": -0.04754810035228729,
            "22": -0.11758728325366974,
            "23": 0.34240299463272095,
            "24": -0.18484318256378174,
            "25": -0.10859668999910355,
            "26": -0.15007232129573822,
            "27": 0.07790811359882355,
            "28": -0.06479057669639587,
            "29": -0.1070394217967987,
            "30": 0.0329899787902832,
            "31": 0.15004493296146393,
            "32": 0.07774636894464493,
            "33": -0.1308577060699463,
            "34": -0.1998974084854126,
            "35": 0.15380512177944183,
            "36": 0.18318642675876617,
            "37": -0.11727356165647507,
            "38": -0.15204578638076782,
            "39": 0.09876468777656555,
            "40": 0.14909882843494415,
            "41": 0.2274266630411148,
            "42": 0.2537536323070526,
            "43": 0.15574906766414642,
            "44": 0.35068368911743164,
            "45": -0.07212379574775696,
            "46": 0.2895820438861847,
            "47": -0.020060062408447266,
            "48": 0.0437411405146122,
            "49": 0.023811466991901398,
            "50": 0.3006395995616913,
            "51": -0.025725364685058594,
            "52": 0.29888269305229187,
            "53": 0.08954683691263199,
            "54": 0.04828571528196335,
            "55": 0.1309138536453247,
            "56": 0.3133862614631653,
            "57": 0.14497984945774078
          }
        },
        "1": {
          "bias": -0.14608322083950043,
          "weights": {
            "0": -0.1939423829317093,
            "1": -0.303219199180603,
            "2": -0.28869032859802246,
            "3": -0.10510846227407455,
            "4": -0.009609132073819637,
            "5": -0.2807886302471161,
            "6": -0.09400792419910431,
            "7": 0.03306146711111069,
            "8": 0.1584964245557785,
            "9": -0.17577731609344482,
            "10": -0.2136749029159546,
            "11": -0.05956212431192398,
            "12": -0.09718843549489975,
            "13": -0.283193975687027,
            "14": 0.159194678068161,
            "15": 0.1539279818534851,
            "16": 0.17381668090820312,
            "17": 0.49078619480133057,
            "18": -0.13294599950313568,
            "19": -0.07842004299163818,
            "20": -0.1682744324207306,
            "21": 0.17095573246479034,
            "22": 0.38401472568511963,
            "23": -0.16906751692295074,
            "24": 0.4882444739341736,
            "25": -0.03272783383727074,
            "26": 0.051813993602991104,
            "27": -0.17732945084571838,
            "28": 0.10837805271148682,
            "29": -0.012093605473637581,
            "30": 0.02962717041373253,
            "31": 0.21703241765499115,
            "32": 0.04287869855761528,
            "33": 0.07669754326343536,
            "34": 0.11204743385314941,
            "35": 0.05732300505042076,
            "36": 0.17974326014518738,
            "37": 0.07623513042926788,
            "38": -0.10912756621837616,
            "39": 0.1420097053050995,
            "40": -0.17651298642158508,
            "41": -0.2637936770915985,
            "42": -0.255250483751297,
            "43": -0.12662214040756226,
            "44": 0.1105256974697113,
            "45": 0.06914522498846054,
            "46": -0.14498309791088104,
            "47": 0.0051482366397976875,
            "48": -0.15379738807678223,
            "49": 0.03155667334794998,
            "50": 0.015558350831270218,
            "51": -0.10568546503782272,
            "52": -0.10097716003656387,
            "53": -0.07459430396556854,
            "54": -0.25849854946136475,
            "55": -0.023814545944333076,
            "56": -0.20259010791778564,
            "57": -0.17310594022274017
          }
        },
        "2": {
          "bias": 0.10796792060136795,
          "weights": {
            "0": -0.0689925029873848,
            "1": -0.26397618651390076,
            "2": -0.25263166427612305,
            "3": 0.028219331055879593,
            "4": -0.009362338110804558,
            "5": -0.2247477024793625,
            "6": 0.0127941919490695,
            "7": 0.18580009043216705,
            "8": -0.039326515048742294,
            "9": -0.1142110824584961,
            "10": -0.23558083176612854,
            "11": 0.2013026922941208,
            "12": 0.12008100003004074,
            "13": -0.5754053592681885,
            "14": 0.4698544144630432,
            "15": 0.30766555666923523,
            "16": -0.11357690393924713,
            "17": 0.259830504655838,
            "18": 0.1802598387002945,
            "19": 0.006703777704387903,
            "20": 0.13896587491035461,
            "21": 0.1509864181280136,
            "22": 0.4512860178947449,
            "23": -0.04608940705657005,
            "24": 0.34792590141296387,
            "25": -0.0911983996629715,
            "26": 0.07248581200838089,
            "27": 0.08977299928665161,
            "28": 0.2989521920681,
            "29": 0.25618642568588257,
            "30": 0.27129802107810974,
            "31": -0.16174475848674774,
            "32": 0.3270494043827057,
            "33": -0.0007602390251122415,
            "34": 0.3476250171661377,
            "35": -0.1652446836233139,
            "36": 0.09968657046556473,
            "37": -0.03442467749118805,
            "38": -0.11604313552379608,
            "39": -0.19228079915046692,
            "40": -0.19434893131256104,
            "41": -0.37762269377708435,
            "42": 0.0004238293622620404,
            "43": 0.04632741957902908,
            "44": -0.23806223273277283,
            "45": 0.08090998977422714,
            "46": -0.37791696190834045,
            "47": -0.2184845507144928,
            "48": -0.22545494139194489,
            "49": -0.04640839621424675,
            "50": -0.01571674644947052,
            "51": 0.11601769179105759,
            "52": 0.00353845558129251,
            "53": -0.04730193689465523,
            "54": -0.14856457710266113,
            "55": -0.25818026065826416,
            "56": -0.26735764741897583,
            "57": -0.14139394462108612
          }
        },
        "3": {
          "bias": 0.12864017486572266,
          "weights": {
            "0": -0.19116361439228058,
            "1": -0.1281929314136505,
            "2": 0.14428475499153137,
            "3": 0.2066866159439087,
            "4": -0.006205101031810045,
            "5": -0.00900467298924923,
            "6": 0.45036450028419495,
            "7": 0.11404366791248322,
            "8": 0.21690300107002258,
            "9": 0.13011936843395233,
            "10": 0.25589439272880554,
            "11": 0.1506073921918869,
            "12": 0.16920047998428345,
            "13": 0.4191631078720093,
            "14": -0.2604402005672455,
            "15": -0.45816418528556824,
            "16": 0.06211581826210022,
            "17": -0.2729409635066986,
            "18": -0.11660244315862656,
            "19": -0.07190940529108047,
            "20": -0.14867213368415833,
            "21": -0.18816407024860382,
            "22": -0.29960715770721436,
            "23": -0.20836414396762848,
            "24": -0.3438035845756531,
            "25": -0.1616867035627365,
            "26": -0.11030498892068863,
            "27": 0.189666748046875,
            "28": -0.2246543914079666,
            "29": -0.06936131417751312,
            "30": -0.06294761598110199,
            "31": -0.031999703496694565,
            "32": -0.26045745611190796,
            "33": -0.20723500847816467,
            "34": -0.24339276552200317,
            "35": 0.07510121911764145,
            "36": -0.19976367056369781,
            "37": 0.17498289048671722,
            "38": 0.06743980199098587,
            "39": 0.0649527981877327,
            "40": 0.11771351099014282,
            "41": 0.11626438796520233,
            "42": 0.015333211049437523,
            "43": -0.19686713814735413,
            "44": -0.16197577118873596,
            "45": 0.07128461450338364,
            "46": 0.22797764837741852,
            "47": -0.02486065961420536,
            "48": 0.060425370931625366,
            "49": -0.17239618301391602,
            "50": -0.008039063774049282,
            "51": -0.03330797329545021,
            "52": -0.0015838759718462825,
            "53": 0.12870348989963531,
            "54": 0.11427043378353119,
            "55": 0.07269160449504852,
            "56": 0.04246867448091507,
            "57": 0.2166968435049057
          }
        },
        "4": {
          "bias": -0.05338450148701668,
          "weights": {
            "0": 0.09160032868385315,
            "1": -0.08252979069948196,
            "2": 0.059115219861269,
            "3": -0.32177749276161194,
            "4": -0.06971488893032074,
            "5": 0.1964198499917984,
            "6": -0.4308021068572998,
            "7": -0.08900229632854462,
            "8": -0.09598003327846527,
            "9": -0.15925166010856628,
            "10": 0.21354034543037415,
            "11": -0.16276046633720398,
            "12": -0.02283359318971634,
            "13": 0.5057198405265808,
            "14": -0.3594196140766144,
            "15": -0.12793688476085663,
            "16": -0.13159430027008057,
            "17": -0.11669552326202393,
            "18": 0.10215450823307037,
            "19": -0.14481285214424133,
            "20": 0.16833853721618652,
            "21": -0.09649655967950821,
            "22": -0.17091137170791626,
            "23": 0.43180644512176514,
            "24": -0.2984045743942261,
            "25": 0.11299216747283936,
            "26": 0.11981561034917831,
            "27": 0.14702963829040527,
            "28": 0.05585557222366333,
            "29": -0.08108063787221909,
            "30": -0.24919764697551727,
            "31": -0.10755810886621475,
            "32": -0.09151260554790497,
            "33": -0.2231249213218689,
            "34": 0.07639221847057343,
            "35": -0.061713188886642456,
            "36": -0.16435423493385315,
            "37": -0.009406356140971184,
            "38": 0.18358463048934937,
            "39": 0.027006393298506737,
            "40": 0.04252355545759201,
            "41": 0.2625560462474823,
            "42": 0.2311713695526123,
            "43": -0.01731051132082939,
            "44": 0.09016554802656174,
            "45": 0.18176014721393585,
            "46": 0.34279197454452515,
            "47": 0.2038942575454712,
            "48": 0.049923721700906754,
            "49": -0.1616101861000061,
            "50": 0.11211644858121872,
            "51": 0.12946279346942902,
            "52": 0.1287999302148819,
            "53": 0.06607938557863235,
            "54": 0.16043876111507416,
            "55": 0.3304009437561035,
            "56": 0.17821098864078522,
            "57": 0.0614929124712944
          }
        },
        "5": {
          "bias": 0.016145605593919754,
          "weights": {
            "0": -0.03607693687081337,
            "1": -0.011355072259902954,
            "2": -0.2019914984703064,
            "3": -0.32182398438453674,
            "4": 0.16970983147621155,
            "5": -0.05145561322569847,
            "6": -0.3704327344894409,
            "7": 0.16098648309707642,
            "8": -0.24989737570285797,
            "9": -0.05246836319565773,
            "10": 0.04351886361837387,
            "11": 0.014623645693063736,
            "12": 0.11792640388011932,
            "13": -0.0030827082227915525,
            "14": 0.08478305488824844,
            "15": 0.015476531349122524,
            "16": -0.15755127370357513,
            "17": 0.2545240521430969,
            "18": 0.01580216735601425,
            "19": -0.00784267857670784,
            "20": 0.16977500915527344,
            "21": 0.004461673554033041,
            "22": 0.15755821764469147,
            "23": 0.38721030950546265,
            "24": 0.11872041970491409,
            "25": 0.06344345957040787,
            "26": -0.12816204130649567,
            "27": -0.009096098132431507,
            "28": -0.0403028205037117,
            "29": -0.001040540635585785,
            "30": -0.06634259968996048,
            "31": 0.22229237854480743,
            "32": 0.16574271023273468,
            "33": 0.1243581548333168,
            "34": -0.1179562509059906,
            "35": 0.09402365982532501,
            "36": 0.21642132103443146,
            "37": 0.09050001949071884,
            "38": -0.16820162534713745,
            "39": -0.06796646118164062,
            "40": 0.12861770391464233,
            "41": 0.10737498104572296,
            "42": 0.1505616009235382,
            "43": 0.08667543530464172,
            "44": 0.06809311360120773,
            "45": 0.13559512794017792,
            "46": 0.2849748432636261,
            "47": -0.04898756742477417,
            "48": 0.21513111889362335,
            "49": -0.14360857009887695,
            "50": 0.02558012306690216,
            "51": 0.18861597776412964,
            "52": 0.22295540571212769,
            "53": -0.03539097309112549,
            "54": 0.046818725764751434,
            "55": -0.11022884398698807,
            "56": 0.12730970978736877,
            "57": 0.15327002108097076
          }
        },
        "6": {
          "bias": 0.0754808634519577,
          "weights": {
            "0": 0.11004089564085007,
            "1": 0.12265956401824951,
            "2": -0.032903820276260376,
            "3": -0.1671006977558136,
            "4": 0.06568589061498642,
            "5": -0.09435644000768661,
            "6": -0.39860185980796814,
            "7": -0.0356760174036026,
            "8": -0.0020302061457186937,
            "9": -0.11244489997625351,
            "10": 0.0963599756360054,
            "11": 0.026853501796722412,
            "12": -0.16654258966445923,
            "13": 0.03755668178200722,
            "14": 0.029233817011117935,
            "15": 0.11555732041597366,
            "16": -0.11165013164281845,
            "17": -0.16394519805908203,
            "18": 0.1887664645910263,
            "19": -0.1073426827788353,
            "20": -0.026807084679603577,
            "21": -0.16251248121261597,
            "22": -0.13542760908603668,
            "23": 0.4291793704032898,
            "24": -0.23521788418293,
            "25": -0.12572155892848969,
            "26": 0.08575309067964554,
            "27": -0.0717901811003685,
            "28": 0.1225450336933136,
            "29": 0.12046684324741364,
            "30": 0.21499325335025787,
            "31": 0.17692099511623383,
            "32": 0.11195646971464157,
            "33": 0.1681501418352127,
            "34": -0.05157087370753288,
            "35": -0.13418662548065186,
            "36": 0.14337024092674255,
            "37": -0.1708168089389801,
            "38": 0.06051556393504143,
            "39": -0.031554751098155975,
            "40": -0.03655768558382988,
            "41": 0.07135391235351562,
            "42": 0.17934592068195343,
            "43": 0.10487127304077148,
            "44": 0.29705190658569336,
            "45": 0.18586724996566772,
            "46": 0.1762891262769699,
            "47": -0.06815430521965027,
            "48": 0.01294705644249916,
            "49": 0.1842501014471054,
            "50": 0.09708511829376221,
            "51": 0.04028138890862465,
            "52": 0.28028008341789246,
            "53": 0.023053497076034546,
            "54": 0.24821500480175018,
            "55": 0.058302219957113266,
            "56": 0.022497082129120827,
            "57": -0.026974616572260857
          }
        },
        "7": {
          "bias": 0.01567849889397621,
          "weights": {
            "0": 0.028152940794825554,
            "1": -0.04249894991517067,
            "2": -0.010909880511462688,
            "3": -0.18049263954162598,
            "4": 0.09119304269552231,
            "5": -0.10915816575288773,
            "6": -0.22747252881526947,
            "7": -0.1290135383605957,
            "8": 0.06286700069904327,
            "9": -0.02209378592669964,
            "10": 0.1689961701631546,
            "11": -0.2851025462150574,
            "12": -0.04942166432738304,
            "13": 0.1890319436788559,
            "14": -0.06418564915657043,
            "15": -0.0944753885269165,
            "16": -0.10396941751241684,
            "17": -0.03443041071295738,
            "18": -0.05710567161440849,
            "19": -0.11290816217660904,
            "20": -0.09719642996788025,
            "21": -0.161971315741539,
            "22": 0.06665913760662079,
            "23": 0.1501987874507904,
            "24": 0.10120882093906403,
            "25": -0.05135704204440117,
            "26": 0.0008236921858042479,
            "27": 0.13474784791469574,
            "28": -0.1539294719696045,
            "29": 0.06133342906832695,
            "30": 0.005014358088374138,
            "31": 0.2350284308195114,
            "32": -0.0005071928026154637,
            "33": 0.0935499519109726,
            "34": 0.006436787545681,
            "35": -0.11414136737585068,
            "36": 0.21979409456253052,
            "37": 0.10467300564050674,
            "38": 0.11852216720581055,
            "39": -0.015772653743624687,
            "40": 0.059549327939748764,
            "41": 0.2681184709072113,
            "42": 0.2569308876991272,
            "43": -0.0032807132229208946,
            "44": 0.23462961614131927,
            "45": -0.10801908373832703,
            "46": 0.14064264297485352,
            "47": -0.0010343223111703992,
            "48": -0.04473816230893135,
            "49": -0.16646330058574677,
            "50": -0.08089642971754074,
            "51": -0.06353504955768585,
            "52": -0.09428684413433075,
            "53": -0.15853774547576904,
            "54": -0.06639809906482697,
            "55": 0.09912402927875519,
            "56": 0.1821066439151764,
            "57": 0.20244769752025604
          }
        },
        "8": {
          "bias": -0.050421081483364105,
          "weights": {
            "0": -0.09538152813911438,
            "1": 0.11127197742462158,
            "2": -0.0562327615916729,
            "3": -0.6589843034744263,
            "4": -0.19100652635097504,
            "5": -0.09044505655765533,
            "6": -0.661567747592926,
            "7": -0.16858500242233276,
            "8": -0.34393295645713806,
            "9": 0.11368589103221893,
            "10": 0.12971442937850952,
            "11": -0.11826377362012863,
            "12": -0.11697621643543243,
            "13": 0.3135857582092285,
            "14": -0.09630745649337769,
            "15": 0.04758080095052719,
            "16": -0.10717819631099701,
            "17": 0.08708740025758743,
            "18": -0.08508086204528809,
            "19": 0.016183720901608467,
            "20": -0.07495798915624619,
            "21": -0.15677882730960846,
            "22": -0.08499369770288467,
            "23": 0.6870090961456299,
            "24": -0.15322895348072052,
            "25": 0.031368501484394073,
            "26": -0.13550487160682678,
            "27": -0.16024553775787354,
            "28": -0.0616399310529232,
            "29": 0.06029527634382248,
            "30": 0.15467096865177155,
            "31": 0.003660217160359025,
            "32": 0.13221657276153564,
            "33": 0.09352650493383408,
            "34": 0.1501723676919937,
            "35": 0.006088586058467627,
            "36": 0.027531467378139496,
            "37": -0.16213904321193695,
            "38": 0.15195882320404053,
            "39": 0.06627088785171509,
            "40": 0.1104019284248352,
            "41": 0.16729727387428284,
            "42": 0.24556492269039154,
            "43": 0.1363418996334076,
            "44": 0.1906205117702484,
            "45": 0.17984987795352936,
            "46": 0.30014175176620483,
            "47": 0.2771027088165283,
            "48": -0.0007107275305315852,
            "49": -0.013322322629392147,
            "50": 0.08528365194797516,
            "51": -0.1998755782842636,
            "52": 0.18440024554729462,
            "53": 0.17583873867988586,
            "54": 0.20639656484127045,
            "55": 0.2813510596752167,
            "56": -0.027727194130420685,
            "57": 0.3206152319908142
          }
        },
        "9": {
          "bias": -0.0950593650341034,
          "weights": {
            "0": -0.16013860702514648,
            "1": -0.2590845227241516,
            "2": -0.07699824124574661,
            "3": -0.3105732798576355,
            "4": 0.03764167055487633,
            "5": 0.009278060868382454,
            "6": -0.22170355916023254,
            "7": 0.18324320018291473,
            "8": -0.10854575037956238,
            "9": -0.028027454391121864,
            "10": -0.1660706251859665,
            "11": 0.08731567114591599,
            "12": -0.12592804431915283,
            "13": -0.06053892523050308,
            "14": 0.05586538463830948,
            "15": 0.33345338702201843,
            "16": -0.11767908185720444,
            "17": 0.15232527256011963,
            "18": 0.1727013885974884,
            "19": -0.08742276579141617,
            "20": -0.0912303477525711,
            "21": -0.02750590443611145,
            "22": 0.1814088523387909,
            "23": -0.0752933993935585,
            "24": 0.10890214890241623,
            "25": 0.1281474083662033,
            "26": -0.11968932300806046,
            "27": 0.16690431535243988,
            "28": 0.06676285713911057,
            "29": 0.0027918738778680563,
            "30": 0.24863605201244354,
            "31": 0.12963686883449554,
            "32": 0.24372981488704681,
            "33": -0.09631167352199554,
            "34": 0.06947481632232666,
            "35": -0.1919317990541458,
            "36": -0.032959096133708954,
            "37": 0.18780717253684998,
            "38": -0.12409444153308868,
            "39": -0.06487323343753815,
            "40": -0.21583124995231628,
            "41": -0.17654436826705933,
            "42": 0.039419617503881454,
            "43": 0.06856762617826462,
            "44": -0.13941098749637604,
            "45": 0.0854993462562561,
            "46": 0.0004226126766297966,
            "47": -0.2353028804063797,
            "48": -0.08776529133319855,
            "49": -0.08332466334104538,
            "50": 0.11623533070087433,
            "51": 0.1437917947769165,
            "52": -0.03200904652476311,
            "53": -0.1502995789051056,
            "54": 0.08808734267950058,
            "55": -0.03763556107878685,
            "56": 0.12875254452228546,
            "57": 0.06567242741584778
          }
        },
        "10": {
          "bias": -0.13389559090137482,
          "weights": {
            "0": -0.1777781844139099,
            "1": -0.028355982154607773,
            "2": 0.2757943272590637,
            "3": 0.6400414705276489,
            "4": 0.1150164008140564,
            "5": 0.19792041182518005,
            "6": 0.6104055643081665,
            "7": -0.029964229092001915,
            "8": 0.14116302132606506,
            "9": 0.18763884902000427,
            "10": 0.09156222641468048,
            "11": 0.2094251811504364,
            "12": 0.2906970977783203,
            "13": 0.08805248141288757,
            "14": -0.5424627065658569,
            "15": -0.38056761026382446,
            "16": -0.03300914913415909,
            "17": -0.5693907737731934,
            "18": 0.09212231636047363,
            "19": 0.1437753289937973,
            "20": 0.18805545568466187,
            "21": 0.08844445645809174,
            "22": -0.46131059527397156,
            "23": -0.2898734509944916,
            "24": -0.27820906043052673,
            "25": -0.1068897545337677,
            "26": -0.06234680116176605,
            "27": 0.11735213547945023,
            "28": -0.011897875927388668,
            "29": -0.1618805080652237,
            "30": -0.3358384668827057,
            "31": -0.1250033974647522,
            "32": -0.34878847002983093,
            "33": -0.09089310467243195,
            "34": 0.012609078548848629,
            "35": 0.10584600269794464,
            "36": -0.2317928969860077,
            "37": -0.17496483027935028,
            "38": 0.02156238444149494,
            "39": -0.11536318808794022,
            "40": -0.06458406895399094,
            "41": -0.27369046211242676,
            "42": -0.18519192934036255,
            "43": 0.09918258339166641,
            "44": 0.004903270397335291,
            "45": -0.047454290091991425,
            "46": -0.09610626101493835,
            "47": 0.006138262804597616,
            "48": 0.12135947495698929,
            "49": -0.1909364014863968,
            "50": 0.16962037980556488,
            "51": -0.17283077538013458,
            "52": -0.1472722738981247,
            "53": 0.1596578061580658,
            "54": 0.035051144659519196,
            "55": 0.04943649843335152,
            "56": 0.13380135595798492,
            "57": 0.018590882420539856
          }
        },
        "11": {
          "bias": 0.08885131031274796,
          "weights": {
            "0": -0.19455425441265106,
            "1": -0.2701062262058258,
            "2": 0.03937577083706856,
            "3": 0.219822958111763,
            "4": -0.08260522782802582,
            "5": 0.14922593533992767,
            "6": 0.3899000883102417,
            "7": -0.11770371347665787,
            "8": 0.13213273882865906,
            "9": 0.1492711305618286,
            "10": -0.0330989845097065,
            "11": 0.3030031621456146,
            "12": 0.10319960862398148,
            "13": -0.44773244857788086,
            "14": -0.05528877675533295,
            "15": 0.17504143714904785,
            "16": -0.004722410347312689,
            "17": 0.10771948099136353,
            "18": 0.10370280593633652,
            "19": 0.13270515203475952,
            "20": 0.07045887410640717,
            "21": 0.09261211007833481,
            "22": -0.04702605679631233,
            "23": -0.2537292242050171,
            "24": -0.07346867769956589,
            "25": 0.08403841406106949,
            "26": 0.03945804759860039,
            "27": 0.08883922547101974,
            "28": -0.1537533402442932,
            "29": 0.031140724197030067,
            "30": -0.003482992760837078,
            "31": 0.040479205548763275,
            "32": 0.011152565479278564,
            "33": -0.015837816521525383,
            "34": 0.1834048479795456,
            "35": -0.12195821851491928,
            "36": -0.1458631008863449,
            "37": -0.045503415167331696,
            "38": 0.03790164738893509,
            "39": -0.18949207663536072,
            "40": -0.15529651939868927,
            "41": -0.3234699070453644,
            "42": -0.3319510817527771,
            "43": 0.003276754869148135,
            "44": -0.333880752325058,
            "45": -0.05154234170913696,
            "46": -0.28404825925827026,
            "47": 0.07796221971511841,
            "48": -0.10593641549348831,
            "49": -0.07982829958200455,
            "50": -0.18942083418369293,
            "51": -0.08297308534383774,
            "52": -0.302761435508728,
            "53": -0.03905043005943298,
            "54": -0.2085355669260025,
            "55": -0.18138480186462402,
            "56": 0.011863978579640388,
            "57": -0.19815374910831451
          }
        },
        "12": {
          "bias": -0.0925784483551979,
          "weights": {
            "0": 0.19275619089603424,
            "1": -0.24441616237163544,
            "2": -0.4446268081665039,
            "3": -0.6492856740951538,
            "4": -0.13275857269763947,
            "5": -0.5195501446723938,
            "6": -0.6436483263969421,
            "7": 0.19422905147075653,
            "8": -0.12144464254379272,
            "9": 0.16154830157756805,
            "10": -0.4064472019672394,
            "11": -0.04592067375779152,
            "12": -0.17508599162101746,
            "13": -0.6701837182044983,
            "14": 0.5874097347259521,
            "15": 0.8641457557678223,
            "16": -0.1446470320224762,
            "17": 0.7202788591384888,
            "18": 0.1967521607875824,
            "19": -0.09806548058986664,
            "20": 0.08263454586267471,
            "21": -0.03705241158604622,
            "22": 0.7024519443511963,
            "23": 0.3058077394962311,
            "24": 0.6833453178405762,
            "25": 0.09469426423311234,
            "26": 0.1475401669740677,
            "27": 0.03559207543730736,
            "28": 0.2545316815376282,
            "29": 0.14160142838954926,
            "30": 0.4682691991329193,
            "31": 0.30239981412887573,
            "32": 0.07770907878875732,
            "33": 0.43640726804733276,
            "34": 0.32613804936408997,
            "35": -0.13766668736934662,
            "36": 0.40010830760002136,
            "37": 0.12116547673940659,
            "38": -0.15311221778392792,
            "39": -0.044067300856113434,
            "40": 0.11538200080394745,
            "41": -0.11270079761743546,
            "42": -0.16836270689964294,
            "43": -0.08582381904125214,
            "44": -0.23402097821235657,
            "45": -0.08762912452220917,
            "46": -0.16050677001476288,
            "47": -0.062246669083833694,
            "48": -0.026726197451353073,
            "49": -0.16581682860851288,
            "50": -0.26368439197540283,
            "51": 0.01617162488400936,
            "52": -0.011086245067417622,
            "53": 0.036672577261924744,
            "54": -0.2647315263748169,
            "55": -0.0027774223126471043,
            "56": -0.07587268203496933,
            "57": -0.2815249562263489
          }
        },
        "13": {
          "bias": 0.06606100499629974,
          "weights": {
            "0": -0.14583779871463776,
            "1": -0.09972479939460754,
            "2": -0.04046144336462021,
            "3": -0.4439203441143036,
            "4": 0.14096763730049133,
            "5": -0.201472207903862,
            "6": -0.49208927154541016,
            "7": 0.027395380660891533,
            "8": -0.11145767569541931,
            "9": 0.10742805898189545,
            "10": -0.05791059136390686,
            "11": 0.03833189234137535,
            "12": -0.0940205529332161,
            "13": 0.2589980959892273,
            "14": 0.2963530123233795,
            "15": 0.009781070053577423,
            "16": -0.12585388123989105,
            "17": 0.37487688660621643,
            "18": -0.1696764975786209,
            "19": -0.08584482222795486,
            "20": 0.06522083282470703,
            "21": 0.03791181743144989,
            "22": 0.15734589099884033,
            "23": 0.43998464941978455,
            "24": 0.16194933652877808,
            "25": 0.05815943703055382,
            "26": 0.010433938354253769,
            "27": 0.04546855762600899,
            "28": 0.2712324559688568,
            "29": 0.239061176776886,
            "30": 0.16439472138881683,
            "31": 0.11540230363607407,
            "32": 0.053640782833099365,
            "33": -0.07374013960361481,
            "34": 0.08555685728788376,
            "35": 0.0208282507956028,
            "36": 0.20242583751678467,
            "37": -0.10573146492242813,
            "38": -0.012703822925686836,
            "39": 0.039033930748701096,
            "40": 0.032777074724435806,
            "41": 0.19597698748111725,
            "42": 0.021014975383877754,
            "43": 0.10735814273357391,
            "44": 0.31203097105026245,
            "45": -0.03154357522726059,
            "46": -0.01818929985165596,
            "47": 0.11567329615354538,
            "48": 0.23486961424350739,
            "49": 0.17489232122898102,
            "50": -0.08440355956554413,
            "51": 0.1264934092760086,
            "52": -0.013920393772423267,
            "53": -0.18240924179553986,
            "54": 0.08802918344736099,
            "55": 0.020351791754364967,
            "56": 0.21708719432353973,
            "57": -0.06177253648638725
          }
        },
        "14": {
          "bias": -0.040859200060367584,
          "weights": {
            "0": -0.07524558901786804,
            "1": -0.27369892597198486,
            "2": -0.14281220734119415,
            "3": 0.09973268210887909,
            "4": 0.07183228433132172,
            "5": 0.08540580421686172,
            "6": 0.08573190867900848,
            "7": -0.10724949836730957,
            "8": -0.11375544220209122,
            "9": 0.12618130445480347,
            "10": -0.15238898992538452,
            "11": -0.05062798410654068,
            "12": -0.18969571590423584,
            "13": -0.007059235125780106,
            "14": 0.0869545191526413,
            "15": 0.10464224964380264,
            "16": 0.0726180225610733,
            "17": 0.2754526734352112,
            "18": -0.04260348156094551,
            "19": 0.1510872095823288,
            "20": -0.01745949126780033,
            "21": -0.03253889083862305,
            "22": 0.04174612835049629,
            "23": 0.10743257403373718,
            "24": -0.04877713695168495,
            "25": 0.1763792634010315,
            "26": -0.04141790792346001,
            "27": 0.18413668870925903,
            "28": -0.1403505802154541,
            "29": 0.12218532711267471,
            "30": 0.19845280051231384,
            "31": -0.10667578876018524,
            "32": 0.12650196254253387,
            "33": 0.1629767268896103,
            "34": 0.17745065689086914,
            "35": 0.020074253901839256,
            "36": 0.130808487534523,
            "37": 0.18580441176891327,
            "38": 0.16568797826766968,
            "39": -0.16053852438926697,
            "40": -0.14603905379772186,
            "41": -0.07745907455682755,
            "42": -0.04251653328537941,
            "43": -0.11058244109153748,
            "44": -0.159442737698555,
            "45": 0.19287070631980896,
            "46": 0.07895170897245407,
            "47": -0.1560838520526886,
            "48": 0.10128830373287201,
            "49": 0.09582626074552536,
            "50": 0.17275483906269073,
            "51": 0.18618044257164001,
            "52": -0.013593163341283798,
            "53": -0.1512954980134964,
            "54": -0.09575550258159637,
            "55": -0.10637526959180832,
            "56": 0.09884542226791382,
            "57": -0.15300047397613525
          }
        },
        "15": {
          "bias": -0.05583668500185013,
          "weights": {
            "0": 0.16965924203395844,
            "1": -0.1834455281496048,
            "2": -0.21704718470573425,
            "3": -0.14036838710308075,
            "4": -0.1479557454586029,
            "5": 0.023361725732684135,
            "6": -0.1812167763710022,
            "7": -0.1352553516626358,
            "8": 0.24192552268505096,
            "9": 0.19985400140285492,
            "10": -0.40575218200683594,
            "11": 0.2701771557331085,
            "12": -0.010690749622881413,
            "13": -0.5776853561401367,
            "14": 0.5077118873596191,
            "15": 0.3405524492263794,
            "16": 0.011558780446648598,
            "17": 0.49561044573783875,
            "18": 0.01679404452443123,
            "19": -0.1789264678955078,
            "20": -0.014357426203787327,
            "21": -0.17377345263957977,
            "22": 0.5657916069030762,
            "23": -0.1949560046195984,
            "24": 0.6176409125328064,
            "25": 0.06072083115577698,
            "26": -0.18466685712337494,
            "27": -0.1581476330757141,
            "28": 0.09753316640853882,
            "29": 0.07766129076480865,
            "30": 0.34036922454833984,
            "31": 0.003378444816917181,
            "32": 0.30738624930381775,
            "33": 0.21955707669258118,
            "34": 0.3192976117134094,
            "35": -0.17709873616695404,
            "36": 0.03012283891439438,
            "37": 0.17863191664218903,
            "38": -0.06350065767765045,
            "39": 0.002333361655473709,
            "40": -0.2801695764064789,
            "41": -0.21419399976730347,
            "42": -0.12853945791721344,
            "43": 0.040539421141147614,
            "44": -0.25317004323005676,
            "45": -0.12142715603113174,
            "46": -0.15162883698940277,
            "47": -0.04640919342637062,
            "48": -0.08713386207818985,
            "49": 0.10452879220247269,
            "50": -0.2838824689388275,
            "51": -0.05002709850668907,
            "52": -0.2377309799194336,
            "53": 0.009376696310937405,
            "54": -0.2942728102207184,
            "55": -0.09099067002534866,
            "56": 0.007129808887839317,
            "57": 0.0021634509321302176
          }
        },
        "16": {
          "bias": -0.010472827591001987,
          "weights": {
            "0": 0.14937643706798553,
            "1": -0.10516832023859024,
            "2": 0.059905730187892914,
            "3": 0.37661799788475037,
            "4": -0.13497565686702728,
            "5": -0.08128736913204193,
            "6": 0.0615396648645401,
            "7": 0.14519508183002472,
            "8": 0.3150906562805176,
            "9": 0.1609814614057541,
            "10": -0.32803136110305786,
            "11": 0.35178542137145996,
            "12": 0.07051638513803482,
            "13": -0.5014798641204834,
            "14": 0.32959213852882385,
            "15": 0.07731316238641739,
            "16": 0.09960022568702698,
            "17": 0.38454827666282654,
            "18": -0.14201457798480988,
            "19": 0.05482389032840729,
            "20": 0.18510334193706512,
            "21": 0.012389031238853931,
            "22": 0.4670681655406952,
            "23": -0.409046471118927,
            "24": 0.1973370760679245,
            "25": 0.04245590791106224,
            "26": -0.10754334181547165,
            "27": -0.07950878143310547,
            "28": 0.10401996225118637,
            "29": 0.1624230146408081,
            "30": 0.20583024621009827,
            "31": -0.011367764323949814,
            "32": 0.14410825073719025,
            "33": -0.03141966089606285,
            "34": 0.31445586681365967,
            "35": -0.11650081723928452,
            "36": 0.18401682376861572,
            "37": 0.007383063901215792,
            "38": 0.032328732311725616,
            "39": -0.14134687185287476,
            "40": -0.21156159043312073,
            "41": -0.3087523579597473,
            "42": -0.03976920247077942,
            "43": -0.14857757091522217,
            "44": -0.21267631649971008,
            "45": 0.09843429923057556,
            "46": -0.2882792353630066,
            "47": -0.24318957328796387,
            "48": -0.31062576174736023,
            "49": -0.07319033890962601,
            "50": 0.05448560789227486,
            "51": 0.1284463107585907,
            "52": -0.32924410700798035,
            "53": -0.027710353955626488,
            "54": -0.2186145931482315,
            "55": -0.2277185618877411,
            "56": -0.12699976563453674,
            "57": -0.029712282121181488
          }
        },
        "17": {
          "bias": 0.037247806787490845,
          "weights": {
            "0": 0.18100880086421967,
            "1": -0.08364491909742355,
            "2": 0.08591601252555847,
            "3": 0.7138049006462097,
            "4": -0.13957224786281586,
            "5": 0.12139174342155457,
            "6": 0.6934766173362732,
            "7": -0.11291035264730453,
            "8": 0.4279274642467499,
            "9": -0.03868715465068817,
            "10": -0.18083244562149048,
            "11": 0.37594541907310486,
            "12": 0.36396539211273193,
            "13": -0.4212864935398102,
            "14": -0.1000434160232544,
            "15": -0.09219083189964294,
            "16": -0.1125035211443901,
            "17": -0.09109725058078766,
            "18": 0.1729697436094284,
            "19": 0.14115899801254272,
            "20": -0.1786007285118103,
            "21": 0.005863014608621597,
            "22": 0.0435737669467926,
            "23": -0.9364108443260193,
            "24": 0.29565364122390747,
            "25": -0.1166735291481018,
            "26": -0.1264481097459793,
            "27": 0.14609187841415405,
            "28": 0.005049873609095812,
            "29": 0.005346005316823721,
            "30": -0.013600703328847885,
            "31": -0.08412855118513107,
            "32": -0.10269389301538467,
            "33": 0.08324490487575531,
            "34": -0.06732802838087082,
            "35": 0.1608174443244934,
            "36": 0.014769584871828556,
            "37": -0.13887323439121246,
            "38": -0.05875068157911301,
            "39": 0.06698736548423767,
            "40": -0.2725375294685364,
            "41": -0.4374050796031952,
            "42": -0.4929129481315613,
            "43": 0.08292243629693985,
            "44": -0.2624267339706421,
            "45": 0.05438349395990372,
            "46": -0.18493418395519257,
            "47": -0.1413329690694809,
            "48": -0.3417087197303772,
            "49": -0.02753143571317196,
            "50": -0.15874437987804413,
            "51": -0.15047864615917206,
            "52": -0.09230577945709229,
            "53": 0.14079205691814423,
            "54": -0.1517518162727356,
            "55": -0.2690936326980591,
            "56": -0.20783722400665283,
            "57": -0.34152260422706604
          }
        },
        "18": {
          "bias": 0.012114518322050571,
          "weights": {
            "0": 0.037469957023859024,
            "1": -0.08385863155126572,
            "2": 0.03368084505200386,
            "3": -0.6283352971076965,
            "4": 0.13391917943954468,
            "5": -0.23672132194042206,
            "6": -0.6571841239929199,
            "7": -0.06908997893333435,
            "8": -0.3586488366127014,
            "9": 0.09438576549291611,
            "10": 0.20483504235744476,
            "11": -0.250451922416687,
            "12": -0.18435637652873993,
            "13": 0.2483309805393219,
            "14": 0.2844127416610718,
            "15": 0.0764719545841217,
            "16": -0.18484550714492798,
            "17": 0.17389467358589172,
            "18": -0.08518791198730469,
            "19": -0.016007879748940468,
            "20": 0.12467808276414871,
            "21": -0.09876026958227158,
            "22": 0.15224406123161316,
            "23": 0.5548561811447144,
            "24": 0.10136095434427261,
            "25": -0.15272583067417145,
            "26": 0.19665710628032684,
            "27": -0.037836432456970215,
            "28": -0.03213643655180931,
            "29": 0.17878150939941406,
            "30": -0.01569490320980549,
            "31": 0.3465243875980377,
            "32": 0.23516400158405304,
            "33": 0.27696263790130615,
            "34": 0.16721487045288086,
            "35": 0.10491431504487991,
            "36": 0.18604913353919983,
            "37": -0.07193455100059509,
            "38": 0.11893802136182785,
            "39": -0.14239349961280823,
            "40": 0.31271588802337646,
            "41": 0.12919431924819946,
            "42": 0.3638511300086975,
            "43": -0.013133484870195389,
            "44": 0.2958919107913971,
            "45": 0.03276253491640091,
            "46": 0.0711481124162674,
            "47": 0.13679005205631256,
            "48": 0.07435072958469391,
            "49": -0.05093017965555191,
            "50": -0.10010387748479843,
            "51": 0.1937168389558792,
            "52": -0.005830684211105108,
            "53": -0.16179868578910828,
            "54": 0.2114676982164383,
            "55": 0.28281232714653015,
            "56": 0.24960078299045563,
            "57": 0.12787199020385742
          }
        },
        "19": {
          "bias": -0.14371734857559204,
          "weights": {
            "0": 0.015762852504849434,
            "1": 0.13737253844738007,
            "2": 0.12881287932395935,
            "3": -0.11584775149822235,
            "4": -0.1645568311214447,
            "5": -0.06162330135703087,
            "6": -0.31725507974624634,
            "7": 0.14341886341571808,
            "8": -0.1862967610359192,
            "9": 0.052324626594781876,
            "10": 0.397628515958786,
            "11": -0.11776181310415268,
            "12": -0.3600892126560211,
            "13": 0.6281830072402954,
            "14": -0.27619120478630066,
            "15": -0.2859936058521271,
            "16": -0.1500266045331955,
            "17": -0.38497447967529297,
            "18": -0.1450512707233429,
            "19": -0.026321737095713615,
            "20": 0.049694862216711044,
            "21": 0.07049576938152313,
            "22": -0.5397017598152161,
            "23": 0.27051547169685364,
            "24": -0.4780628979206085,
            "25": -0.1998019516468048,
            "26": 0.18285201489925385,
            "27": -0.023923657834529877,
            "28": -0.2760789692401886,
            "29": -0.15927141904830933,
            "30": -0.30660444498062134,
            "31": 0.09999050199985504,
            "32": -0.21945293247699738,
            "33": -0.1733224093914032,
            "34": 0.04695539548993111,
            "35": 0.02053123526275158,
            "36": -0.12088309228420258,
            "37": -0.030023211613297462,
            "38": -0.19156360626220703,
            "39": 0.013797658495604992,
            "40": 0.16907982528209686,
            "41": 0.16757917404174805,
            "42": 0.3118816018104553,
            "43": -0.19788089394569397,
            "44": 0.31658127903938293,
            "45": 0.043395623564720154,
            "46": 0.41837361454963684,
            "47": 0.2087232768535614,
            "48": 0.032711487263441086,
            "49": -0.11548611521720886,
            "50": 0.2924586832523346,
            "51": -0.1600857675075531,
            "52": 0.2734529376029968,
            "53": 0.192110076546669,
            "54": 0.29553037881851196,
            "55": 0.18403813242912292,
            "56": 0.2948528826236725,
            "57": 0.04376624524593353
          }
        },
        "20": {
          "bias": 0.05387893319129944,
          "weights": {
            "0": -0.17735491693019867,
            "1": -0.21740666031837463,
            "2": 0.1275222897529602,
            "3": 0.4553565979003906,
            "4": -0.030089255422353745,
            "5": 0.14038753509521484,
            "6": 0.5947327613830566,
            "7": 0.06735000014305115,
            "8": 0.25059449672698975,
            "9": -0.16461694240570068,
            "10": -0.04203486070036888,
            "11": 0.31245434284210205,
            "12": 0.10927702486515045,
            "13": -0.022406939417123795,
            "14": -0.5070432424545288,
            "15": -0.2681075930595398,
            "16": 0.18840166926383972,
            "17": -0.2850629389286041,
            "18": -0.19555871188640594,
            "19": 0.142442524433136,
            "20": -0.054210830479860306,
            "21": -0.1661463975906372,
            "22": -0.22379451990127563,
            "23": -0.5701267719268799,
            "24": -0.3711525797843933,
            "25": 0.01597798988223076,
            "26": 0.06713195890188217,
            "27": -0.09983297437429428,
            "28": 0.03234348073601723,
            "29": 0.025562046095728874,
            "30": -0.11393243819475174,
            "31": -0.34654006361961365,
            "32": -0.2289818972349167,
            "33": -0.07643508911132812,
            "34": -0.05287480726838112,
            "35": 0.10695547610521317,
            "36": -0.10436046868562698,
            "37": 0.11976569145917892,
            "38": -0.16349638998508453,
            "39": 0.0497564934194088,
            "40": -0.25604212284088135,
            "41": 0.06533119082450867,
            "42": -0.3021334409713745,
            "43": -0.0499185286462307,
            "44": 0.06190643832087517,
            "45": 0.1641572266817093,
            "46": -0.2462129294872284,
            "47": -0.155352383852005,
            "48": -0.11379604041576385,
            "49": 0.007419342175126076,
            "50": -0.12271851301193237,
            "51": 0.14623241126537323,
            "52": -0.11905515193939209,
            "53": -0.17305299639701843,
            "54": -0.23252171277999878,
            "55": -0.047009509056806564,
            "56": 0.014372449368238449,
            "57": -0.19449736177921295
          }
        },
        "21": {
          "bias": -0.025241833180189133,
          "weights": {
            "0": -0.13380563259124756,
            "1": 0.04173422232270241,
            "2": 0.10527735948562622,
            "3": 0.02998300828039646,
            "4": 0.024391934275627136,
            "5": -0.08617590367794037,
            "6": -0.20374400913715363,
            "7": 0.1952076405286789,
            "8": 0.13582445681095123,
            "9": -0.09390600770711899,
            "10": 0.09790080785751343,
            "11": -0.013629850000143051,
            "12": 0.003289422718808055,
            "13": 0.1256725937128067,
            "14": -0.04416274279356003,
            "15": -0.33588942885398865,
            "16": -0.06652796268463135,
            "17": -0.06386886537075043,
            "18": -0.12984515726566315,
            "19": -0.07747428119182587,
            "20": -0.1652533859014511,
            "21": 0.07183928042650223,
            "22": -0.3766729235649109,
            "23": -0.08729037642478943,
            "24": -0.1535497009754181,
            "25": -0.16760721802711487,
            "26": 0.16141125559806824,
            "27": -0.08158136904239655,
            "28": -0.24270081520080566,
            "29": 0.051479268819093704,
            "30": -0.2477608025074005,
            "31": 0.20663008093833923,
            "32": -0.18572016060352325,
            "33": -0.09089674800634384,
            "34": -0.2578124701976776,
            "35": 0.18841946125030518,
            "36": 0.08663001656532288,
            "37": -0.059413179755210876,
            "38": 0.06232200190424919,
            "39": 0.12209950387477875,
            "40": 0.28557059168815613,
            "41": 0.16285645961761475,
            "42": 0.14319297671318054,
            "43": -0.12048505246639252,
            "44": 0.05615696310997009,
            "45": -0.18511317670345306,
            "46": 0.22049133479595184,
            "47": 0.07698207348585129,
            "48": -0.04943569377064705,
            "49": 0.021545791998505592,
            "50": -0.032289497554302216,
            "51": 0.12205364555120468,
            "52": 0.01589476317167282,
            "53": 0.07657767087221146,
            "54": -0.009971215389668941,
            "55": 0.07894938439130783,
            "56": -0.023772358894348145,
            "57": 0.22583475708961487
          }
        },
        "22": {
          "bias": 0.19189099967479706,
          "weights": {
            "0": -0.13463158905506134,
            "1": -0.19251950085163116,
            "2": -0.07530516386032104,
            "3": 0.5897881984710693,
            "4": 0.008384090848267078,
            "5": 0.03151869401335716,
            "6": 0.33626118302345276,
            "7": 0.18299105763435364,
            "8": 0.38690343499183655,
            "9": -0.08524292707443237,
            "10": -0.040960367769002914,
            "11": 0.0989038273692131,
            "12": 0.23038388788700104,
            "13": -0.3985656797885895,
            "14": -0.19513516128063202,
            "15": -0.16577903926372528,
            "16": -0.19361305236816406,
            "17": -0.12092094123363495,
            "18": 0.12572868168354034,
            "19": -0.07530330121517181,
            "20": -0.16773855686187744,
            "21": -0.10769294202327728,
            "22": -0.21553584933280945,
            "23": -0.6471522450447083,
            "24": -0.17744508385658264,
            "25": 0.1401194930076599,
            "26": -0.17567959427833557,
            "27": 0.1483386605978012,
            "28": 0.12151586264371872,
            "29": 0.08963539451360703,
            "30": -0.015280875377357006,
            "31": -0.2862766981124878,
            "32": -0.02858748286962509,
            "33": -0.22116118669509888,
            "34": -0.15936554968357086,
            "35": -0.12769801914691925,
            "36": 0.07395334541797638,
            "37": 0.1767147034406662,
            "38": -0.179657980799675,
            "39": -0.04696521535515785,
            "40": -0.2703690528869629,
            "41": -0.31216704845428467,
            "42": -0.30420488119125366,
            "43": 0.08856099843978882,
            "44": -0.248102605342865,
            "45": 0.14818058907985687,
            "46": -0.07510904967784882,
            "47": -0.08095065504312515,
            "48": -0.032796818763017654,
            "49": -0.12620839476585388,
            "50": -0.05560403689742088,
            "51": 0.13084137439727783,
            "52": -0.18435855209827423,
            "53": -0.05882740765810013,
            "54": -0.2325466424226761,
            "55": 0.04002814367413521,
            "56": -0.14391309022903442,
            "57": -0.3008807599544525
          }
        },
        "23": {
          "bias": 0.03246462345123291,
          "weights": {
            "0": 0.012960382737219334,
            "1": -0.09838881343603134,
            "2": 0.08587006479501724,
            "3": 0.22810666263103485,
            "4": -0.14233483374118805,
            "5": 0.24748514592647552,
            "6": 0.3723074495792389,
            "7": -0.001725893933326006,
            "8": 0.06610795110464096,
            "9": -0.08160106092691422,
            "10": 0.19486896693706512,
            "11": 0.21785159409046173,
            "12": -0.06280085444450378,
            "13": -0.031914494931697845,
            "14": -0.16176898777484894,
            "15": -0.0907132551074028,
            "16": 0.08943632990121841,
            "17": -0.4258785545825958,
            "18": -0.15141893923282623,
            "19": 0.015369920060038567,
            "20": 0.1686335802078247,
            "21": 0.056259334087371826,
            "22": -0.3454713523387909,
            "23": -0.18407762050628662,
            "24": -0.3264685273170471,
            "25": -0.17065246403217316,
            "26": 0.15268144011497498,
            "27": 0.02860834077000618,
            "28": 0.0931282564997673,
            "29": -0.0920918732881546,
            "30": 0.11731293797492981,
            "31": -0.12191297858953476,
            "32": -0.2023583948612213,
            "33": -0.264841228723526,
            "34": 0.015214547514915466,
            "35": 0.06971593201160431,
            "36": 0.109322190284729,
            "37": -0.09104862064123154,
            "38": 0.11526457965373993,
            "39": -0.19217360019683838,
            "40": -0.03579032048583031,
            "41": -0.19360893964767456,
            "42": -0.15160395205020905,
            "43": 0.058977629989385605,
            "44": 0.12252332270145416,
            "45": 0.1065153032541275,
            "46": 0.055100806057453156,
            "47": -0.11184283345937729,
            "48": 0.016538087278604507,
            "49": -0.11096050590276718,
            "50": 0.12377768009901047,
            "51": 0.01232597604393959,
            "52": 0.06776420027017593,
            "53": -0.15697535872459412,
            "54": -0.05650129169225693,
            "55": -0.053471747785806656,
            "56": 0.19748754799365997,
            "57": -0.005123391281813383
          }
        },
        "24": {
          "bias": -0.1511077731847763,
          "weights": {
            "0": 0.0007606042199768126,
            "1": -0.16062630712985992,
            "2": -0.07079853117465973,
            "3": 0.5203395485877991,
            "4": 0.11483807861804962,
            "5": 0.21051186323165894,
            "6": 0.3696395456790924,
            "7": 0.1340634971857071,
            "8": 0.12458966672420502,
            "9": 0.12025172263383865,
            "10": -0.03692962974309921,
            "11": 0.07683658599853516,
            "12": 0.2834668755531311,
            "13": -0.30660033226013184,
            "14": -0.1364319622516632,
            "15": -0.06783068925142288,
            "16": 0.09468826651573181,
            "17": -0.06026596948504448,
            "18": 0.04720716178417206,
            "19": 0.015161984600126743,
            "20": -0.06479533761739731,
            "21": 0.14891405403614044,
            "22": -0.2682388722896576,
            "23": -0.252604216337204,
            "24": -0.1723940521478653,
            "25": 0.17549340426921844,
            "26": 0.11967973411083221,
            "27": 0.0023473137989640236,
            "28": -0.2576981484889984,
            "29": 0.13153210282325745,
            "30": -0.06710506230592728,
            "31": -0.3249862790107727,
            "32": 0.08949970453977585,
            "33": -0.07274254411458969,
            "34": -0.23709967732429504,
            "35": -0.0013268935726955533,
            "36": 0.04023764654994011,
            "37": -0.11962323635816574,
            "38": -0.057487208396196365,
            "39": 0.09592637419700623,
            "40": -0.25524574518203735,
            "41": -0.13742704689502716,
            "42": -0.07767170667648315,
            "43": -0.0008156468393281102,
            "44": -0.015263672918081284,
            "45": -0.11124059557914734,
            "46": -0.09470035135746002,
            "47": 0.12118200957775116,
            "48": -0.12333666533231735,
            "49": 0.15250302851200104,
            "50": -0.036334361881017685,
            "51": -0.16783112287521362,
            "52": -0.15385952591896057,
            "53": -0.13367493450641632,
            "54": -0.18094080686569214,
            "55": 0.09065476804971695,
            "56": 0.024519439786672592,
            "57": -0.005731607787311077
          }
        },
        "25": {
          "bias": -0.025885825976729393,
          "weights": {
            "0": 0.048403333872556686,
            "1": -0.0781552791595459,
            "2": 0.07538515329360962,
            "3": 0.09769853949546814,
            "4": 0.1491430103778839,
            "5": 0.056038279086351395,
            "6": 0.4176754653453827,
            "7": 0.10774548351764679,
            "8": 0.05018071457743645,
            "9": 0.18361227214336395,
            "10": -0.007899646647274494,
            "11": -0.07814022153615952,
            "12": 0.2261362373828888,
            "13": -0.01745305210351944,
            "14": -0.22029322385787964,
            "15": -0.30276206135749817,
            "16": 0.05687636509537697,
            "17": -0.1755823940038681,
            "18": 0.14968089759349823,
            "19": -0.043371543288230896,
            "20": -0.17057877779006958,
            "21": 0.04628925025463104,
            "22": 0.07588538527488708,
            "23": -0.1755847930908203,
            "24": 0.0937710553407669,
            "25": -0.11664442718029022,
            "26": -0.13110847771167755,
            "27": 0.11238522082567215,
            "28": -0.1521414965391159,
            "29": 0.11978254467248917,
            "30": 0.009302164427936077,
            "31": -0.2663750648498535,
            "32": -0.17120391130447388,
            "33": -0.02117711864411831,
            "34": -0.009111613035202026,
            "35": 0.10544418543577194,
            "36": -0.026210710406303406,
            "37": -0.18445809185504913,
            "38": -0.15963514149188995,
            "39": -0.10119356215000153,
            "40": -0.23519055545330048,
            "41": 0.06569047272205353,
            "42": -0.21859042346477509,
            "43": 0.1709056943655014,
            "44": -0.290249228477478,
            "45": 0.022484418004751205,
            "46": 0.08946658670902252,
            "47": 0.02473602630198002,
            "48": -0.037980616092681885,
            "49": 0.09596884250640869,
            "50": -0.1774650365114212,
            "51": 0.03084254264831543,
            "52": 0.11662506312131882,
            "53": -0.020851561799645424,
            "54": -0.05796229466795921,
            "55": -0.011144365184009075,
            "56": -0.03572918474674225,
            "57": -0.11556664854288101
          }
        },
        "26": {
          "bias": -0.07040397822856903,
          "weights": {
            "0": -0.00047145431744866073,
            "1": -0.2615721523761749,
            "2": 0.0723089799284935,
            "3": 0.16469654440879822,
            "4": 0.1606910079717636,
            "5": 0.06941307336091995,
            "6": 0.119107186794281,
            "7": -0.025697991251945496,
            "8": 0.03699469193816185,
            "9": -0.001042056712321937,
            "10": -0.2792896032333374,
            "11": -0.0072441669180989265,
            "12": 0.21078085899353027,
            "13": -0.2588147521018982,
            "14": 0.23520156741142273,
            "15": 0.2575113773345947,
            "16": 0.06084936484694481,
            "17": 0.12222591042518616,
            "18": -0.02112838253378868,
            "19": -0.16626372933387756,
            "20": 0.09109372645616531,
            "21": -0.16190634667873383,
            "22": 0.3977881371974945,
            "23": -0.28493377566337585,
            "24": 0.34188663959503174,
            "25": 0.15207019448280334,
            "26": 0.012095914222300053,
            "27": 0.11732763051986694,
            "28": 0.0018485136097297072,
            "29": 0.07305299490690231,
            "30": -0.08172140270471573,
            "31": 0.1653861403465271,
            "32": 0.07357090711593628,
            "33": -0.08136080950498581,
            "34": 0.06024891138076782,
            "35": 0.09254497289657593,
            "36": 0.23353876173496246,
            "37": -0.1644718497991562,
            "38": -0.14850854873657227,
            "39": 0.0668441578745842,
            "40": 0.04671497642993927,
            "41": -0.2871442437171936,
            "42": 0.012658567167818546,
            "43": -0.011645282618701458,
            "44": -0.2113528549671173,
            "45": 0.1902092844247818,
            "46": -0.1513323336839676,
            "47": 0.11666624248027802,
            "48": -0.06042160093784332,
            "49": -0.016248082742094994,
            "50": 0.029877731576561928,
            "51": 0.1759302318096161,
            "52": -0.05266214534640312,
            "53": 0.09883789718151093,
            "54": -0.2745992839336395,
            "55": -0.2017347514629364,
            "56": -0.012124134227633476,
            "57": -0.25406214594841003
          }
        },
        "27": {
          "bias": 0.0005551973590627313,
          "weights": {
            "0": 0.09821200370788574,
            "1": 0.15644662082195282,
            "2": 0.12616726756095886,
            "3": 0.3678401708602905,
            "4": 0.12134887278079987,
            "5": 0.16248643398284912,
            "6": 0.21332977712154388,
            "7": -0.01330526452511549,
            "8": -0.09937284886837006,
            "9": -0.0751526802778244,
            "10": 0.24448177218437195,
            "11": -0.05392277240753174,
            "12": -0.11989335715770721,
            "13": 0.3327561318874359,
            "14": -0.43927356600761414,
            "15": -0.4252038598060608,
            "16": 0.1550411731004715,
            "17": -0.5212932229042053,
            "18": -0.0009236489422619343,
            "19": -0.10517285019159317,
            "20": 0.11883347481489182,
            "21": -0.0931471511721611,
            "22": -0.5264987945556641,
            "23": 0.13635675609111786,
            "24": -0.27127209305763245,
            "25": -0.11889829486608505,
            "26": 0.07686454802751541,
            "27": -0.12306720018386841,
            "28": -0.24749137461185455,
            "29": -0.20506936311721802,
            "30": -0.0904160812497139,
            "31": -0.16432473063468933,
            "32": -0.2874722480773926,
            "33": -0.2223292887210846,
            "34": -0.16505150496959686,
            "35": -0.04162019118666649,
            "36": -0.08859620243310928,
            "37": -0.09134642779827118,
            "38": 0.011550205759704113,
            "39": 0.1499291956424713,
            "40": -0.08630222082138062,
            "41": 0.1670796275138855,
            "42": 0.17999379336833954,
            "43": 0.09944113343954086,
            "44": 0.15297818183898926,
            "45": -0.1862436681985855,
            "46": 0.2549830973148346,
            "47": -0.060680240392684937,
            "48": -0.006039119325578213,
            "49": -0.005294365342706442,
            "50": 0.2533649206161499,
            "51": -0.053271494805812836,
            "52": 0.277573823928833,
            "53": 0.18136964738368988,
            "54": 0.24670127034187317,
            "55": -0.013035864569246769,
            "56": 0.18488682806491852,
            "57": 0.1453363299369812
          }
        },
        "28": {
          "bias": -0.16672106087207794,
          "weights": {
            "0": -0.06166566535830498,
            "1": 0.006901150569319725,
            "2": 0.018912894651293755,
            "3": 0.8368682861328125,
            "4": -0.05267173796892166,
            "5": 0.2325485646724701,
            "6": 0.7392838597297668,
            "7": -0.04764435440301895,
            "8": 0.26889997720718384,
            "9": 0.08572928607463837,
            "10": 0.06318898499011993,
            "11": 0.09255021065473557,
            "12": 0.3707328140735626,
            "13": -0.356650173664093,
            "14": -0.17552442848682404,
            "15": -0.3464113473892212,
            "16": 0.05111841484904289,
            "17": -0.479754775762558,
            "18": 0.18700553476810455,
            "19": 0.057886429131031036,
            "20": -0.14136742055416107,
            "21": 0.08786259591579437,
            "22": -0.3533424735069275,
            "23": -0.38640570640563965,
            "24": -0.20336218178272247,
            "25": 0.14623509347438812,
            "26": 0.017466839402914047,
            "27": 0.15945900976657867,
            "28": 0.04398844391107559,
            "29": -0.2231522500514984,
            "30": -0.20022891461849213,
            "31": -0.3053835332393646,
            "32": -0.2737814486026764,
            "33": -0.17638623714447021,
            "34": -0.15146727859973907,
            "35": 0.01911209709942341,
            "36": -0.27380192279815674,
            "37": 0.13213926553726196,
            "38": -0.1598687767982483,
            "39": 0.03990565985441208,
            "40": -0.1835312843322754,
            "41": -0.025452962145209312,
            "42": -0.32056793570518494,
            "43": 0.055073708295822144,
            "44": -0.23266777396202087,
            "45": -0.16538329422473907,
            "46": -0.3295254707336426,
            "47": 0.06435515731573105,
            "48": -0.0170721635222435,
            "49": 0.17219065129756927,
            "50": 0.018692761659622192,
            "51": -0.15089815855026245,
            "52": -0.16270872950553894,
            "53": -0.050630711019039154,
            "54": -0.05825664848089218,
            "55": -0.17183762788772583,
            "56": -0.1242203339934349,
            "57": -0.15986976027488708
          }
        }
      },
      {
        "Education": {
          "bias": -0.2630293667316437,
          "weights": {
            "0": -0.7888293266296387,
            "1": -0.23425225913524628,
            "2": -0.1467019021511078,
            "3": 0.5569016933441162,
            "4": -0.5513949394226074,
            "5": -0.648142397403717,
            "6": -0.5618933439254761,
            "7": -0.41413676738739014,
            "8": -1.1331243515014648,
            "9": -0.2994867265224457,
            "10": 1.1029704809188843,
            "11": 0.6025264263153076,
            "12": -1.336435317993164,
            "13": -0.9721162915229797,
            "14": -0.13485033810138702,
            "15": -0.28188270330429077,
            "16": 0.2388698160648346,
            "17": 1.3298965692520142,
            "18": -1.3603638410568237,
            "19": -0.41666996479034424,
            "20": 1.0442053079605103,
            "21": -0.07487256824970245,
            "22": 0.8696356415748596,
            "23": 0.4885459840297699,
            "24": 0.6684808135032654,
            "25": 0.4636404514312744,
            "26": 0.018116729333996773,
            "27": 0.22851678729057312,
            "28": 1.38264799118042
          }
        },
        "Construction": {
          "bias": -0.276673823595047,
          "weights": {
            "0": -0.2614433169364929,
            "1": 0.7921410202980042,
            "2": 1.00257408618927,
            "3": -0.9387030005455017,
            "4": -0.61825031042099,
            "5": 0.293977290391922,
            "6": 0.0007923144730739295,
            "7": 0.009353032335639,
            "8": -0.019116410985589027,
            "9": 0.47198590636253357,
            "10": -1.162630558013916,
            "11": 0.15229882299900055,
            "12": 1.9957082271575928,
            "13": 0.395445853471756,
            "14": 0.22730007767677307,
            "15": 1.2196249961853027,
            "16": 0.6650954484939575,
            "17": -0.014372997917234898,
            "18": 0.30957141518592834,
            "19": -1.090678095817566,
            "20": -0.745143711566925,
            "21": -0.5350520014762878,
            "22": -0.36070844531059265,
            "23": -0.5761805772781372,
            "24": -0.3478524088859558,
            "25": -0.30726292729377747,
            "26": 0.40461286902427673,
            "27": -1.302195429801941,
            "28": -0.7308041453361511
          }
        },
        "Management": {
          "bias": -0.043178312480449677,
          "weights": {
            "0": 0.9321539998054504,
            "1": -0.6719338297843933,
            "2": -1.1056101322174072,
            "3": 0.32624512910842896,
            "4": 0.9179036021232605,
            "5": 0.3625091016292572,
            "6": 0.4996263086795807,
            "7": 0.40582704544067383,
            "8": 0.939552366733551,
            "9": -0.2094360888004303,
            "10": -0.08532239496707916,
            "11": -0.7953604459762573,
            "12": -0.7969870567321777,
            "13": 0.2942899167537689,
            "14": -0.22095723450183868,
            "15": -1.1266634464263916,
            "16": -1.24308443069458,
            "17": -1.469187617301941,
            "18": 0.6407886743545532,
            "19": 1.2682315111160278,
            "20": -0.503628134727478,
            "21": 0.35759031772613525,
            "22": -0.966342568397522,
            "23": -0.02403194084763527,
            "24": -0.49884817004203796,
            "25": -0.309489369392395,
            "26": -0.7952619791030884,
            "27": 0.5071806311607361,
            "28": -0.5667238831520081
          }
        }
      }
    ],
    "outputLookup": true,
    "inputLookup": false,
    "activation": "sigmoid",
    "trainOpts": {
      "iterations": 300,
      "errorThresh": 0.005,
      "log": true,
      "logPeriod": 10,
      "learningRate": 0.3,
      "momentum": 0.1,
      "callbackPeriod": 10,
      "beta1": 0.9,
      "beta2": 0.999,
      "epsilon": 1e-8
    }
  },
  "dictionary": [
    {
        "stem": "to",
        "count": 7
    },
    {
        "stem": "a",
        "count": 6
    },
    {
        "stem": "i",
        "count": 4
    },
    {
        "stem": "the",
        "count": 4
    },
    {
        "stem": "am",
        "count": 3
    },
    {
        "stem": "manag",
        "count": 3
    },
    {
        "stem": "classroom",
        "count": 2
    },
    {
        "stem": "in",
        "count": 2
    },
    {
        "stem": "of",
        "count": 2
    },
    {
        "stem": "by",
        "count": 2
    },
    {
        "stem": "teacher",
        "count": 1
    },
    {
        "stem": "teach",
        "count": 1
    },
    {
        "stem": "math",
        "count": 1
    },
    {
        "stem": "give",
        "count": 1
    },
    {
        "stem": "knowledg",
        "count": 1
    },
    {
        "stem": "younger",
        "count": 1
    },
    {
        "stem": "children",
        "count": 1
    },
    {
        "stem": "builder",
        "count": 1
    },
    {
        "stem": "that",
        "count": 1
    },
    {
        "stem": "creat",
        "count": 1
    },
    {
        "stem": "tall",
        "count": 1
    },
    {
        "stem": "structur",
        "count": 1
    },
    {
        "stem": "carpent",
        "count": 1
    },
    {
        "stem": "make",
        "count": 1
    },
    {
        "stem": "furnatur",
        "count": 1
    },
    {
        "stem": "out",
        "count": 1
    },
    {
        "stem": "wood",
        "count": 1
    },
    {
        "stem": "all",
        "count": 1
    },
    {
        "stem": "electr",
        "count": 1
    },
    {
        "stem": "work",
        "count": 1
    },
    {
        "stem": "must",
        "count": 1
    },
    {
        "stem": "be",
        "count": 1
    },
    {
        "stem": "done",
        "count": 1
    },
    {
        "stem": "an",
        "count": 1
    },
    {
        "stem": "electrician",
        "count": 1
    },
    {
        "stem": "on",
        "count": 1
    },
    {
        "stem": "construct",
        "count": 1
    },
    {
        "stem": "site",
        "count": 1
    },
    {
        "stem": "subwai",
        "count": 1
    },
    {
        "stem": "eastwood",
        "count": 1
    },
    {
        "stem": "team",
        "count": 1
    },
    {
        "stem": "would",
        "count": 1
    },
    {
        "stem": "like",
        "count": 1
    },
    {
        "stem": "invit",
        "count": 1
    },
    {
        "stem": "you",
        "count": 1
    },
    {
        "stem": "christman",
        "count": 1
    },
    {
        "stem": "lunch",
        "count": 1
    },
    {
        "stem": "is",
        "count": 1
    },
    {
        "stem": "lead",
        "count": 1
    },
    {
        "stem": "exampl",
        "count": 1
    },
    {
        "stem": "and",
        "count": 1
    },
    {
        "stem": "demonstr",
        "count": 1
    },
    {
        "stem": "your",
        "count": 1
    },
    {
        "stem": "worker",
        "count": 1
    },
    {
        "stem": "how",
        "count": 1
    },
    {
        "stem": "do",
        "count": 1
    },
    {
        "stem": "their",
        "count": 1
    },
    {
        "stem": "job",
        "count": 1
    }
],
  "blacklist": ["i", "string"],
  "history": [
    {"input": "I am a teacher", "output": "Education"},
    {"input": "teaching the classroom maths", "output": "Education"},
    {"input": "I give knowledge to younger children in a classroom", "output": "Education"},
    {"input": "I am a builder that creates tall structures", "output": "Construction"},
    {"input": "A carpenter makes furnature out of wood", "output": "Construction"},
    {"input": "All electrical works must be done by an electrician on the construction site", "output": "Construction"},
    {"input": "I am a manager of a Subway in Eastwood", "output": "Management"},
    {"input": "The management team would like to invite you to the Christmans lunch", "output": "Management"},
    {"input": "To manage is to lead by example and demonstrate to your workers how to do their job", "output": "Management"}
  ]
}