{
    "type": "LSTM",
    "options": {
        "inputSize": 20,
        "inputRange": 20,
        "hiddenLayers": [
            20,
            20
        ],
        "outputSize": 20,
        "decayRate": 0.999,
        "smoothEps": 1e-8,
        "regc": 0.000001,
        "clipval": 5,
        "maxPredictionLength": 100,
        "dataFormatter": null
    },
    "input": {
        "rows": 21,
        "columns": 20,
        "weights": {
            "0": 0.030901983380317688,
            "1": -0.055849649012088776,
            "2": 0.011660060845315456,
            "3": -0.034031085669994354,
            "4": -0.0751470997929573,
            "5": -0.039495620876550674,
            "6": 0.04542968049645424,
            "7": 0.047633614391088486,
            "8": -0.07869011163711548,
            "9": 0.07092947512865067,
            "10": 0.0536017082631588,
            "11": -0.050151996314525604,
            "12": -0.0124121168628335,
            "13": 0.05051831528544426,
            "14": -0.047499626874923706,
            "15": 0.07813704013824463,
            "16": 0.013256022706627846,
            "17": 0.07780419290065765,
            "18": -0.03119453229010105,
            "19": -0.014489958994090557,
            "20": 0.07938310503959656,
            "21": -0.06120621785521507,
            "22": -0.0575147308409214,
            "23": 0.010776436887681484,
            "24": -0.04338265210390091,
            "25": 0.035165559500455856,
            "26": -0.027483103796839714,
            "27": -0.07528923451900482,
            "28": 0.023164348676800728,
            "29": -0.05086047202348709,
            "30": 0.06155567988753319,
            "31": 0.05320432782173157,
            "32": -0.047416381537914276,
            "33": 0.0707106813788414,
            "34": 0.03321587294340134,
            "35": -0.07692799717187881,
            "36": 0.03466804698109627,
            "37": 0.07578043639659882,
            "38": -0.05408139526844025,
            "39": 0.046155720949172974,
            "40": 0.07685422897338867,
            "41": 0.03498547524213791,
            "42": 0.016806866973638535,
            "43": 0.06480719894170761,
            "44": 0.039705634117126465,
            "45": -0.031173303723335266,
            "46": 0.032308049499988556,
            "47": -0.02251465432345867,
            "48": 0.05616941675543785,
            "49": -0.01453426480293274,
            "50": 0.02089519612491131,
            "51": -0.030778570100665092,
            "52": 0.042530521750450134,
            "53": -0.0631619319319725,
            "54": -0.06887594610452652,
            "55": 0.05578351765871048,
            "56": 0.06501258909702301,
            "57": 0.06936571002006531,
            "58": -0.070599764585495,
            "59": 0.01314553152769804,
            "60": 0.03755182400345802,
            "61": -0.06588296592235565,
            "62": -0.01853584684431553,
            "63": -0.02953408844769001,
            "64": -0.0731133371591568,
            "65": -0.007953884080052376,
            "66": -0.03456517681479454,
            "67": 0.052628763020038605,
            "68": 0.04002401977777481,
            "69": -0.05107030272483826,
            "70": -0.02761545591056347,
            "71": 0.06482917070388794,
            "72": 0.023886414244771004,
            "73": -0.07245396822690964,
            "74": 0.012230324558913708,
            "75": -0.036678869277238846,
            "76": 0.008113982155919075,
            "77": -0.03126315027475357,
            "78": -0.06667601317167282,
            "79": -0.06023028865456581,
            "80": 0.03692222014069557,
            "81": 0.07374578714370728,
            "82": -0.04512438923120499,
            "83": 0.015432269312441349,
            "84": 0.004685938823968172,
            "85": -0.07364362478256226,
            "86": 0.06357308477163315,
            "87": 0.047213900834321976,
            "88": 0.0640363097190857,
            "89": 0.01473292801529169,
            "90": 0.03231731057167053,
            "91": 0.0786648690700531,
            "92": -0.054839394986629486,
            "93": 0.03758898749947548,
            "94": 0.028866982087492943,
            "95": 0.046358391642570496,
            "96": -0.06824063509702682,
            "97": -0.06668001413345337,
            "98": 0.05418824777007103,
            "99": 0.02012690342962742,
            "100": -0.006918277591466904,
            "101": -0.01960217021405697,
            "102": -0.05379312112927437,
            "103": -0.0039937556721270084,
            "104": -0.07611788809299469,
            "105": 0.026277290657162666,
            "106": 0.001181968254968524,
            "107": -0.06993968784809113,
            "108": 0.06459738314151764,
            "109": -0.0010861485498026013,
            "110": -0.0074317567050457,
            "111": 0.034255024045705795,
            "112": -0.06280777603387833,
            "113": -0.02818889543414116,
            "114": 0.007251124829053879,
            "115": 0.05845258757472038,
            "116": 0.000718800351023674,
            "117": -0.07470965385437012,
            "118": -0.0681052878499031,
            "119": -0.06238176301121712,
            "120": 0.042779117822647095,
            "121": 0.028308838605880737,
            "122": -0.07953120768070221,
            "123": -0.05486615002155304,
            "124": 0.004875043407082558,
            "125": 0.042747676372528076,
            "126": -0.0609777569770813,
            "127": -0.030874470248818398,
            "128": 0.07307859510183334,
            "129": 0.07810275256633759,
            "130": -0.016320640221238136,
            "131": 0.06216401234269142,
            "132": 0.010745221748948097,
            "133": 0.01571142114698887,
            "134": 0.059160247445106506,
            "135": -0.06547675281763077,
            "136": -0.0023966652806848288,
            "137": -0.002189462771639228,
            "138": 0.07421678304672241,
            "139": -0.0021106344647705555,
            "140": 0.008394909091293812,
            "141": 0.002184285083785653,
            "142": -0.0761025995016098,
            "143": -0.06459853053092957,
            "144": -0.02672681212425232,
            "145": 0.02330688387155533,
            "146": -0.06818640232086182,
            "147": -0.06350371241569519,
            "148": -0.029146969318389893,
            "149": -0.0006852681981399655,
            "150": 0.04116186127066612,
            "151": 0.02453954890370369,
            "152": -0.07985970377922058,
            "153": -0.030506670475006104,
            "154": -0.032392654567956924,
            "155": 0.026613857597112656,
            "156": 0.03979296237230301,
            "157": -0.013308820314705372,
            "158": -0.017279725521802902,
            "159": 0.011615307070314884,
            "160": -0.007426919881254435,
            "161": 0.043975815176963806,
            "162": -0.03021761029958725,
            "163": -0.056232307106256485,
            "164": 0.057363007217645645,
            "165": 0.004314660560339689,
            "166": 0.028599813580513,
            "167": -0.017804350703954697,
            "168": 0.06274044513702393,
            "169": -0.03878140076994896,
            "170": -0.03996744379401207,
            "171": -0.05481838062405586,
            "172": 0.05374373868107796,
            "173": -0.053296949714422226,
            "174": 0.03665560111403465,
            "175": -0.017367001622915268,
            "176": 0.002587496768683195,
            "177": 0.0598616823554039,
            "178": -0.009558884426951408,
            "179": -0.043044764548540115,
            "180": -0.01620221696794033,
            "181": 0.0501430444419384,
            "182": 0.043034426867961884,
            "183": -0.03198113664984703,
            "184": -0.0477847158908844,
            "185": 0.047305501997470856,
            "186": 0.015202701091766357,
            "187": -0.05371697619557381,
            "188": 0.032716959714889526,
            "189": -0.039377957582473755,
            "190": -0.007500447798520327,
            "191": -0.06270001828670502,
            "192": 0.07263655215501785,
            "193": -0.0503254309296608,
            "194": 0.07599876821041107,
            "195": -0.014226975850760937,
            "196": 0.011588593013584614,
            "197": 0.023472869768738747,
            "198": 0.034364137798547745,
            "199": 0.056753020733594894,
            "200": 0.06168875843286514,
            "201": -0.07981382310390472,
            "202": -0.04517168179154396,
            "203": 0.06310184299945831,
            "204": -0.00290972413495183,
            "205": 0.00022756814723834395,
            "206": 0.031753066927194595,
            "207": 0.036272402852773666,
            "208": 0.006991167552769184,
            "209": 0.05328008532524109,
            "210": -0.0011056113289669156,
            "211": -0.04434834420681,
            "212": 0.011491181328892708,
            "213": -0.034341853111982346,
            "214": 0.033194493502378464,
            "215": -0.021743781864643097,
            "216": 0.04086128622293472,
            "217": -0.07526928931474686,
            "218": 0.008045869879424572,
            "219": -0.02921539545059204,
            "220": -0.04088009148836136,
            "221": 0.012553462758660316,
            "222": 0.040104225277900696,
            "223": 0.0021012085489928722,
            "224": 0.05208192020654678,
            "225": -0.018165679648518562,
            "226": 0.0004032362485304475,
            "227": -0.07864297926425934,
            "228": 0.015668947249650955,
            "229": -0.06454852223396301,
            "230": -0.07741818577051163,
            "231": 0.06527919322252274,
            "232": 0.026963621377944946,
            "233": 0.049043264240026474,
            "234": 0.07155375927686691,
            "235": -0.04967523366212845,
            "236": -0.016028182581067085,
            "237": 0.03675506263971329,
            "238": 0.019896721467375755,
            "239": 0.028040209785103798,
            "240": -0.0019405115162953734,
            "241": -0.008347785100340843,
            "242": -0.010684196837246418,
            "243": -0.0054698484018445015,
            "244": 0.047116465866565704,
            "245": 0.01869911514222622,
            "246": -0.06652623414993286,
            "247": 0.01353441458195448,
            "248": -0.0711284726858139,
            "249": 0.05371475964784622,
            "250": 0.03682947903871536,
            "251": 0.0025039848405867815,
            "252": -0.04025455564260483,
            "253": -0.036076124757528305,
            "254": -0.03953065350651741,
            "255": 0.004315233323723078,
            "256": -0.02718178555369377,
            "257": -0.04449223354458809,
            "258": -0.0015044580213725567,
            "259": 0.06584588438272476,
            "260": -0.060235507786273956,
            "261": 0.06366617232561111,
            "262": 0.04740963503718376,
            "263": -0.0025970395654439926,
            "264": 0.07644892483949661,
            "265": -0.058452192693948746,
            "266": 0.019326157867908478,
            "267": -0.004804997239261866,
            "268": 0.00840435829013586,
            "269": 0.0631323829293251,
            "270": -0.06461377441883087,
            "271": -0.06425615400075912,
            "272": 0.0768292248249054,
            "273": 0.07876396179199219,
            "274": -0.005504370667040348,
            "275": -0.07961218804121017,
            "276": 0.0021483793389052153,
            "277": 0.016872331500053406,
            "278": 0.05542899668216705,
            "279": -0.019737545400857925,
            "280": 0.04549408704042435,
            "281": 0.04913754388689995,
            "282": -0.03101067990064621,
            "283": -0.06477990001440048,
            "284": -0.032224997878074646,
            "285": -0.05770310387015343,
            "286": -0.07681088894605637,
            "287": 0.025446692481637,
            "288": -0.04581291973590851,
            "289": 0.06623560935258865,
            "290": -0.025937795639038086,
            "291": 0.029883157461881638,
            "292": -0.050927452743053436,
            "293": -0.06664957851171494,
            "294": -0.07346118241548538,
            "295": 0.026044592261314392,
            "296": -0.06742588430643082,
            "297": 0.04145680367946625,
            "298": 0.02675786055624485,
            "299": 0.07949206233024597,
            "300": 0.036256272345781326,
            "301": 0.025937460362911224,
            "302": 0.038667138665914536,
            "303": -0.0010807148646563292,
            "304": 0.022153938189148903,
            "305": -0.04530630260705948,
            "306": -0.010912437923252583,
            "307": -0.0778626948595047,
            "308": 0.07781144231557846,
            "309": 0.06360265612602234,
            "310": 0.07998382300138474,
            "311": 0.06627553701400757,
            "312": -0.03970900923013687,
            "313": 0.011367782950401306,
            "314": -0.016014620661735535,
            "315": 0.008678693324327469,
            "316": 0.06518913060426712,
            "317": -0.06111662834882736,
            "318": -0.07373950630426407,
            "319": 0.04509923607110977,
            "320": -0.07260669767856598,
            "321": 0.019954048097133636,
            "322": -0.0764055922627449,
            "323": 0.026990683749318123,
            "324": -0.0027076180558651686,
            "325": 0.06134527549147606,
            "326": -0.005055085755884647,
            "327": -0.053116537630558014,
            "328": 0.07794596999883652,
            "329": -0.03685519099235535,
            "330": 0.07092762738466263,
            "331": -0.014410804025828838,
            "332": 0.05520876497030258,
            "333": -0.026982098817825317,
            "334": -0.04157494008541107,
            "335": -0.04648042097687721,
            "336": -0.07864915579557419,
            "337": 0.07128211855888367,
            "338": 0.076408751308918,
            "339": 0.060995787382125854,
            "340": 0.016711492091417313,
            "341": -0.03201732039451599,
            "342": 0.07423213869333267,
            "343": -0.06290638446807861,
            "344": 0.07908134907484055,
            "345": 0.062075767666101456,
            "346": 0.02769278921186924,
            "347": -0.057199086993932724,
            "348": -0.026081811636686325,
            "349": -0.007277507334947586,
            "350": -0.04866466298699379,
            "351": -0.016746975481510162,
            "352": 0.05628110095858574,
            "353": -0.07793717086315155,
            "354": 0.038729216903448105,
            "355": 0.03180217742919922,
            "356": 0.06304670125246048,
            "357": 0.05893424153327942,
            "358": -0.01012175902724266,
            "359": -0.06297995150089264,
            "360": 0.042833857238292694,
            "361": -0.07829906791448593,
            "362": -0.06986740231513977,
            "363": 0.06741885840892792,
            "364": -0.012257431633770466,
            "365": 0.03835306689143181,
            "366": -0.040087681263685226,
            "367": 0.06761528551578522,
            "368": -0.0001828637468861416,
            "369": -0.06192621961236,
            "370": -0.01722528412938118,
            "371": -0.01922919973731041,
            "372": 0.012633124366402626,
            "373": -0.006138868164271116,
            "374": -0.04872202128171921,
            "375": -0.017581593245267868,
            "376": -0.06822482496500015,
            "377": -0.06475751101970673,
            "378": -0.04121623560786247,
            "379": -0.048870980739593506,
            "380": 0.06753965467214584,
            "381": 0.06100969761610031,
            "382": -0.05211269110441208,
            "383": 0.07439352571964264,
            "384": -0.007433932274580002,
            "385": -0.0031079447362571955,
            "386": 0.021977819502353668,
            "387": 0.0631013736128807,
            "388": 0.07243451476097107,
            "389": -0.008247310295701027,
            "390": 0.06495039910078049,
            "391": -0.007950631901621819,
            "392": 0.03284114971756935,
            "393": 0.06715340167284012,
            "394": -0.022978801280260086,
            "395": -0.0647037923336029,
            "396": 0.028385905548930168,
            "397": 0.024763567373156548,
            "398": -0.0775456428527832,
            "399": 0.0418362133204937,
            "400": -0.058390505611896515,
            "401": -0.026339441537857056,
            "402": -0.005871066823601723,
            "403": -0.058098677545785904,
            "404": -0.0482119657099247,
            "405": -0.024512628093361855,
            "406": -0.006325338035821915,
            "407": 0.06145431101322174,
            "408": -0.04902823269367218,
            "409": 0.0032054774928838015,
            "410": 0.02883039601147175,
            "411": -0.05790727585554123,
            "412": -0.02782486192882061,
            "413": -0.013271444477140903,
            "414": -0.077265165746212,
            "415": -0.06052863225340843,
            "416": 0.07371484488248825,
            "417": 0.04462183266878128,
            "418": -0.04781780391931534,
            "419": 0.07538536190986633
        }
    },
    "hiddenLayers": [
        {
            "inputMatrix": {
                "rows": 20,
                "columns": 20,
                "weights": {
                    "0": -0.015729930251836777,
                    "1": -0.03944719582796097,
                    "2": -0.04358857870101929,
                    "3": 0.01905732974410057,
                    "4": -0.06228354200720787,
                    "5": 0.006322289351373911,
                    "6": 0.07331791520118713,
                    "7": -0.027684399858117104,
                    "8": 0.051792535930871964,
                    "9": -0.06791378557682037,
                    "10": 0.061082422733306885,
                    "11": -0.022769132629036903,
                    "12": 0.03907253220677376,
                    "13": 0.030446574091911316,
                    "14": -0.05999923497438431,
                    "15": -0.07792183756828308,
                    "16": -0.037344351410865784,
                    "17": -0.011503178626298904,
                    "18": 0.033583786338567734,
                    "19": -0.029834508895874023,
                    "20": 0.015953149646520615,
                    "21": -0.003022523829713464,
                    "22": 0.023484941571950912,
                    "23": 0.004530035890638828,
                    "24": 0.06992839276790619,
                    "25": 0.00834954995661974,
                    "26": 0.012604732066392899,
                    "27": -0.026765111833810806,
                    "28": 0.025427356362342834,
                    "29": 0.04706032946705818,
                    "30": 0.029667049646377563,
                    "31": 0.05502389371395111,
                    "32": 0.05729750916361809,
                    "33": -0.03024360164999962,
                    "34": -0.06039408594369888,
                    "35": -0.04847661405801773,
                    "36": -0.05100646987557411,
                    "37": 0.0017406581901013851,
                    "38": -0.07738137245178223,
                    "39": 0.036144547164440155,
                    "40": -0.0044440315105021,
                    "41": -0.025825489312410355,
                    "42": -0.06858979910612106,
                    "43": -0.022782590240240097,
                    "44": 0.03188923001289368,
                    "45": -0.03610716387629509,
                    "46": 0.07043027877807617,
                    "47": 0.04784264415502548,
                    "48": 0.060359321534633636,
                    "49": 0.04625474661588669,
                    "50": 0.009474365971982479,
                    "51": -0.06593915075063705,
                    "52": -0.07406464219093323,
                    "53": -0.0765145868062973,
                    "54": 0.05903508886694908,
                    "55": -0.029309434816241264,
                    "56": -0.07966635376214981,
                    "57": -0.019924046471714973,
                    "58": 0.003318136092275381,
                    "59": 0.05192999169230461,
                    "60": -0.020188255235552788,
                    "61": -0.007083511911332607,
                    "62": 0.0025715003721415997,
                    "63": 0.06275121867656708,
                    "64": -0.042280420660972595,
                    "65": -0.058994024991989136,
                    "66": -0.061652202159166336,
                    "67": -0.011207002215087414,
                    "68": -0.04936235025525093,
                    "69": 0.053500548005104065,
                    "70": 0.061487503349781036,
                    "71": 0.07289633899927139,
                    "72": 0.02385798841714859,
                    "73": -0.010989146307110786,
                    "74": 0.06338293105363846,
                    "75": -0.07228373736143112,
                    "76": -0.03854452818632126,
                    "77": 0.029179207980632782,
                    "78": -0.015629548579454422,
                    "79": 0.020583655685186386,
                    "80": 0.0732022151350975,
                    "81": -0.0020365111995488405,
                    "82": -0.005876350682228804,
                    "83": -0.06846639513969421,
                    "84": -0.033557258546352386,
                    "85": 0.03257308900356293,
                    "86": -0.02432856336236,
                    "87": -0.004852283746004105,
                    "88": 0.010241140611469746,
                    "89": 0.030791517347097397,
                    "90": 0.011935208924114704,
                    "91": -0.04095609486103058,
                    "92": -0.03170721232891083,
                    "93": -0.035648517310619354,
                    "94": -0.06605318188667297,
                    "95": -0.055253706872463226,
                    "96": -0.07179109007120132,
                    "97": -0.006083767861127853,
                    "98": 0.06943337619304657,
                    "99": -0.009337503463029861,
                    "100": 0.010752183385193348,
                    "101": 0.06881348043680191,
                    "102": -0.005726680159568787,
                    "103": 0.02591627463698387,
                    "104": -0.01660929247736931,
                    "105": -0.05551130324602127,
                    "106": 0.06895469129085541,
                    "107": 0.05208011716604233,
                    "108": 0.00852034892886877,
                    "109": -0.0008252119878306985,
                    "110": -0.042339157313108444,
                    "111": -0.02410133183002472,
                    "112": -0.03131730854511261,
                    "113": 0.06481076776981354,
                    "114": 0.05258427560329437,
                    "115": -0.04736623540520668,
                    "116": 0.07308702915906906,
                    "117": 0.05897199735045433,
                    "118": 0.07656116038560867,
                    "119": 0.013817152008414268,
                    "120": -0.02700694650411606,
                    "121": 0.025862568989396095,
                    "122": -0.0484367199242115,
                    "123": 0.04208674281835556,
                    "124": 0.05361210182309151,
                    "125": 0.055593524128198624,
                    "126": 0.04500943794846535,
                    "127": -0.07321280986070633,
                    "128": -0.0710625872015953,
                    "129": 0.008844844065606594,
                    "130": 0.05828369781374931,
                    "131": -0.025630339980125427,
                    "132": -0.017078133299946785,
                    "133": -0.05487461015582085,
                    "134": 0.002610336057841778,
                    "135": -0.009289839304983616,
                    "136": 0.020663458853960037,
                    "137": 0.047199804335832596,
                    "138": 0.02368054911494255,
                    "139": -0.05193210020661354,
                    "140": -0.07972903549671173,
                    "141": 0.05105249211192131,
                    "142": 0.0015146508812904358,
                    "143": 0.02649591490626335,
                    "144": 0.02833930030465126,
                    "145": -0.04072337597608566,
                    "146": 0.07028904557228088,
                    "147": 0.05388147383928299,
                    "148": 0.06726285815238953,
                    "149": -0.04890977591276169,
                    "150": -0.06371597945690155,
                    "151": -0.04492952302098274,
                    "152": -0.06185264140367508,
                    "153": -0.07207193225622177,
                    "154": 0.007824337109923363,
                    "155": 0.061869800090789795,
                    "156": 0.017601419240236282,
                    "157": -0.05173651501536369,
                    "158": -0.03521335497498512,
                    "159": -0.06732194125652313,
                    "160": 0.03423387184739113,
                    "161": -0.07027454674243927,
                    "162": 0.06554308533668518,
                    "163": -0.03327744081616402,
                    "164": -0.023456517606973648,
                    "165": -0.06451889127492905,
                    "166": 0.07821887731552124,
                    "167": 0.03514315187931061,
                    "168": -0.052470751106739044,
                    "169": -0.06937796622514725,
                    "170": 0.039577171206474304,
                    "171": 0.025719719007611275,
                    "172": -0.04659690707921982,
                    "173": -0.03802686929702759,
                    "174": -0.02900163270533085,
                    "175": 0.026826051995158195,
                    "176": 0.03936916962265968,
                    "177": -0.05843329802155495,
                    "178": 0.027814410626888275,
                    "179": 0.07478539645671844,
                    "180": 0.017975440248847008,
                    "181": 0.02703631855547428,
                    "182": 0.03116772696375847,
                    "183": -0.05448705330491066,
                    "184": 0.07969986647367477,
                    "185": 0.029414204880595207,
                    "186": -0.002701984951272607,
                    "187": 0.051120415329933167,
                    "188": 0.05390877649188042,
                    "189": 0.07422851771116257,
                    "190": -0.07003436982631683,
                    "191": 0.012772301211953163,
                    "192": -0.07425247877836227,
                    "193": -0.006015988998115063,
                    "194": -0.051976751536130905,
                    "195": -0.07997000962495804,
                    "196": 0.04839279130101204,
                    "197": 0.06972111016511917,
                    "198": 0.026979589834809303,
                    "199": -0.005931926891207695,
                    "200": -0.07076229155063629,
                    "201": -0.016397129744291306,
                    "202": 0.016916560009121895,
                    "203": -0.016525810584425926,
                    "204": -0.0060255140997469425,
                    "205": -0.03496100753545761,
                    "206": 0.04481697082519531,
                    "207": 0.0356619693338871,
                    "208": -0.05615588650107384,
                    "209": 0.018176060169935226,
                    "210": -0.009181579574942589,
                    "211": -0.014420422725379467,
                    "212": 0.02573893964290619,
                    "213": 0.013005758635699749,
                    "214": -0.004533056635409594,
                    "215": 0.05620525777339935,
                    "216": -0.009926188737154007,
                    "217": 0.05356684699654579,
                    "218": 0.013242477551102638,
                    "219": -0.07212573289871216,
                    "220": -0.056937944144010544,
                    "221": 0.06241610273718834,
                    "222": 0.06068599969148636,
                    "223": -0.028960946947336197,
                    "224": -0.008897900581359863,
                    "225": 0.02311856299638748,
                    "226": -0.04977399855852127,
                    "227": 0.05610596388578415,
                    "228": 0.018688706681132317,
                    "229": -0.06091052293777466,
                    "230": 0.07790704071521759,
                    "231": -0.032114092260599136,
                    "232": -0.029725058004260063,
                    "233": -0.037897732108831406,
                    "234": -0.050987180322408676,
                    "235": 0.06438254565000534,
                    "236": 0.040764715522527695,
                    "237": 0.07598554342985153,
                    "238": 0.02600451558828354,
                    "239": 0.06386321783065796,
                    "240": -0.025573786348104477,
                    "241": -0.010094454512000084,
                    "242": 0.07316406071186066,
                    "243": 0.05353632569313049,
                    "244": 0.0011470342287793756,
                    "245": -0.0478307269513607,
                    "246": -0.0663222223520279,
                    "247": 0.029361391440033913,
                    "248": 0.00960659421980381,
                    "249": -0.04114438593387604,
                    "250": 0.029604971408843994,
                    "251": -0.0700371041893959,
                    "252": 0.059777554124593735,
                    "253": 0.04507465660572052,
                    "254": 0.05109307914972305,
                    "255": 0.00032553859637118876,
                    "256": -0.059712231159210205,
                    "257": 0.04984043911099434,
                    "258": 0.053573060780763626,
                    "259": 0.03196730837225914,
                    "260": -0.008028639480471611,
                    "261": -0.04861873760819435,
                    "262": 0.07424231618642807,
                    "263": 0.0061692106537520885,
                    "264": -0.01717735081911087,
                    "265": -0.021831022575497627,
                    "266": -0.0411280058324337,
                    "267": 0.052122071385383606,
                    "268": -0.07903547585010529,
                    "269": -0.04367660731077194,
                    "270": 0.03009423427283764,
                    "271": -0.020887110382318497,
                    "272": -0.003921974450349808,
                    "273": 0.06330443918704987,
                    "274": -0.03875448554754257,
                    "275": -0.03133411705493927,
                    "276": 0.031595684587955475,
                    "277": -0.056173328310251236,
                    "278": 0.007781392894685268,
                    "279": -0.060742784291505814,
                    "280": -0.07109501957893372,
                    "281": 0.024861672893166542,
                    "282": 0.07265051454305649,
                    "283": -0.04247906804084778,
                    "284": 0.052100636065006256,
                    "285": -0.0020092863123863935,
                    "286": -0.010520386509597301,
                    "287": 0.05650819465517998,
                    "288": -0.02297561801970005,
                    "289": 0.031808361411094666,
                    "290": 0.009273841977119446,
                    "291": 0.011923612095415592,
                    "292": 0.05710437521338463,
                    "293": 0.048646003007888794,
                    "294": -0.04982038214802742,
                    "295": 0.03862621635198593,
                    "296": -0.07365979254245758,
                    "297": 0.01833382062613964,
                    "298": -0.030227741226553917,
                    "299": 0.05030708387494087,
                    "300": -0.049786269664764404,
                    "301": -0.03404122218489647,
                    "302": 0.05172261595726013,
                    "303": -0.009668179787695408,
                    "304": 0.04008038341999054,
                    "305": -0.03621799498796463,
                    "306": -0.07722874730825424,
                    "307": 0.07901334017515182,
                    "308": -0.01822933927178383,
                    "309": -0.07147400826215744,
                    "310": 0.06778489053249359,
                    "311": 0.02036377415060997,
                    "312": -0.033179283142089844,
                    "313": 0.06401073187589645,
                    "314": 0.06948229670524597,
                    "315": -0.07067302614450455,
                    "316": 0.06906009465456009,
                    "317": 0.06674350798130035,
                    "318": -0.07198629528284073,
                    "319": 0.02918821945786476,
                    "320": -0.0572441965341568,
                    "321": -0.04706699773669243,
                    "322": -0.07844087481498718,
                    "323": 0.04882797226309776,
                    "324": 0.055830422788858414,
                    "325": -0.01541483961045742,
                    "326": 0.06361876428127289,
                    "327": -0.07835417985916138,
                    "328": -0.0435328334569931,
                    "329": 0.014349282719194889,
                    "330": -0.059525154531002045,
                    "331": -0.07299105077981949,
                    "332": 0.02523842826485634,
                    "333": -0.07929687947034836,
                    "334": 0.028909970074892044,
                    "335": -0.03944713622331619,
                    "336": -0.006761615630239248,
                    "337": -0.0695001557469368,
                    "338": 0.010472087189555168,
                    "339": 0.05418865755200386,
                    "340": -0.009732414036989212,
                    "341": -0.06983398646116257,
                    "342": -0.057303499430418015,
                    "343": -0.07051974534988403,
                    "344": -0.025576982647180557,
                    "345": -0.03710063546895981,
                    "346": -0.031385280191898346,
                    "347": 0.010583984665572643,
                    "348": 0.039850495755672455,
                    "349": -0.05037353187799454,
                    "350": 0.003448411589488387,
                    "351": -0.028148194774985313,
                    "352": -0.04566375911235809,
                    "353": 0.0034210181329399347,
                    "354": -0.06286322325468063,
                    "355": 0.07541905343532562,
                    "356": -0.05928308889269829,
                    "357": 0.07103176414966583,
                    "358": 0.04167984053492546,
                    "359": -0.07914653420448303,
                    "360": 0.004737496841698885,
                    "361": 0.016728118062019348,
                    "362": 0.004462158307433128,
                    "363": -0.05249328166246414,
                    "364": -0.07546089589595795,
                    "365": -0.03836829215288162,
                    "366": -0.06752822548151016,
                    "367": -0.06565801054239273,
                    "368": 0.005210353061556816,
                    "369": -0.04777531325817108,
                    "370": 0.04513373225927353,
                    "371": 0.025401942431926727,
                    "372": 0.05892306938767433,
                    "373": -0.0017081823898479342,
                    "374": 0.06648506969213486,
                    "375": -0.023757118731737137,
                    "376": -0.06275208294391632,
                    "377": 0.06213099882006645,
                    "378": 0.022060515359044075,
                    "379": 0.04366271197795868,
                    "380": -0.057009633630514145,
                    "381": -0.0731716901063919,
                    "382": 0.040956974029541016,
                    "383": 0.018404528498649597,
                    "384": 0.020009728148579597,
                    "385": -0.04424566403031349,
                    "386": 0.014376145787537098,
                    "387": 0.005732462741434574,
                    "388": -0.05829942226409912,
                    "389": -0.04943573847413063,
                    "390": 0.038906529545784,
                    "391": -0.00715751713141799,
                    "392": -0.021403148770332336,
                    "393": -0.04532138630747795,
                    "394": 0.0753229409456253,
                    "395": -0.07495022565126419,
                    "396": 0.010525787249207497,
                    "397": -0.04966975003480911,
                    "398": 0.011629585176706314,
                    "399": -0.040248993784189224
                }
            },
            "inputHidden": {
                "rows": 20,
                "columns": 20,
                "weights": {
                    "0": -0.04893183335661888,
                    "1": -0.07105056941509247,
                    "2": 0.021087544038891792,
                    "3": 0.03423013910651207,
                    "4": 0.019360972568392754,
                    "5": -0.05418369174003601,
                    "6": -0.010999644175171852,
                    "7": -0.07808833569288254,
                    "8": 0.07927130907773972,
                    "9": 0.001195954973809421,
                    "10": -0.042291026562452316,
                    "11": -0.055797431617975235,
                    "12": 0.031139029189944267,
                    "13": 0.050911206752061844,
                    "14": -0.05186089873313904,
                    "15": -0.05427299812436104,
                    "16": -0.036666389554739,
                    "17": -0.07569190114736557,
                    "18": 0.0631215050816536,
                    "19": 0.058576665818691254,
                    "20": -0.033503659069538116,
                    "21": -0.053111616522073746,
                    "22": -0.02501901239156723,
                    "23": 0.07468543201684952,
                    "24": -0.03327900171279907,
                    "25": 0.003645500633865595,
                    "26": -0.03587142005562782,
                    "27": 0.02018336020410061,
                    "28": -0.059482332319021225,
                    "29": 0.025273974984884262,
                    "30": -0.0375683456659317,
                    "31": 0.07719440758228302,
                    "32": -0.03892438858747482,
                    "33": -0.050864286720752716,
                    "34": 0.038078706711530685,
                    "35": -0.0035100001841783524,
                    "36": -0.07132560759782791,
                    "37": -0.04802520200610161,
                    "38": -0.05958976596593857,
                    "39": -0.04723542928695679,
                    "40": 0.04463409259915352,
                    "41": -0.05466291680932045,
                    "42": -0.018759354948997498,
                    "43": -0.003050819505006075,
                    "44": 0.017425261437892914,
                    "45": -0.07929739356040955,
                    "46": 0.07216658443212509,
                    "47": 0.05477665364742279,
                    "48": -0.07065053284168243,
                    "49": 0.05805074796080589,
                    "50": -0.028761357069015503,
                    "51": -0.07362274825572968,
                    "52": 0.03317239508032799,
                    "53": -0.0152269396930933,
                    "54": -0.05862363800406456,
                    "55": -0.07678256183862686,
                    "56": 0.030345316976308823,
                    "57": -0.05589470639824867,
                    "58": -0.01106931734830141,
                    "59": -0.028035219758749008,
                    "60": -0.036199331283569336,
                    "61": 0.028491778299212456,
                    "62": 0.008057830855250359,
                    "63": -0.07969097048044205,
                    "64": -0.004024677909910679,
                    "65": 0.07092583924531937,
                    "66": -0.029208453372120857,
                    "67": -0.06599996984004974,
                    "68": -0.0003695446066558361,
                    "69": -0.017857952043414116,
                    "70": 0.016524648293852806,
                    "71": 0.02039107121527195,
                    "72": -0.01678031124174595,
                    "73": -0.025478791445493698,
                    "74": 0.020896730944514275,
                    "75": 0.037110336124897,
                    "76": -0.03471173346042633,
                    "77": 0.0025262897834181786,
                    "78": -0.05151060223579407,
                    "79": -0.0015127977821975946,
                    "80": 0.01804961822926998,
                    "81": -0.04555637761950493,
                    "82": -0.03305326774716377,
                    "83": -0.048279643058776855,
                    "84": 0.017842596396803856,
                    "85": -0.04478888213634491,
                    "86": -0.03733179345726967,
                    "87": 0.06800364702939987,
                    "88": 0.04284027963876724,
                    "89": -0.024288073182106018,
                    "90": 0.07216620445251465,
                    "91": 0.07551571726799011,
                    "92": -0.034931693226099014,
                    "93": 0.07626225054264069,
                    "94": 0.06324844807386398,
                    "95": -0.025421729311347008,
                    "96": -0.05699269101023674,
                    "97": -0.04233811795711517,
                    "98": -0.07781005650758743,
                    "99": -0.06913554668426514,
                    "100": -0.016555586829781532,
                    "101": -0.006145381834357977,
                    "102": 0.0693066194653511,
                    "103": 0.01317602302879095,
                    "104": -0.033070046454668045,
                    "105": 0.005656515713781118,
                    "106": -0.015348116867244244,
                    "107": 0.05020548403263092,
                    "108": -0.029020311310887337,
                    "109": -0.025829242542386055,
                    "110": -0.03953424096107483,
                    "111": 0.03188815340399742,
                    "112": -0.025326373055577278,
                    "113": 0.05612659826874733,
                    "114": 0.013541585765779018,
                    "115": -0.05587151646614075,
                    "116": -0.03502693399786949,
                    "117": 0.013483943417668343,
                    "118": 0.025342874228954315,
                    "119": -0.06890407204627991,
                    "120": -0.04628186300396919,
                    "121": -0.027599535882472992,
                    "122": 0.07088414579629898,
                    "123": 0.06384889781475067,
                    "124": -0.04549224674701691,
                    "125": 0.03211872652173042,
                    "126": 0.034396957606077194,
                    "127": 0.0451936312019825,
                    "128": 0.03436786308884621,
                    "129": -0.019228780642151833,
                    "130": -0.07179275900125504,
                    "131": 0.010896282270550728,
                    "132": -0.052663885056972504,
                    "133": 0.057582348585128784,
                    "134": -0.07344061136245728,
                    "135": -0.014553875662386417,
                    "136": -0.031016403809189796,
                    "137": 0.07777204364538193,
                    "138": -0.03404979780316353,
                    "139": -0.06128714233636856,
                    "140": -0.007784530054777861,
                    "141": 0.031837187707424164,
                    "142": -0.034760694950819016,
                    "143": -0.04307981953024864,
                    "144": -0.03871509060263634,
                    "145": -0.050918761640787125,
                    "146": 0.0785703957080841,
                    "147": -0.02866934798657894,
                    "148": -0.01135691162198782,
                    "149": 0.013708146288990974,
                    "150": -0.0718717947602272,
                    "151": 0.04402685910463333,
                    "152": 0.027087904512882233,
                    "153": 0.06334828585386276,
                    "154": -0.0052042156457901,
                    "155": -0.05061522126197815,
                    "156": 0.07902703434228897,
                    "157": 0.04398859292268753,
                    "158": -0.0440073199570179,
                    "159": -0.03232889622449875,
                    "160": 0.07744169980287552,
                    "161": 0.04579245671629906,
                    "162": -0.02111130766570568,
                    "163": 0.006747896317392588,
                    "164": -0.026676703244447708,
                    "165": -0.04235420376062393,
                    "166": 0.028857264667749405,
                    "167": 0.07772814482450485,
                    "168": 0.03824518248438835,
                    "169": -0.0176751296967268,
                    "170": -0.04345144331455231,
                    "171": -0.017138628289103508,
                    "172": 0.05491374060511589,
                    "173": -0.04166395962238312,
                    "174": 0.044418320059776306,
                    "175": 0.06670110672712326,
                    "176": -0.053646333515644073,
                    "177": -0.03859763219952583,
                    "178": 0.010789222083985806,
                    "179": -0.040566083043813705,
                    "180": -0.06309759616851807,
                    "181": -0.058641549199819565,
                    "182": 0.050536058843135834,
                    "183": 0.06384380161762238,
                    "184": -0.03683726489543915,
                    "185": -0.0317271426320076,
                    "186": -0.0573926717042923,
                    "187": 0.02394956164062023,
                    "188": 0.009766084142029285,
                    "189": -0.012373632751405239,
                    "190": 0.03744089603424072,
                    "191": -0.017315145581960678,
                    "192": -0.07412658631801605,
                    "193": 0.052319712936878204,
                    "194": 0.014132448472082615,
                    "195": -0.04565024375915527,
                    "196": 0.01543611939996481,
                    "197": 0.07209376245737076,
                    "198": 0.013393611647188663,
                    "199": 0.05581357330083847,
                    "200": 0.031229954212903976,
                    "201": -0.05413449928164482,
                    "202": 0.020430415868759155,
                    "203": 0.016406308859586716,
                    "204": 0.05903134495019913,
                    "205": -0.04613421484827995,
                    "206": -0.029803795740008354,
                    "207": 0.028245769441127777,
                    "208": 0.05597511678934097,
                    "209": -0.004182929173111916,
                    "210": -0.05062378942966461,
                    "211": 0.06467681378126144,
                    "212": -0.07947718352079391,
                    "213": 0.04083864390850067,
                    "214": 0.03014487214386463,
                    "215": 0.04606461897492409,
                    "216": -0.003433723235502839,
                    "217": -0.016713222488760948,
                    "218": -0.022882265970110893,
                    "219": -0.024646008387207985,
                    "220": -0.023826248943805695,
                    "221": -0.04180406033992767,
                    "222": 0.02820577286183834,
                    "223": -0.05576203018426895,
                    "224": 0.02435261197388172,
                    "225": -0.013942796736955643,
                    "226": -0.0016557370545342565,
                    "227": 0.04840388894081116,
                    "228": -0.020983068272471428,
                    "229": 0.06125535070896149,
                    "230": -0.07780609279870987,
                    "231": 0.03561073914170265,
                    "232": -0.057694289833307266,
                    "233": 0.028982529416680336,
                    "234": 0.045688826590776443,
                    "235": -0.029140105471014977,
                    "236": -0.07329709082841873,
                    "237": 0.03290164843201637,
                    "238": -0.04443848505616188,
                    "239": -0.01904173009097576,
                    "240": 0.012652660720050335,
                    "241": -0.029287898913025856,
                    "242": -0.06798969209194183,
                    "243": -0.0021752691827714443,
                    "244": 0.013162211515009403,
                    "245": 0.03960007429122925,
                    "246": 0.04852861166000366,
                    "247": 0.061310529708862305,
                    "248": -0.023189574480056763,
                    "249": 0.035184480249881744,
                    "250": -0.027124162763357162,
                    "251": 0.07571832835674286,
                    "252": 0.07886233180761337,
                    "253": -0.03966548293828964,
                    "254": -0.013261684216558933,
                    "255": -0.06042800471186638,
                    "256": 0.0003073684929404408,
                    "257": -0.00007288211781997234,
                    "258": 0.016808688640594482,
                    "259": 0.06998266279697418,
                    "260": -0.04317136108875275,
                    "261": 0.010445580817759037,
                    "262": 0.015080627053976059,
                    "263": 0.019247733056545258,
                    "264": 0.04038737714290619,
                    "265": -0.00191636779345572,
                    "266": -0.029574528336524963,
                    "267": -0.034974776208400726,
                    "268": -0.04734655097126961,
                    "269": 0.035441819578409195,
                    "270": 0.02624944970011711,
                    "271": 0.05499923229217529,
                    "272": -0.057686418294906616,
                    "273": 0.038545917719602585,
                    "274": -0.007749253883957863,
                    "275": 0.06200067698955536,
                    "276": -0.0473230816423893,
                    "277": 0.044801484793424606,
                    "278": 0.06750784069299698,
                    "279": 0.04960227757692337,
                    "280": -0.018937334418296814,
                    "281": 0.07439106702804565,
                    "282": -0.01363714225590229,
                    "283": -0.00035423500230535865,
                    "284": -0.04184678569436073,
                    "285": 0.0231770109385252,
                    "286": -0.03215675801038742,
                    "287": -0.008599708788096905,
                    "288": 0.02249627374112606,
                    "289": -0.07308045029640198,
                    "290": 0.015376475639641285,
                    "291": 0.05132155120372772,
                    "292": 0.06165154650807381,
                    "293": 0.027585823088884354,
                    "294": 0.0202019102871418,
                    "295": 0.06673336029052734,
                    "296": 0.00785440020263195,
                    "297": 0.03432552143931389,
                    "298": 0.028126003220677376,
                    "299": -0.004946338944137096,
                    "300": 0.037060193717479706,
                    "301": 0.0689065009355545,
                    "302": 0.04032927751541138,
                    "303": 0.06576095521450043,
                    "304": -0.011488566175103188,
                    "305": -0.06441178172826767,
                    "306": -0.013385254889726639,
                    "307": -0.035990845412015915,
                    "308": 0.05069505795836449,
                    "309": 0.05630550906062126,
                    "310": -0.02426837384700775,
                    "311": -0.05623827502131462,
                    "312": 0.0532120056450367,
                    "313": 0.061890069395303726,
                    "314": -0.03032591938972473,
                    "315": 0.02814996801316738,
                    "316": 0.07363434135913849,
                    "317": -0.032254427671432495,
                    "318": 0.011768192052841187,
                    "319": -0.02605046145617962,
                    "320": 0.032034941017627716,
                    "321": 0.04494739696383476,
                    "322": 0.06726094335317612,
                    "323": 0.05870557576417923,
                    "324": 0.0486515611410141,
                    "325": 0.04712165519595146,
                    "326": -0.007750826887786388,
                    "327": 0.06965876370668411,
                    "328": -0.0633191391825676,
                    "329": -0.03048267960548401,
                    "330": 0.05909794941544533,
                    "331": 0.0004982961108908057,
                    "332": -0.06404662877321243,
                    "333": -0.007960628718137741,
                    "334": -0.010229606181383133,
                    "335": -0.03665190935134888,
                    "336": -0.026564359664916992,
                    "337": 0.028432821854948997,
                    "338": 0.037708133459091187,
                    "339": 0.021690553054213524,
                    "340": -0.07790126651525497,
                    "341": -0.07150040566921234,
                    "342": 0.07446977496147156,
                    "343": 0.020164476707577705,
                    "344": -0.07287360727787018,
                    "345": 0.05606638640165329,
                    "346": -0.04048546031117439,
                    "347": 0.009264248423278332,
                    "348": 0.06710264831781387,
                    "349": -0.04043593630194664,
                    "350": 0.01718008704483509,
                    "351": -0.049926117062568665,
                    "352": -0.049767617136240005,
                    "353": 0.03661710396409035,
                    "354": 0.055808112025260925,
                    "355": -0.028942791745066643,
                    "356": 0.06567952036857605,
                    "357": -0.03455805033445358,
                    "358": 0.024021035060286522,
                    "359": 0.07541866600513458,
                    "360": -0.004522320814430714,
                    "361": 0.025786804035305977,
                    "362": 0.04136015102267265,
                    "363": -0.02777778171002865,
                    "364": 0.009069216437637806,
                    "365": -0.008974462747573853,
                    "366": 0.07350277155637741,
                    "367": 0.012276994995772839,
                    "368": 0.008110731840133667,
                    "369": -0.032671503722667694,
                    "370": -0.038355570286512375,
                    "371": -0.04258790612220764,
                    "372": 0.007698935456573963,
                    "373": 0.03927162289619446,
                    "374": -0.004805654752999544,
                    "375": -0.04343763366341591,
                    "376": -0.053436633199453354,
                    "377": 0.06714919954538345,
                    "378": -0.020431583747267723,
                    "379": -0.04252415522933006,
                    "380": -0.00246776407584548,
                    "381": -0.05808522552251816,
                    "382": 0.032833002507686615,
                    "383": -0.060849256813526154,
                    "384": -0.05163069814443588,
                    "385": 0.03495749458670616,
                    "386": 0.00345455389469862,
                    "387": -0.02724326401948929,
                    "388": 0.010766454041004181,
                    "389": 0.023135706782341003,
                    "390": 0.037043582648038864,
                    "391": -0.06737693399190903,
                    "392": -0.04846649989485741,
                    "393": -0.024049043655395508,
                    "394": 0.00947717484086752,
                    "395": 0.015812497586011887,
                    "396": 0.055598024278879166,
                    "397": 0.009991654194891453,
                    "398": 0.05441081151366234,
                    "399": 0.0032996342051774263
                }
            },
            "inputBias": {
                "rows": 20,
                "columns": 1,
                "weights": {
                    "0": 0,
                    "1": 0,
                    "2": 0,
                    "3": 0,
                    "4": 0,
                    "5": 0,
                    "6": 0,
                    "7": 0,
                    "8": 0,
                    "9": 0,
                    "10": 0,
                    "11": 0,
                    "12": 0,
                    "13": 0,
                    "14": 0,
                    "15": 0,
                    "16": 0,
                    "17": 0,
                    "18": 0,
                    "19": 0
                }
            },
            "forgetMatrix": {
                "rows": 20,
                "columns": 20,
                "weights": {
                    "0": 0.045411158353090286,
                    "1": 0.058133382350206375,
                    "2": 0.034751199185848236,
                    "3": -0.010122203268110752,
                    "4": 0.04399547725915909,
                    "5": -0.021529637277126312,
                    "6": -0.06949206441640854,
                    "7": -0.05046588182449341,
                    "8": -0.07784160226583481,
                    "9": 0.032037023454904556,
                    "10": -0.0418911837041378,
                    "11": 0.040830522775650024,
                    "12": -0.00511788297444582,
                    "13": -0.07670637965202332,
                    "14": 0.07496790587902069,
                    "15": -0.012973048724234104,
                    "16": 0.04043079912662506,
                    "17": -0.056542061269283295,
                    "18": -0.006285389419645071,
                    "19": -0.0055814143270254135,
                    "20": 0.05217732861638069,
                    "21": -0.008083499036729336,
                    "22": -0.051229238510131836,
                    "23": -0.02482891082763672,
                    "24": -0.039114128798246384,
                    "25": 0.027782758697867393,
                    "26": 0.02001900225877762,
                    "27": -0.0014337836764752865,
                    "28": 0.07741321623325348,
                    "29": -0.02687952294945717,
                    "30": -0.07761267572641373,
                    "31": 0.014714999124407768,
                    "32": -0.050303272902965546,
                    "33": -0.04266512766480446,
                    "34": 0.06496842950582504,
                    "35": -0.028154343366622925,
                    "36": 0.04100232198834419,
                    "37": 0.04078207537531853,
                    "38": -0.03988341987133026,
                    "39": 0.02124141901731491,
                    "40": -0.05592968314886093,
                    "41": -0.06934782862663269,
                    "42": 0.035557013005018234,
                    "43": -0.031829990446567535,
                    "44": -0.02600369229912758,
                    "45": 0.011743097566068172,
                    "46": -0.05404625087976456,
                    "47": -0.07368796318769455,
                    "48": -0.03992528095841408,
                    "49": 0.029668042436242104,
                    "50": -0.06704868376255035,
                    "51": 0.06134045496582985,
                    "52": -0.016739528626203537,
                    "53": 0.07063233107328415,
                    "54": -0.045496679842472076,
                    "55": 0.04918968304991722,
                    "56": -0.048635125160217285,
                    "57": -0.016361912712454796,
                    "58": -0.039223648607730865,
                    "59": 0.020374976098537445,
                    "60": 0.025828341022133827,
                    "61": -0.035105086863040924,
                    "62": -0.028958173468708992,
                    "63": -0.07715589553117752,
                    "64": -0.01413199957460165,
                    "65": -0.04645983874797821,
                    "66": -0.05480246618390083,
                    "67": -0.0428830124437809,
                    "68": -0.02060815319418907,
                    "69": 0.05886176601052284,
                    "70": 0.01933073252439499,
                    "71": 0.04556628316640854,
                    "72": 0.04167307913303375,
                    "73": -0.05586768686771393,
                    "74": 0.04108889028429985,
                    "75": -0.03959774598479271,
                    "76": 0.03819815069437027,
                    "77": -0.013346928171813488,
                    "78": 0.012059083208441734,
                    "79": 0.05189211294054985,
                    "80": -0.03702098876237869,
                    "81": -0.0025790228974074125,
                    "82": -0.06422177702188492,
                    "83": -0.024529052898287773,
                    "84": -0.056833334267139435,
                    "85": 0.01995694823563099,
                    "86": -0.04604111611843109,
                    "87": 0.017178328707814217,
                    "88": 0.060558974742889404,
                    "89": -0.01798705942928791,
                    "90": 0.015141813084483147,
                    "91": -0.021208902820944786,
                    "92": 0.006621633656322956,
                    "93": -0.046497080475091934,
                    "94": 0.0489717572927475,
                    "95": 0.006970070768147707,
                    "96": 0.061093952506780624,
                    "97": 0.05504374951124191,
                    "98": 0.011608384549617767,
                    "99": 0.007716937456279993,
                    "100": -0.008725997060537338,
                    "101": -0.03177056089043617,
                    "102": 0.040746841579675674,
                    "103": -0.056054845452308655,
                    "104": -0.03969448804855347,
                    "105": -0.008102891966700554,
                    "106": -0.029122192412614822,
                    "107": -0.040612563490867615,
                    "108": 0.07588686794042587,
                    "109": 0.04436885938048363,
                    "110": -0.02035859413444996,
                    "111": 0.018718108534812927,
                    "112": -0.058689940720796585,
                    "113": 0.005419620778411627,
                    "114": -0.021698856726288795,
                    "115": -0.00598284462466836,
                    "116": -0.06319043785333633,
                    "117": 0.0062237149104475975,
                    "118": 0.039103034883737564,
                    "119": -0.0008083860739134252,
                    "120": -0.03478524088859558,
                    "121": 0.005059809423983097,
                    "122": -0.042574118822813034,
                    "123": -0.05773600563406944,
                    "124": -0.00008021622488740832,
                    "125": 0.004245382733643055,
                    "126": -0.05003988742828369,
                    "127": -0.03471283242106438,
                    "128": 0.0690656378865242,
                    "129": 0.032870616763830185,
                    "130": -0.05256880819797516,
                    "131": -0.006021653767675161,
                    "132": 0.010099731385707855,
                    "133": -0.030818277969956398,
                    "134": 0.05085819214582443,
                    "135": 0.06313494592905045,
                    "136": -0.03569554537534714,
                    "137": 0.012094996869564056,
                    "138": -0.017002835869789124,
                    "139": 0.02486647292971611,
                    "140": 0.07397577911615372,
                    "141": -0.008528134785592556,
                    "142": 0.07964419573545456,
                    "143": -0.012809298001229763,
                    "144": 0.011690769344568253,
                    "145": -0.028507525101304054,
                    "146": -0.02666933834552765,
                    "147": -0.02591252699494362,
                    "148": -0.017380841076374054,
                    "149": 0.02438449114561081,
                    "150": -0.06149379909038544,
                    "151": -0.03269455209374428,
                    "152": 0.014103751629590988,
                    "153": -0.03912142664194107,
                    "154": -0.0050255656242370605,
                    "155": 0.020162880420684814,
                    "156": 0.020467614755034447,
                    "157": -0.022227032110095024,
                    "158": -0.05298483371734619,
                    "159": -0.07181033492088318,
                    "160": -0.06097371503710747,
                    "161": 0.05237605422735214,
                    "162": 0.05689176544547081,
                    "163": -0.04747733473777771,
                    "164": -0.06020202860236168,
                    "165": 0.007834180258214474,
                    "166": -0.03493818640708923,
                    "167": -0.07841837406158447,
                    "168": 0.059453193098306656,
                    "169": -0.02108752168715,
                    "170": 0.05081160366535187,
                    "171": -0.033245909959077835,
                    "172": 0.028665337711572647,
                    "173": 0.05641775578260422,
                    "174": -0.04109904542565346,
                    "175": -0.042456723749637604,
                    "176": 0.05724967643618584,
                    "177": -0.04640718922019005,
                    "178": -0.003735130652785301,
                    "179": -0.010596711188554764,
                    "180": 0.015296527184545994,
                    "181": 0.029801050201058388,
                    "182": -0.07173886895179749,
                    "183": -0.07857910543680191,
                    "184": -0.014140254817903042,
                    "185": 0.06431910395622253,
                    "186": 0.05218987166881561,
                    "187": 0.01744777150452137,
                    "188": 0.042204342782497406,
                    "189": 0.05914751812815666,
                    "190": -0.03904853016138077,
                    "191": -0.008308851160109043,
                    "192": -0.061633508652448654,
                    "193": 0.05233464762568474,
                    "194": 0.008321653120219707,
                    "195": -0.01253799069672823,
                    "196": 0.05755915120244026,
                    "197": 0.07958070933818817,
                    "198": -0.03606665879487991,
                    "199": 0.004131989553570747,
                    "200": 0.037179555743932724,
                    "201": -0.002283129608258605,
                    "202": -0.04263397306203842,
                    "203": -0.06413710862398148,
                    "204": 0.0656258761882782,
                    "205": -0.06873247027397156,
                    "206": 0.06803039461374283,
                    "207": 0.04357147589325905,
                    "208": -0.057563114911317825,
                    "209": -0.03302793949842453,
                    "210": -0.049006931483745575,
                    "211": -0.02750934287905693,
                    "212": 0.04227883741259575,
                    "213": -0.06403619050979614,
                    "214": -0.008246542885899544,
                    "215": -0.00876706838607788,
                    "216": 0.054138485342264175,
                    "217": -0.07748588919639587,
                    "218": -0.03688229247927666,
                    "219": -0.009670425206422806,
                    "220": 0.028720200061798096,
                    "221": 0.05269809812307358,
                    "222": 0.0362282320857048,
                    "223": 0.03703010082244873,
                    "224": -0.012579375877976418,
                    "225": 0.015346284955739975,
                    "226": 0.052101898938417435,
                    "227": -0.02000983990728855,
                    "228": 0.04910677298903465,
                    "229": -0.07964955270290375,
                    "230": 0.052914123982191086,
                    "231": 0.010424943640828133,
                    "232": -0.07923879474401474,
                    "233": -0.006505586672574282,
                    "234": -0.012264249846339226,
                    "235": 0.024549365043640137,
                    "236": -0.006810059770941734,
                    "237": -0.003988081589341164,
                    "238": 0.005500040482729673,
                    "239": 0.009659204632043839,
                    "240": -0.031370289623737335,
                    "241": -0.00874977745115757,
                    "242": 0.0667751282453537,
                    "243": -0.06739920377731323,
                    "244": 0.02177882008254528,
                    "245": -0.05693335458636284,
                    "246": 0.022712500765919685,
                    "247": 0.06609845161437988,
                    "248": 0.051150064915418625,
                    "249": -0.05760963261127472,
                    "250": 0.01352717261761427,
                    "251": 0.033988989889621735,
                    "252": 0.041944071650505066,
                    "253": 0.030152350664138794,
                    "254": -0.03147784620523453,
                    "255": 0.022658811882138252,
                    "256": -0.02956678904592991,
                    "257": 0.03863249346613884,
                    "258": 0.005841090809553862,
                    "259": -0.043230969458818436,
                    "260": 0.07780230045318604,
                    "261": 0.030341558158397675,
                    "262": 0.0014580689603462815,
                    "263": -0.04721304029226303,
                    "264": -0.043593473732471466,
                    "265": -0.04641805216670036,
                    "266": 0.07246030867099762,
                    "267": 0.06710344552993774,
                    "268": -0.049946799874305725,
                    "269": -0.011169630102813244,
                    "270": -0.07286763191223145,
                    "271": 0.018344096839427948,
                    "272": 0.045513540506362915,
                    "273": -0.018396297469735146,
                    "274": 0.017306217923760414,
                    "275": 0.06529941409826279,
                    "276": 0.03802760690450668,
                    "277": -0.06158851087093353,
                    "278": 0.06362888962030411,
                    "279": -0.00352072692476213,
                    "280": -0.003604204161092639,
                    "281": -0.0603795200586319,
                    "282": -0.07052451372146606,
                    "283": 0.028863005340099335,
                    "284": 0.02792781963944435,
                    "285": -0.06884467601776123,
                    "286": 0.03116725943982601,
                    "287": -0.0471259206533432,
                    "288": 0.054315611720085144,
                    "289": 0.07801198959350586,
                    "290": 0.012064356356859207,
                    "291": -0.020530354231595993,
                    "292": -0.051687128841876984,
                    "293": 0.034374117851257324,
                    "294": -0.016340427100658417,
                    "295": -0.06361240893602371,
                    "296": -0.044706568121910095,
                    "297": 0.06730092316865921,
                    "298": -0.06656128168106079,
                    "299": -0.02651880867779255,
                    "300": -0.045648910105228424,
                    "301": 0.005341737996786833,
                    "302": -0.0677192360162735,
                    "303": 0.03886045888066292,
                    "304": 0.051534682512283325,
                    "305": -0.07486676424741745,
                    "306": -0.03025219775736332,
                    "307": 0.0363636389374733,
                    "308": -0.07321344316005707,
                    "309": -0.010806887410581112,
                    "310": -0.007518747355788946,
                    "311": -0.027816614136099815,
                    "312": -0.04834587126970291,
                    "313": -0.02371789515018463,
                    "314": -0.026970382779836655,
                    "315": -0.019370222464203835,
                    "316": 0.002417398849502206,
                    "317": -0.06792867183685303,
                    "318": -0.03481601923704147,
                    "319": 0.04747435823082924,
                    "320": -0.028065437451004982,
                    "321": -0.04652037099003792,
                    "322": -0.028067585080862045,
                    "323": 0.06797388941049576,
                    "324": 0.04054831340909004,
                    "325": -0.03646544739603996,
                    "326": 0.012215634807944298,
                    "327": -0.0728328749537468,
                    "328": -0.0722137913107872,
                    "329": -0.024051811546087265,
                    "330": -0.07216176390647888,
                    "331": 0.07907706499099731,
                    "332": -0.022808825597167015,
                    "333": 0.04896548017859459,
                    "334": 0.02963367849588394,
                    "335": 0.001729505369439721,
                    "336": -0.06944941729307175,
                    "337": 0.004513703752309084,
                    "338": -0.044978395104408264,
                    "339": -0.07193411141633987,
                    "340": 0.031208429485559464,
                    "341": 0.0014445161214098334,
                    "342": 0.059849031269550323,
                    "343": -0.0064371079206466675,
                    "344": 0.037868522107601166,
                    "345": -0.03601744398474693,
                    "346": 0.02893660217523575,
                    "347": 0.06535179167985916,
                    "348": -0.07661671936511993,
                    "349": -0.008075874298810959,
                    "350": 0.044400475919246674,
                    "351": -0.06964106112718582,
                    "352": -0.00888680201023817,
                    "353": 0.07573433965444565,
                    "354": -0.019321100786328316,
                    "355": -0.05686935782432556,
                    "356": 0.0026749945245683193,
                    "357": -0.04184674099087715,
                    "358": 0.01908300630748272,
                    "359": -0.05192587897181511,
                    "360": 0.002415470080450177,
                    "361": 0.041880425065755844,
                    "362": -0.044251490384340286,
                    "363": 0.0386432521045208,
                    "364": -0.05303305387496948,
                    "365": -0.00104347406886518,
                    "366": -0.07956233620643616,
                    "367": 0.06684361398220062,
                    "368": -0.07590682804584503,
                    "369": 0.035925719887018204,
                    "370": -0.008130230009555817,
                    "371": -0.027305247262120247,
                    "372": 0.043635252863168716,
                    "373": -0.01818533055484295,
                    "374": -0.01989336498081684,
                    "375": -0.019096920266747475,
                    "376": 0.06629886478185654,
                    "377": -0.049315668642520905,
                    "378": -0.0014318341854959726,
                    "379": 0.06386605650186539,
                    "380": -0.043697528541088104,
                    "381": -0.03902757167816162,
                    "382": 0.021766774356365204,
                    "383": 0.07400138676166534,
                    "384": 0.06858356297016144,
                    "385": 0.024935239925980568,
                    "386": -0.001379790948703885,
                    "387": -0.07921667397022247,
                    "388": 0.05687575787305832,
                    "389": 0.006680723279714584,
                    "390": -0.027133388444781303,
                    "391": -0.04778822138905525,
                    "392": 0.024663042277097702,
                    "393": -0.006175005342811346,
                    "394": -0.0059218090027570724,
                    "395": 0.07393340766429901,
                    "396": -0.016139796003699303,
                    "397": 0.07151556760072708,
                    "398": -0.04200911149382591,
                    "399": 0.06445598602294922
                }
            },
            "forgetHidden": {
                "rows": 20,
                "columns": 20,
                "weights": {
                    "0": 0.06601108610630035,
                    "1": 0.035754311829805374,
                    "2": 0.047692157328128815,
                    "3": -0.010928514413535595,
                    "4": -0.03191043809056282,
                    "5": -0.016397736966609955,
                    "6": 0.012991957366466522,
                    "7": 0.022044779732823372,
                    "8": -0.06038528308272362,
                    "9": -0.05214487761259079,
                    "10": 0.03477328270673752,
                    "11": 0.06341849267482758,
                    "12": -0.07600463181734085,
                    "13": 0.07165451347827911,
                    "14": 0.0235565435141325,
                    "15": -0.01939218118786812,
                    "16": -0.05859752744436264,
                    "17": -0.04053448513150215,
                    "18": 0.0429997593164444,
                    "19": -0.05354061350226402,
                    "20": -0.048128873109817505,
                    "21": -0.06413991749286652,
                    "22": 0.023941965773701668,
                    "23": 0.03402818739414215,
                    "24": -0.05517888441681862,
                    "25": -0.006882116198539734,
                    "26": 0.0341060608625412,
                    "27": -0.049573708325624466,
                    "28": 0.0012389570474624634,
                    "29": -0.028148768469691277,
                    "30": -0.027659902349114418,
                    "31": -0.0787636935710907,
                    "32": 0.0538482591509819,
                    "33": -0.0358860082924366,
                    "34": -0.06570664048194885,
                    "35": -0.05234212055802345,
                    "36": -0.06431590765714645,
                    "37": 0.05535844713449478,
                    "38": -0.07455293834209442,
                    "39": 0.01875881850719452,
                    "40": -0.07959406822919846,
                    "41": -0.05936018377542496,
                    "42": -0.00815570168197155,
                    "43": 0.020395753905177116,
                    "44": 0.02187839336693287,
                    "45": 0.023852700367569923,
                    "46": -0.017697174102067947,
                    "47": 0.051133595407009125,
                    "48": -0.026903459802269936,
                    "49": -0.01580587588250637,
                    "50": -0.06151221692562103,
                    "51": 0.07284802198410034,
                    "52": 0.061373159289360046,
                    "53": 0.002708007348701358,
                    "54": -0.04555411636829376,
                    "55": -0.06948557496070862,
                    "56": -0.0387967973947525,
                    "57": 0.04730895161628723,
                    "58": 0.05154034495353699,
                    "59": -0.07589078694581985,
                    "60": 0.022581184282898903,
                    "61": -0.05668662115931511,
                    "62": 0.04089697450399399,
                    "63": -0.047372594475746155,
                    "64": -0.04555836319923401,
                    "65": 0.036424651741981506,
                    "66": 0.013411218300461769,
                    "67": -0.07511796802282333,
                    "68": -0.04308634623885155,
                    "69": -0.047826480120420456,
                    "70": -0.06293536722660065,
                    "71": -0.013137564063072205,
                    "72": -0.03498883917927742,
                    "73": 0.06636739522218704,
                    "74": 0.052675675600767136,
                    "75": -0.053955208510160446,
                    "76": -0.06441551446914673,
                    "77": -0.07875028252601624,
                    "78": 0.02816052734851837,
                    "79": -0.04976053908467293,
                    "80": 0.04131903499364853,
                    "81": 0.047506678849458694,
                    "82": 0.026707947254180908,
                    "83": -0.0598369725048542,
                    "84": 0.00132949894759804,
                    "85": 0.06722027063369751,
                    "86": 0.0032460580114275217,
                    "87": 0.04299384355545044,
                    "88": -0.022030657157301903,
                    "89": 0.05927467718720436,
                    "90": -0.012229672633111477,
                    "91": -0.04128744825720787,
                    "92": -0.050735749304294586,
                    "93": 0.027516359463334084,
                    "94": -0.06575899571180344,
                    "95": -0.07761930674314499,
                    "96": 0.0020360867492854595,
                    "97": 0.05318043380975723,
                    "98": 0.04686332121491432,
                    "99": -0.06224058195948601,
                    "100": -0.07072914391756058,
                    "101": 0.022359726950526237,
                    "102": -0.010318970307707787,
                    "103": -0.04063304886221886,
                    "104": 0.0002689708780962974,
                    "105": -0.00830040406435728,
                    "106": -0.007585649378597736,
                    "107": -0.03176480531692505,
                    "108": -0.059851475059986115,
                    "109": 0.06417715549468994,
                    "110": 0.03731263056397438,
                    "111": -0.0771440640091896,
                    "112": -0.015662729740142822,
                    "113": 0.07042090594768524,
                    "114": -0.06146908551454544,
                    "115": -0.031055858358740807,
                    "116": 0.028311176225543022,
                    "117": 0.0022753977682441473,
                    "118": 0.04247153922915459,
                    "119": 0.07713022083044052,
                    "120": 0.03768519312143326,
                    "121": 0.06622586399316788,
                    "122": -0.011856170371174812,
                    "123": 0.0047796061262488365,
                    "124": 0.06777288764715195,
                    "125": -0.018971174955368042,
                    "126": 0.010023519396781921,
                    "127": 0.012444103136658669,
                    "128": -0.052371956408023834,
                    "129": -0.03674798831343651,
                    "130": -0.0459144152700901,
                    "131": 0.04741582274436951,
                    "132": 0.056912995874881744,
                    "133": 0.027469228953123093,
                    "134": 0.05651639401912689,
                    "135": 0.0035662641748785973,
                    "136": 0.023931674659252167,
                    "137": -0.04812835529446602,
                    "138": -0.06474253535270691,
                    "139": -0.049402158707380295,
                    "140": -0.07849776744842529,
                    "141": -0.0697687491774559,
                    "142": -0.05438975989818573,
                    "143": -0.008263086900115013,
                    "144": -0.045833636075258255,
                    "145": 0.06256674975156784,
                    "146": 0.05963573604822159,
                    "147": 0.07147306203842163,
                    "148": -0.0757342129945755,
                    "149": -0.01161938440054655,
                    "150": 0.03679855167865753,
                    "151": -0.04552183300256729,
                    "152": -0.01705053448677063,
                    "153": 0.025014705955982208,
                    "154": -0.06805866211652756,
                    "155": -0.03009517677128315,
                    "156": -0.06706041097640991,
                    "157": 0.04225260764360428,
                    "158": -0.06948645412921906,
                    "159": -0.049838755279779434,
                    "160": 0.005737985018640757,
                    "161": -0.053154170513153076,
                    "162": 0.07724036276340485,
                    "163": -0.07908735424280167,
                    "164": -0.07998466491699219,
                    "165": -0.06272588670253754,
                    "166": 0.014426833018660545,
                    "167": -0.04078228399157524,
                    "168": 0.023670578375458717,
                    "169": 0.014529114589095116,
                    "170": -0.07011731714010239,
                    "171": -0.009268609806895256,
                    "172": 0.025324538350105286,
                    "173": -0.017689546570181847,
                    "174": -0.024870289489626884,
                    "175": -0.05080953612923622,
                    "176": -0.07061202079057693,
                    "177": -0.07229085266590118,
                    "178": -0.05700639262795448,
                    "179": -0.05056316405534744,
                    "180": -0.02313373051583767,
                    "181": -0.06480946391820908,
                    "182": -0.008716235868632793,
                    "183": 0.0691935271024704,
                    "184": 0.02720356360077858,
                    "185": 0.0009744218550622463,
                    "186": -0.0249385554343462,
                    "187": 0.01786474697291851,
                    "188": 0.04496408626437187,
                    "189": -0.07669203728437424,
                    "190": -0.057403165847063065,
                    "191": -0.03006579540669918,
                    "192": -0.06497865170240402,
                    "193": 0.019122539088129997,
                    "194": 0.0010641294065862894,
                    "195": 0.06072645261883736,
                    "196": -0.003096197033300996,
                    "197": 0.013644104823470116,
                    "198": 0.02836872637271881,
                    "199": 0.01301768608391285,
                    "200": -0.06308618187904358,
                    "201": -0.05089861527085304,
                    "202": 0.061176735907793045,
                    "203": 0.06638971716165543,
                    "204": 0.0005732068093493581,
                    "205": -0.026302218437194824,
                    "206": 0.06430239230394363,
                    "207": -0.04619017615914345,
                    "208": -0.008581473492085934,
                    "209": 0.05379807576537132,
                    "210": 0.06735829263925552,
                    "211": -0.029318897053599358,
                    "212": -0.03348400071263313,
                    "213": -0.04571961984038353,
                    "214": 0.046489156782627106,
                    "215": -0.05648771673440933,
                    "216": -0.005432289093732834,
                    "217": 0.07646270096302032,
                    "218": -0.07330057770013809,
                    "219": -0.017690112814307213,
                    "220": 0.04721947759389877,
                    "221": 0.03585043177008629,
                    "222": 0.06654562801122665,
                    "223": 0.032701414078474045,
                    "224": 0.011797633953392506,
                    "225": 0.0034820486325770617,
                    "226": 0.02513299509882927,
                    "227": 0.06830369681119919,
                    "228": 0.026306018233299255,
                    "229": 0.006290145684033632,
                    "230": -0.033957988023757935,
                    "231": 0.04921488091349602,
                    "232": 0.016419947147369385,
                    "233": -0.04292664676904678,
                    "234": 0.02020038664340973,
                    "235": 0.008344079367816448,
                    "236": 0.02466931752860546,
                    "237": 0.07012833654880524,
                    "238": 0.0032484401017427444,
                    "239": 0.037742286920547485,
                    "240": -0.004211993422359228,
                    "241": -0.04614967480301857,
                    "242": 0.031900711357593536,
                    "243": -0.003669834230095148,
                    "244": -0.035509079694747925,
                    "245": -0.02781485766172409,
                    "246": -0.0035514559131115675,
                    "247": 0.02889363281428814,
                    "248": 0.03718617185950279,
                    "249": -0.04160812124609947,
                    "250": -0.033737663179636,
                    "251": 0.04879956692457199,
                    "252": 0.004719829652458429,
                    "253": 0.011144425719976425,
                    "254": 0.04515054449439049,
                    "255": -0.011596599593758583,
                    "256": -0.012485412880778313,
                    "257": -0.008370677009224892,
                    "258": 0.014950400218367577,
                    "259": 0.07339847832918167,
                    "260": -0.009656275622546673,
                    "261": -0.07333928346633911,
                    "262": -0.02450525015592575,
                    "263": -0.03988736867904663,
                    "264": -0.03878981992602348,
                    "265": 0.00656817527487874,
                    "266": -0.06195257604122162,
                    "267": -0.033499184995889664,
                    "268": -0.038956813514232635,
                    "269": -0.05087955296039581,
                    "270": 0.05450105294585228,
                    "271": 0.0796222910284996,
                    "272": 0.032298654317855835,
                    "273": -0.06218486279249191,
                    "274": 0.06282684952020645,
                    "275": 0.04139813035726547,
                    "276": 0.03184182196855545,
                    "277": 0.0618436336517334,
                    "278": 0.06879672408103943,
                    "279": 0.072725810110569,
                    "280": 0.024882234632968903,
                    "281": -0.061208851635456085,
                    "282": -0.06090635806322098,
                    "283": 0.0003049946390092373,
                    "284": -0.03881216421723366,
                    "285": -0.05776411294937134,
                    "286": -0.029866958037018776,
                    "287": -0.054005712270736694,
                    "288": 0.06515969336032867,
                    "289": 0.059556372463703156,
                    "290": -0.0015864316374063492,
                    "291": 0.06979872286319733,
                    "292": -0.012858277186751366,
                    "293": -0.017799703404307365,
                    "294": 0.06464403122663498,
                    "295": 0.021083738654851913,
                    "296": -0.018438393250107765,
                    "297": -0.009737382642924786,
                    "298": -0.06389369815587997,
                    "299": 0.0158975962549448,
                    "300": -0.01927492581307888,
                    "301": -0.02870747447013855,
                    "302": -0.004924749489873648,
                    "303": -0.0458466112613678,
                    "304": -0.015758397057652473,
                    "305": 0.06488816440105438,
                    "306": -0.0111916558817029,
                    "307": -0.032822784036397934,
                    "308": 0.07634622603654861,
                    "309": -0.02313673123717308,
                    "310": 0.004900400992482901,
                    "311": -0.0324091799557209,
                    "312": -0.027083728462457657,
                    "313": -0.042141664773225784,
                    "314": 0.05236062407493591,
                    "315": -0.07882614433765411,
                    "316": -0.0016218054806813598,
                    "317": -0.01417625229805708,
                    "318": 0.02466599829494953,
                    "319": -0.011866309680044651,
                    "320": -0.06765139102935791,
                    "321": 0.03181825205683708,
                    "322": 0.04642267897725105,
                    "323": -0.07880614697933197,
                    "324": 0.00741045456379652,
                    "325": -0.01945154368877411,
                    "326": -0.04057222604751587,
                    "327": 0.02359233796596527,
                    "328": -0.05458437651395798,
                    "329": -0.03387533500790596,
                    "330": 0.022123083472251892,
                    "331": 0.016943806782364845,
                    "332": 0.06651279330253601,
                    "333": 0.047549013048410416,
                    "334": 0.008105462417006493,
                    "335": -0.04545632377266884,
                    "336": -0.048550307750701904,
                    "337": 0.03041226789355278,
                    "338": -0.008929482661187649,
                    "339": 0.04175323620438576,
                    "340": -0.020259171724319458,
                    "341": -0.07243125140666962,
                    "342": -0.048935920000076294,
                    "343": -0.022299759089946747,
                    "344": -0.020611053332686424,
                    "345": -0.06940989941358566,
                    "346": 0.01685035414993763,
                    "347": -0.07091059535741806,
                    "348": 0.028341049328446388,
                    "349": 0.007827285677194595,
                    "350": 0.029851485043764114,
                    "351": -0.0763707309961319,
                    "352": -0.05222162976861,
                    "353": 0.04636344686150551,
                    "354": -0.060437850654125214,
                    "355": 0.021045560017228127,
                    "356": 0.06460507214069366,
                    "357": -0.07092069089412689,
                    "358": 0.014962129294872284,
                    "359": 0.034656450152397156,
                    "360": -0.07076185196638107,
                    "361": 0.044689666479825974,
                    "362": 0.07153921574354172,
                    "363": 0.07911824434995651,
                    "364": 0.06732771545648575,
                    "365": -0.005891963839530945,
                    "366": -0.02232353761792183,
                    "367": -0.02192971296608448,
                    "368": -0.042601220309734344,
                    "369": 0.07554509490728378,
                    "370": -0.05683521553874016,
                    "371": -0.03342680633068085,
                    "372": 0.02439448982477188,
                    "373": -0.037618089467287064,
                    "374": -0.02583960071206093,
                    "375": -0.01872212439775467,
                    "376": 0.045354899019002914,
                    "377": -0.029365234076976776,
                    "378": 0.010705681517720222,
                    "379": -0.0518878772854805,
                    "380": -0.06989563256502151,
                    "381": -0.032936908304691315,
                    "382": -0.0013879938051104546,
                    "383": -0.03668507561087608,
                    "384": 0.012181790545582771,
                    "385": 0.04567865654826164,
                    "386": 0.035307444632053375,
                    "387": 0.017883719876408577,
                    "388": -0.05708202347159386,
                    "389": -0.03276195749640465,
                    "390": -0.07324419915676117,
                    "391": -0.00842507928609848,
                    "392": -0.0339069701731205,
                    "393": -0.02170729823410511,
                    "394": -0.06361979991197586,
                    "395": 0.019389377906918526,
                    "396": -0.01162670273333788,
                    "397": -0.07637344300746918,
                    "398": 0.049265436828136444,
                    "399": 0.011931158602237701
                }
            },
            "forgetBias": {
                "rows": 20,
                "columns": 1,
                "weights": {
                    "0": 0,
                    "1": 0,
                    "2": 0,
                    "3": 0,
                    "4": 0,
                    "5": 0,
                    "6": 0,
                    "7": 0,
                    "8": 0,
                    "9": 0,
                    "10": 0,
                    "11": 0,
                    "12": 0,
                    "13": 0,
                    "14": 0,
                    "15": 0,
                    "16": 0,
                    "17": 0,
                    "18": 0,
                    "19": 0
                }
            },
            "outputMatrix": {
                "rows": 20,
                "columns": 20,
                "weights": {
                    "0": 0.04518246650695801,
                    "1": 0.029783019796013832,
                    "2": -0.06985054910182953,
                    "3": -0.026261484250426292,
                    "4": 0.048570241779088974,
                    "5": 0.059360604733228683,
                    "6": -0.000003520496420605923,
                    "7": -0.020941391587257385,
                    "8": -0.024272071197628975,
                    "9": 0.031882546842098236,
                    "10": 0.011637067422270775,
                    "11": 0.0041189128533005714,
                    "12": -0.06431815773248672,
                    "13": 0.04358723387122154,
                    "14": -0.017580704763531685,
                    "15": -0.003219339996576309,
                    "16": 0.02484792284667492,
                    "17": 0.028474891558289528,
                    "18": 0.005973329767584801,
                    "19": -0.06335671991109848,
                    "20": 0.06257292628288269,
                    "21": 0.03688938543200493,
                    "22": 0.03160865604877472,
                    "23": 0.0739937573671341,
                    "24": -0.0622025802731514,
                    "25": -0.047186776995658875,
                    "26": -0.07926971465349197,
                    "27": 0.026585819199681282,
                    "28": 0.04018819332122803,
                    "29": -0.042231179773807526,
                    "30": -0.024904677644371986,
                    "31": 0.07025611400604248,
                    "32": 0.024056436493992805,
                    "33": -0.06288325786590576,
                    "34": -0.018887197598814964,
                    "35": -0.058425821363925934,
                    "36": -0.04512638971209526,
                    "37": 0.011217966675758362,
                    "38": -0.014123787172138691,
                    "39": -0.014584644697606564,
                    "40": -0.048089250922203064,
                    "41": 0.05865023657679558,
                    "42": -0.03819286823272705,
                    "43": 0.007307492662221193,
                    "44": -0.0417838878929615,
                    "45": 0.009731430560350418,
                    "46": -0.04433957114815712,
                    "47": 0.0006838267436251044,
                    "48": -0.0578165128827095,
                    "49": -0.00616115890443325,
